{"obs_dim": 11, "n_actions": 3, "grid": 12, "layers": [{"type": "linear", "activation": "relu", "W": [[-0.4125756323337555, 0.11294572800397873, -0.12130530178546906, -0.1501660794019699, -0.24208368360996246, -0.3915332555770874, -0.03317888453602791, 0.07647237181663513, -0.2325008511543274, -0.3651740849018097, -0.019704226404428482], [0.10473330318927765, -0.5189328789710999, 0.1154889166355133, -0.013774928636848927, -0.1942790001630783, -0.0688687190413475, -0.08468247205018997, -0.23859871923923492, -0.21283048391342163, -0.05417415127158165, -0.26414188742637634], [0.27059224247932434, 0.3466481864452362, -0.156712606549263, 0.052104104310274124, 0.06084645912051201, 0.03480766713619232, -0.007440357003360987, -0.08675366640090942, -0.28056973218917847, -0.26938438415527344, -0.3023093640804291], [-0.12542390823364258, 0.051172398030757904, 0.03304433077573776, -0.12993182241916656, -0.008359316736459732, -0.11634112894535065, -0.1517549604177475, -0.18635983765125275, -0.1193632036447525, -0.22089944779872894, -0.015131080523133278], [0.11734628677368164, -0.6317512392997742, 0.06904130429029465, 0.02737589180469513, 0.07146859914064407, -0.06327762454748154, -0.05584697052836418, -0.2481861114501953, -0.07814659923315048, -0.02093960903584957, 0.08350564539432526], [0.4636704623699188, -0.6170748472213745, 0.026394424960017204, -0.07885895669460297, -0.16433240473270416, -0.1273849755525589, -0.6034058928489685, -0.5265412926673889, -0.04588896036148071, 0.2859625220298767, 0.13135620951652527], [-0.28296759724617004, -0.055941157042980194, -0.006127725355327129, -0.09971047937870026, -0.31492042541503906, -0.15566828846931458, -0.21509087085723877, 0.014352984726428986, -0.05699979141354561, -0.2131168097257614, -0.09190299361944199], [-0.5287216901779175, -0.06018148362636566, 0.030284428969025612, 0.37323087453842163, 0.2068367302417755, -0.09882950037717819, -0.07818760722875595, 0.2118324190378189, -0.012870753183960915, -0.1466394066810608, -0.5989664793014526], [-0.49106431007385254, 0.16202475130558014, -0.4362058937549591, 0.13205473124980927, -0.18367470800876617, -0.2499765306711197, 0.1842154711484909, -0.1669793725013733, 0.09991573542356491, -0.09013036638498306, -0.508085310459137], [0.3486158847808838, -0.20293185114860535, -0.051320839673280716, -0.3950393795967102, 0.1063665896654129, 0.18264591693878174, -0.15314288437366486, 0.0663326233625412, -0.2126161754131317, -0.5827997326850891, -0.21678419411182404], [0.28510037064552307, -0.05548028275370598, 0.28655534982681274, -0.14204581081867218, -0.28554630279541016, 0.020836135372519493, -0.4749370813369751, -0.34189727902412415, -0.10927699506282806, 0.0010580148082226515, -0.3623902499675751], [-0.09970960766077042, -0.7924535274505615, 0.1673310101032257, 0.0630895122885704, -0.34706389904022217, 0.15549343824386597, -0.024363787844777107, 0.11966365575790405, 0.06026163324713707, 0.05146655812859535, -0.48758208751678467], [-0.032724954187870026, 0.27955538034439087, -0.3869870901107788, 0.21964561939239502, 0.20177844166755676, -0.5930526256561279, -0.5653039813041687, -0.4796326756477356, -0.414608895778656, 0.3626178801059723, -0.4098324477672577], [-0.04893193021416664, 0.2663831412792206, -0.16869564354419708, -0.13068532943725586, -0.11361326277256012, -0.11825825273990631, -0.2867158055305481, -0.04237120971083641, -0.04389939084649086, -0.015163449570536613, -0.13572494685649872], [0.4068402349948883, 0.043017420917749405, -0.13394314050674438, 0.0691957101225853, -0.40760093927383423, 0.12178491055965424, -0.4574248790740967, -0.04975409433245659, -0.7753505110740662, 0.11312687397003174, 0.38870638608932495], [-0.14880557358264923, 0.4425669014453888, 0.018015846610069275, -0.027967965230345726, -0.3383185565471649, 0.1135329082608223, 0.18828840553760529, 0.008040827699005604, 0.22382600605487823, -0.07859765738248825, 0.23875124752521515], [-0.08811024576425552, 0.07831321656703949, -0.10400135070085526, 0.03181248903274536, -0.09087499231100082, 0.23901763558387756, 0.09063705056905746, 0.07022617012262344, -0.11275946348905563, -0.31744828820228577, -0.38658133149147034], [0.20123742520809174, 0.14371396601200104, -0.46167537569999695, -0.2674734592437744, -0.22329236567020416, -0.334207683801651, -0.10871482640504837, -0.00845301803201437, 0.09254973381757736, 0.08472137153148651, -0.26435089111328125], [0.1170305535197258, 0.06105399876832962, -0.6892845034599304, 0.254458487033844, -0.3978598117828369, -0.46791040897369385, 0.25130802392959595, 0.07900959998369217, -0.0014850095612928271, -0.711323618888855, -0.005667503457516432], [-0.015371686778962612, -0.2517012655735016, -0.10967381298542023, -0.1119050458073616, -0.16680912673473358, 0.06185203790664673, -0.1244579404592514, -0.20204918086528778, -0.08406370133161545, 0.06921042501926422, 0.0981459692120552], [0.17321471869945526, -0.5527475476264954, 0.13166721165180206, -0.027259353548288345, -0.3166475296020508, -0.21513590216636658, -0.402255654335022, -0.05762088671326637, -0.16674135625362396, -0.4167192876338959, -0.46337658166885376], [-0.3499118983745575, -0.16439050436019897, 0.2275533825159073, -0.16386528313159943, -0.33859384059906006, 0.03060038387775421, -0.46147552132606506, 0.14373108744621277, -0.22826330363750458, 0.035330597311258316, -0.36465853452682495], [0.07725251466035843, 0.13209202885627747, 0.01991204358637333, 0.214033842086792, -0.2628712058067322, -0.04341338574886322, 0.17565688490867615, -0.39621469378471375, -0.06263014674186707, -0.08989538997411728, -0.1458037942647934], [0.3644813597202301, -0.46938759088516235, -0.4389742910861969, 0.022504491731524467, -0.30207008123397827, -0.4065944254398346, -0.41038841009140015, -0.4175468683242798, 0.003593100467696786, 0.3469291925430298, -0.17783336341381073], [0.04987781122326851, 0.36163631081581116, -0.08672837913036346, 0.3049316704273224, -0.40290236473083496, -0.40685588121414185, -0.4002213478088379, -0.7394834756851196, 0.006987093482166529, -0.4912241995334625, 0.16696134209632874], [0.43478938937187195, -0.24911582469940186, -0.1825605183839798, -0.2561267018318176, 0.1541653424501419, 0.028059734031558037, 0.06850286573171616, 0.14776943624019623, 0.04383993148803711, 0.1904546618461609, 0.21945974230766296], [0.006349646486341953, 0.2911096215248108, -0.06335820257663727, -0.20016777515411377, -0.02458922564983368, -0.3447968065738678, -0.18529830873012543, 0.0593753308057785, -0.1280565708875656, -0.052976831793785095, -0.237110897898674], [0.16925397515296936, -0.07533212751150131, -0.6614202260971069, -0.17089098691940308, -0.411996990442276, -0.02731701172888279, -0.04431517794728279, 0.08618269860744476, 0.27450594305992126, -0.11211496591567993, -0.03367877006530762], [-0.044698748737573624, -0.6364890933036804, 0.2519839406013489, 0.03741788864135742, -0.4158220887184143, -0.34557050466537476, -0.04027342051267624, -0.5049809813499451, 0.03363825008273125, -0.3777672350406647, -0.02923450618982315], [-0.2873733639717102, 0.3764837384223938, 0.11630326509475708, -0.4271440804004669, 0.03853558003902435, -0.02402649074792862, -0.21842315793037415, -0.1420874297618866, -0.3058238923549652, 0.21678385138511658, -0.12452949583530426], [0.5050780773162842, 0.17499223351478577, 0.29261907935142517, -0.08569451421499252, 0.009451243095099926, -0.06688976287841797, -0.13715803623199463, 0.003779510036110878, -0.06435015797615051, 0.02270042710006237, -0.04106990993022919], [-0.4649348556995392, 0.3293760418891907, -0.5050294399261475, 0.17337219417095184, -0.3024410009384155, -0.42959895730018616, -0.29881834983825684, -0.27120494842529297, 0.05115074664354324, -0.5062931180000305, -0.05950438231229782], [-0.30086371302604675, 0.2791789770126343, -0.1386258751153946, -0.5503630042076111, 0.3184167444705963, -0.12658166885375977, 0.19414761662483215, 0.1654655635356903, 0.2896316349506378, -0.6769525408744812, -0.34521132707595825], [-0.0815407857298851, -0.9187678694725037, 0.15974627435207367, 0.09750944375991821, -0.5118212699890137, -0.24012921750545502, 0.36990898847579956, -0.5526647567749023, 0.01809334196150303, 0.15437622368335724, -0.7511825561523438], [-0.1421223133802414, 0.15924060344696045, -0.35639411211013794, -0.27404212951660156, 0.3937598466873169, 0.4013146460056305, -0.16067002713680267, -0.5698357820510864, 0.09385697543621063, -0.09142803400754929, -0.7591514587402344], [-0.37803781032562256, -0.05128278583288193, -0.0032227749470621347, -0.030594341456890106, -0.022297650575637817, -0.0834796130657196, -0.17046403884887695, -0.040654875338077545, -0.12204158306121826, -0.25044482946395874, -0.12795904278755188], [-0.5030888915061951, 0.18028141558170319, -0.01448364183306694, 0.5025838613510132, -0.26274415850639343, -0.20714247226715088, 0.3752591609954834, 0.04298482462763786, -0.8958976864814758, -0.23593518137931824, -0.9625105261802673], [0.44881656765937805, -0.09813100099563599, -0.06240776926279068, 0.20047493278980255, -0.37068668007850647, -0.20611463487148285, -0.4414331018924713, -0.692927360534668, -0.22576110064983368, -0.13579463958740234, 0.15962526202201843], [0.27676889300346375, -0.08005598187446594, -0.03749799728393555, 0.2515786290168762, 0.1632899045944214, -0.30114585161209106, -0.3272086977958679, 0.40158092975616455, -0.24177025258541107, -0.09748934954404831, -0.15992553532123566], [0.2315235137939453, 0.03089509904384613, -0.23673593997955322, -0.0034615136682987213, -0.1905122548341751, -0.2780444025993347, -0.08101300150156021, -0.012731400318443775, -0.011463782750070095, -0.03343505412340164, -0.026926148682832718], [-0.094817616045475, -0.28946685791015625, -0.17298071086406708, 0.008646220900118351, -0.09177472442388535, -0.27851590514183044, -0.263578325510025, -0.031749919056892395, 0.140048548579216, -0.2172560691833496, -0.08936381340026855], [0.20625613629817963, 0.003787707770243287, -0.4057295024394989, -0.17146924138069153, -0.3407193422317505, 0.17774763703346252, -0.21556885540485382, -0.369561105966568, -0.07796083390712738, 0.15390214323997498, -0.19110167026519775], [-0.17218616604804993, 0.0827367827296257, 0.07310009002685547, -0.3481658101081848, 0.371890127658844, 0.31143808364868164, -0.4061201810836792, -0.3659566044807434, 0.347143292427063, -0.7912101149559021, -0.7954758405685425], [-0.3829582929611206, 0.14529621601104736, 0.09860636293888092, -0.0754450187087059, -0.28819540143013, -0.40386778116226196, -0.14941757917404175, -0.37797433137893677, -0.4707816243171692, -0.4040246903896332, -0.11539451777935028], [0.24583972990512848, -0.005226265639066696, 0.19011227786540985, -0.4415912926197052, -0.21283236145973206, 0.1427103579044342, 0.05740930140018463, 0.3065395653247833, -0.25944435596466064, -0.4866606295108795, -0.01638650894165039], [0.18505945801734924, -0.31796544790267944, 0.20620714128017426, -0.22643256187438965, -0.20853258669376373, 0.42455336451530457, -0.29856473207473755, -0.6827709674835205, -0.13116057217121124, -0.035209186375141144, -0.6963253021240234], [-0.6047837138175964, -0.020375249907374382, -0.40657585859298706, 0.0880022644996643, 0.22856444120407104, 0.29308024048805237, 0.1055670827627182, 0.20913513004779816, 0.20983320474624634, 0.071274533867836, 0.22824735939502716], [0.5073412656784058, 0.05346221104264259, 0.0826978012919426, -0.06137319281697273, -0.28056904673576355, -0.10416623204946518, -0.10087015479803085, 0.1823517382144928, 0.1799604892730713, 0.20911306142807007, 0.2611912488937378], [0.11315999180078506, -0.05196390673518181, 0.1899183839559555, 0.19591352343559265, 0.41065019369125366, -0.5021252632141113, -0.4340638518333435, -0.6159103512763977, -0.8704164624214172, -0.5856505632400513, 0.2693480849266052], [0.3386289179325104, 0.24510790407657623, -0.14307735860347748, -0.619964599609375, -0.07398097962141037, -0.7892166972160339, -0.012820767238736153, -0.04399792104959488, -0.7684792280197144, 0.20908097922801971, -0.33395275473594666], [0.17018543183803558, 0.1576576828956604, 0.05996784195303917, 0.11835122108459473, -0.5817647576332092, -0.5608347654342651, 0.2310294508934021, 0.12157551944255829, -0.5726807713508606, -0.6556876301765442, -0.14562350511550903], [-0.054255131632089615, -0.004357895348221064, 0.010438422672450542, -0.2620556056499481, -0.25156688690185547, -0.2941051125526428, 0.3621637523174286, -0.6492065787315369, -0.6590680480003357, -0.58095383644104, 0.08643695712089539], [0.17518971860408783, -0.25333720445632935, -0.12483294308185577, 0.06705541908740997, 0.021251710131764412, -0.0675724670290947, -0.12890753149986267, -0.23320221900939941, -0.27704760432243347, -0.06776751577854156, -0.14760106801986694], [0.3545546531677246, 0.016466494649648666, 0.4294041693210602, -0.0793357565999031, -0.3322393000125885, -0.41362378001213074, 0.006142082624137402, -0.1695648580789566, 0.0380072295665741, -0.06727863848209381, -0.36610954999923706], [-0.32425498962402344, 0.04338200390338898, 0.4609759747982025, 0.11083313822746277, -0.3597574234008789, -0.2395096868276596, 0.07205801457166672, -0.21043752133846283, 0.08868444710969925, -0.5863511562347412, -0.015755120664834976], [-0.19715432822704315, -0.16807222366333008, 0.3492143452167511, 0.2188972681760788, 0.3569433093070984, -0.3870226740837097, 0.09705908596515656, -0.8235043883323669, -0.08555524796247482, 0.1452629417181015, -0.06950821727514267], [0.00252317963168025, -0.060592904686927795, 0.21990008652210236, -0.05438515543937683, -0.5264095067977905, 0.31696632504463196, 0.055527642369270325, -0.20587830245494843, -0.8344180583953857, -0.05535580962896347, -0.36471715569496155], [-0.6234496831893921, 0.010922909714281559, 0.20546752214431763, 0.06482843309640884, -0.2937987148761749, -0.23800887167453766, -0.27927166223526, 0.2328384816646576, -0.0507277175784111, -0.27881067991256714, 0.04378778859972954], [0.14849482476711273, -0.36932888627052307, -0.05868987366557121, 0.4651831090450287, 0.05648442357778549, -0.3330919146537781, -0.3417508900165558, -0.47879305481910706, 0.3225328326225281, -0.7929074764251709, -0.234150230884552], [0.4472767412662506, 0.08467015624046326, 0.10914472490549088, -0.4001062512397766, 0.07145121693611145, -0.2613038420677185, -0.7926393747329712, -0.5339341759681702, 0.19661979377269745, -0.07570305466651917, 0.22147099673748016], [0.27954405546188354, -0.2079775184392929, 0.037861134856939316, -0.5234783291816711, -0.5209024548530579, -0.06277284771203995, -0.3037562668323517, -0.3138941526412964, 0.0924946665763855, -0.4221135973930359, 0.12710075080394745], [-0.13862809538841248, 0.5409885048866272, 0.48398175835609436, -0.25422021746635437, -0.272237092256546, -0.1424604058265686, -0.20994430780410767, 0.06918618083000183, 0.00942727830260992, 0.04352201148867607, 0.030564527958631516], [-0.5081167221069336, 0.2033752053976059, -0.4578169882297516, -0.27878525853157043, 0.15772689878940582, 0.10659094899892807, -0.27442580461502075, -0.1128077581524849, -0.23785245418548584, -0.12347863614559174, -0.318745881319046], [0.16509480774402618, 0.21808762848377228, 0.22100365161895752, -0.6591516137123108, -0.5364059805870056, -0.380031943321228, 0.02638639137148857, -0.3304888904094696, 0.04833165556192398, -0.43152937293052673, -0.023739395663142204], [0.4022522270679474, 0.16053542494773865, -0.13991406559944153, -0.2181195169687271, -0.39877891540527344, -0.6213945746421814, 0.012784341350197792, 0.15434187650680542, -0.5163724422454834, 0.1450713574886322, -0.4985164999961853], [-0.03833898901939392, -0.5527943968772888, 0.10913693904876709, 0.30080679059028625, 0.35901519656181335, 0.3247300088405609, 0.317943274974823, 0.10161370784044266, -0.0012956606224179268, -0.335572212934494, -0.24414630234241486], [-0.06987647712230682, -0.13236211240291595, -0.1505056917667389, 0.08323263376951218, 0.09877738356590271, -0.27259230613708496, -0.2780092656612396, -0.2282816469669342, -0.2958071231842041, -0.28926441073417664, -0.21966299414634705], [0.16546964645385742, -0.10047534108161926, -0.24576936662197113, 0.2119031697511673, -0.532993495464325, 0.4907661974430084, -0.437364399433136, 0.09046680480241776, 0.05768704414367676, -0.7725476026535034, -1.0715118646621704], [0.47504231333732605, 0.3036985695362091, 0.27720850706100464, 0.019516147673130035, -0.1998194307088852, -0.32509589195251465, -0.03168166056275368, -0.3146015703678131, 0.060287412256002426, -0.33917805552482605, -0.07859145849943161], [0.17406263947486877, 0.30098778009414673, 0.14791838824748993, -0.3756377398967743, 0.09177371114492416, 0.009143275208771229, -0.2800457179546356, -0.03591713681817055, -0.5359851121902466, -0.5466374158859253, -0.6320176720619202], [-0.4954788088798523, -0.07108426094055176, 0.09820308536291122, -0.09036309272050858, -0.25667569041252136, -0.13076744973659515, -0.24736087024211884, -0.03031628392636776, -0.2667132019996643, -0.18319781124591827, 0.0019023375352844596], [0.2621094286441803, 0.16472837328910828, 0.15609268844127655, -0.5020723938941956, 0.1481400579214096, -0.4683291018009186, 0.174150288105011, 0.18811368942260742, 0.11175258457660675, -0.6276199817657471, -0.6691117286682129], [-0.09929110109806061, 0.08083245158195496, -0.4095844626426697, -0.013759584166109562, -0.06595851480960846, -0.22117823362350464, 0.16804170608520508, -0.19437505304813385, 0.01786760985851288, 0.18334870040416718, 0.02973620593547821], [-0.3001865744590759, 0.27961745858192444, -0.43760737776756287, -0.0656127780675888, 0.2514500916004181, -0.08006495982408524, -0.11102546751499176, -0.04599333181977272, -0.38720664381980896, -0.27318328619003296, -0.012032445520162582], [0.2467358112335205, 0.2536178529262543, -0.1355879008769989, 0.3106907904148102, -0.5078244209289551, 0.03386969491839409, -0.34545326232910156, -0.019703039899468422, 0.07274792343378067, -0.5655245780944824, -0.28749316930770874], [-0.47407466173171997, -0.6400750279426575, 0.4182716906070709, -0.1432705670595169, 0.008392189629375935, -0.02368132956326008, -0.008584540337324142, 0.11605482548475266, -0.14141146838665009, 0.11249269545078278, 0.03098251298069954], [0.14333753287792206, -0.08296392112970352, 0.23884274065494537, 0.0914362221956253, 0.38646435737609863, -0.6587311029434204, -0.5182624459266663, -0.602336049079895, 0.3478841483592987, -0.8773435950279236, -0.3578781485557556], [-0.2999717593193054, -0.025976378470659256, 0.24879945814609528, 0.05941831320524216, 0.06601714342832565, 0.12732727825641632, -0.2648165822029114, -0.37210384011268616, -0.016122108325362206, 0.07698952406644821, -0.13339455425739288], [-0.06099718064069748, -0.08344515413045883, 0.0008810779545456171, -0.10939577966928482, -0.014128254726529121, 0.6122114062309265, -0.20216161012649536, -0.6834835410118103, -0.6877003312110901, 0.11216031014919281, -0.5835192799568176], [0.2676944434642792, 0.2830694913864136, -0.1904129683971405, 0.3536160886287689, 0.2524445354938507, -0.17476828396320343, 0.06982870399951935, -0.3304678797721863, -0.33712396025657654, -0.5642513036727905, -0.03632761165499687], [0.19415423274040222, 0.12063775211572647, 0.0968068391084671, 0.031194349750876427, -0.03367854654788971, 0.02858353778719902, -0.10195199400186539, -0.10861015319824219, -0.3385735750198364, 0.04097501561045647, -0.044403076171875], [0.2627571225166321, -0.6700339317321777, 0.3132503032684326, -0.6338051557540894, -0.05812448635697365, -0.22924081981182098, 0.251945823431015, -0.38925430178642273, 0.048218030482530594, -0.9185901880264282, -0.4560360312461853], [-0.05349702388048172, -0.35671645402908325, 0.20536693930625916, -0.1305409073829651, -0.05721896141767502, -0.04774068295955658, -0.13144905865192413, 0.007512789685279131, -0.03369249403476715, 0.01221483200788498, -0.03807518631219864], [0.36233606934547424, -0.49829262495040894, -0.7425702214241028, -0.35989663004875183, 0.383858859539032, -0.3969877362251282, -0.1815214306116104, 0.25650477409362793, -0.13790945708751678, -0.7461414933204651, -0.8173598647117615], [-0.3824674189090729, -0.8593387603759766, 0.27689623832702637, 0.23004820942878723, 0.26067695021629333, 0.19159865379333496, 0.06898210197687149, -0.3025684952735901, -0.05001702904701233, 0.16856104135513306, 0.20919294655323029], [0.056209370493888855, -0.10407376289367676, 0.023528527468442917, -0.47126275300979614, 0.32284730672836304, -0.6025710105895996, -0.6149168610572815, -0.24140726029872894, -0.9460331797599792, 0.2636665999889374, -0.6641734838485718], [0.049528542906045914, -0.5954801440238953, -0.3573123514652252, 0.2920624613761902, 0.2734604477882385, 0.26898282766342163, 0.12985444068908691, -0.14657588303089142, -0.17087899148464203, -2.545867027947679e-05, 0.012676346115767956], [-0.16527190804481506, 0.04494541510939598, -0.2098824381828308, -0.15280269086360931, -0.18766264617443085, -0.1484619379043579, -0.006257728673517704, -0.1738220751285553, -0.1592998504638672, -0.01280369982123375, -0.2222200632095337], [0.1663707047700882, 0.06175902485847473, 0.3235030472278595, -0.4065774083137512, -0.11117430031299591, -0.334759920835495, -0.18306909501552582, 0.22162078320980072, -0.17424459755420685, 0.28781694173812866, 0.013500244356691837], [0.11660922318696976, -0.5293259024620056, 0.08221897482872009, 0.1058221086859703, 0.17632289230823517, 0.22913077473640442, 0.057359714061021805, -0.22155259549617767, -0.34146589040756226, -0.37125787138938904, -0.2605387270450592], [0.3171757459640503, -0.34209826588630676, -0.4136160612106323, -0.36109620332717896, -0.3369326889514923, -0.27525779604911804, 0.024185029789805412, 0.3000853955745697, -0.08548034727573395, 0.16044475138187408, -0.16974905133247375], [-0.10532492399215698, 0.03176962956786156, -0.2397172451019287, 0.20150214433670044, -0.012285117991268635, 0.028428630903363228, -0.2802145183086395, -0.054301030933856964, -0.2027353048324585, -0.3529219329357147, -0.331928014755249], [-0.3132381737232208, 0.30990052223205566, 0.1627635657787323, -0.3651769161224365, 0.029576966539025307, -0.36621084809303284, -0.3649371266365051, 0.01053808443248272, -0.3947620093822479, -0.48304855823516846, -0.5000596642494202], [-0.04759915918111801, -0.021463731303811073, -0.6586120128631592, -0.4424382448196411, -0.4867496192455292, -0.20765754580497742, -0.22353781759738922, -0.07603690773248672, 0.09569085389375687, 0.10834603756666183, 0.006452231667935848], [0.21079592406749725, -0.3282372057437897, 0.18057286739349365, -0.4965931475162506, -0.02719770558178425, 0.1595267504453659, 0.15062308311462402, -0.06917891651391983, -0.43524524569511414, -0.046509768813848495, 0.09697780013084412], [0.4541386067867279, -0.5992634892463684, 0.05019630864262581, 0.07750953733921051, -0.4230988323688507, 0.10035227239131927, -0.25174784660339355, -0.14463476836681366, -0.5914862155914307, 0.1524253934621811, -0.4063211977481842], [-0.21021206676959991, 0.13838821649551392, 0.1264110654592514, -0.15087923407554626, 0.05533643439412117, 0.007150169461965561, -0.4683566689491272, 0.27539223432540894, -0.20523816347122192, -0.6471961140632629, -0.05136977136135101], [0.06951391696929932, 0.14301623404026031, 0.1796809434890747, 0.07239893823862076, -0.101185642182827, -0.2689756751060486, -0.07393693923950195, 0.004646882880479097, -0.04012778401374817, -0.06639588624238968, -0.3569311499595642], [-0.26961061358451843, 0.09785822033882141, 0.2360418289899826, 0.04128088057041168, 0.02300088107585907, 0.0698690265417099, 0.04794112220406532, -0.04163477197289467, -0.16276544332504272, 0.09449823200702667, 0.13766741752624512], [0.17402996122837067, 0.23411265015602112, -0.9815942645072937, 0.25232893228530884, 0.22018247842788696, 0.1081477552652359, 0.2130461484193802, 0.03273930773139, 0.046960122883319855, -0.03625309839844704, -0.0442630834877491], [-0.23028255999088287, 0.19410096108913422, 0.05911845713853836, -0.4107469320297241, -0.22322925925254822, -0.15126684308052063, -0.06914818286895752, -0.5574793815612793, -0.2832435071468353, -0.06542379409074783, -0.5163867473602295], [0.25678664445877075, -0.8136847615242004, 0.4768607020378113, 0.13279397785663605, 0.1272277534008026, -0.10836507380008698, -0.6658687591552734, -0.04689076170325279, 0.002175192814320326, -0.7144808769226074, 0.07171565294265747], [0.04974920675158501, 0.37291884422302246, 0.20368437469005585, -0.4266275465488434, 0.17834480106830597, -0.42711442708969116, -0.42372751235961914, 0.04648537188768387, -0.6042540073394775, -0.28161486983299255, -0.15407533943653107], [0.22478000819683075, -0.327857106924057, 0.12733370065689087, 0.16733472049236298, -0.5779377222061157, -0.40823429822921753, -0.15790607035160065, -0.3230036795139313, 0.19127510488033295, 0.13114102184772491, -0.2501318156719208], [-0.3131355345249176, -0.1433858871459961, 0.022925272583961487, -0.04581961780786514, -0.13392770290374756, 0.10943472385406494, 0.08661436289548874, -0.011940961703658104, -0.21469593048095703, 0.017172912135720253, -0.005515089724212885], [-0.5231163501739502, -0.15520773828029633, -0.3682795763015747, 0.07512219250202179, 0.3162831962108612, 0.16114738583564758, 0.04408024251461029, -0.2209036499261856, -0.07968301326036453, 0.24282768368721008, 0.25274011492729187], [-0.3668648302555084, 0.11568296700716019, 0.08895258605480194, -0.18434356153011322, -0.2134050577878952, 0.1634410172700882, -0.014329124242067337, -0.04498099908232689, -0.3936948776245117, -0.6270914673805237, -0.09946322441101074], [-0.9880735874176025, 0.07149297744035721, 0.0772380456328392, -0.3683124780654907, -0.46878671646118164, 0.4496089816093445, 0.40644142031669617, 0.11826259642839432, -0.42172420024871826, -0.8274667263031006, 0.09597261250019073], [-0.6870540976524353, 0.02019868977367878, 0.49782267212867737, -0.04857175052165985, -0.08120646327733994, 0.00016294862143695354, -0.12858088314533234, -0.249079629778862, 0.010807586833834648, 0.23070383071899414, 0.17649799585342407], [0.2596798241138458, 0.21881680190563202, -0.018878884613513947, -0.1884608417749405, -0.09827618300914764, -0.15148676931858063, 0.5581120252609253, -0.8185329437255859, 0.12253052741289139, -0.6346577405929565, 0.07326347380876541], [0.07774561643600464, 0.10944965481758118, -0.3761456608772278, -0.25584539771080017, -0.6497187614440918, -0.009357050061225891, 0.09918106347322464, -0.3053876459598541, -0.3157942593097687, -0.6044818162918091, 0.11135073751211166], [0.00011408236605348065, -0.5222354531288147, -0.11123211681842804, -0.4698612093925476, -0.0974353700876236, -0.1857936978340149, -0.17189925909042358, -0.4098898470401764, -0.23267364501953125, 0.044777024537324905, 0.1036844477057457], [-0.7936925292015076, 0.20519845187664032, -0.07744713872671127, -0.2500982880592346, -0.12012115865945816, 0.4348912835121155, -0.5876796841621399, -1.031814455986023, -0.471100389957428, -0.47809135913848877, 0.362862229347229], [-0.18790926039218903, 0.11223237961530685, 0.11459663510322571, 0.0024392064660787582, 0.15615610778331757, 0.2547230124473572, -0.036916621029376984, -0.2257390171289444, -0.23393583297729492, 0.026966897770762444, 0.050550974905490875], [0.32810792326927185, -0.07385949045419693, 0.24706773459911346, -0.37855398654937744, -0.4972834885120392, 0.07086978852748871, 0.15818239748477936, -0.31090956926345825, 0.12959890067577362, -0.07847544550895691, -0.3981904685497284], [0.17148882150650024, -0.10958822071552277, -0.1306767463684082, -0.595565676689148, 0.30297207832336426, -0.5959875583648682, 0.38038814067840576, -0.9846708178520203, -0.8417999744415283, 0.3859636187553406, 0.329282283782959], [0.20119863748550415, 0.20300234854221344, 0.0782584398984909, -0.5225093960762024, -0.4048505425453186, -0.1426587998867035, -0.12891064584255219, -0.17166361212730408, -0.03907407820224762, -0.28588077425956726, 0.05139109492301941], [0.05265089496970177, -0.40839624404907227, 0.17996785044670105, -0.2437497079372406, -0.4131056070327759, 0.2020355463027954, 0.3594898581504822, 0.1672023981809616, -0.6960763335227966, -0.2797113060951233, -0.8048262596130371], [-0.13293439149856567, 0.11310534179210663, 0.07041901350021362, -0.018103312700986862, -0.15728841722011566, -0.020894484594464302, -0.08616622537374496, 0.007015878334641457, -0.08387661725282669, -0.1823895275592804, -0.2386517971754074], [0.18075235188007355, 0.180580735206604, 0.08555294573307037, -0.1716526448726654, 0.21065638959407806, -0.24754635989665985, -0.33431753516197205, -0.06651102751493454, -0.45098891854286194, -0.376900315284729, 0.11520462483167648], [0.23244225978851318, 0.36728739738464355, 0.42321354150772095, -0.16042760014533997, 0.1780603975057602, 0.3082888424396515, -0.23441004753112793, -0.12729839980602264, -0.3677213191986084, -0.20210406184196472, -0.8048382997512817], [-0.35480621457099915, 0.2724149823188782, -0.4931209683418274, -0.16224391758441925, -0.1478763073682785, -0.1232718750834465, -0.009506580419838428, -0.18153999745845795, -0.11146832257509232, -0.07098134607076645, 0.03871247544884682], [-0.3176211416721344, -0.3397103250026703, 0.1407507210969925, -0.033774346113204956, -0.23396053910255432, 0.05864200368523598, -0.21490880846977234, -0.24749933183193207, -0.32227611541748047, -0.016989605501294136, -0.06739123165607452], [-0.27737224102020264, 0.14835496246814728, -0.19269895553588867, 0.020804012194275856, -0.22727814316749573, -0.4635365605354309, -0.22033026814460754, 0.07252267003059387, 0.21551910042762756, -0.1420787274837494, 0.10446842759847641], [-0.04186059162020683, -0.02253475785255432, 0.1723349243402481, 0.3750342130661011, -0.24316290020942688, 0.2180698961019516, -0.6330959796905518, -0.7883945107460022, -0.7913298010826111, 0.1698736697435379, -0.00732792541384697], [0.29185062646865845, 0.3687915802001953, -0.04683443158864975, 0.10534625500440598, -0.02443607524037361, -0.046029821038246155, -0.3673103451728821, 0.0350370816886425, 0.2263188511133194, 0.0896395668387413, -0.14008808135986328], [-0.17859868705272675, -0.4842332601547241, -0.15324324369430542, -0.008478695526719093, -0.07677273452281952, -0.27376261353492737, -0.2684662640094757, -0.43244481086730957, -0.14005877077579498, -0.23227299749851227, 0.02545221522450447], [0.2792632281780243, 0.10389996320009232, 0.3852540850639343, -0.08843929320573807, 0.0814913958311081, 0.15488390624523163, 0.1298738420009613, -0.04425446316599846, -0.3164256811141968, -0.5881826281547546, -0.23226575553417206]], "b": [-0.16170448064804077, -0.17530614137649536, 0.07395830005407333, -0.06646636873483658, -0.35332462191581726, -0.2864844501018524, 0.07168801873922348, 0.21295766532421112, -0.2138647735118866, -0.3840928077697754, -0.5947516560554504, -0.052658066153526306, -0.12151496112346649, -0.14483428001403809, -0.5247332453727722, -0.40828147530555725, -0.3926713466644287, -0.4147757887840271, 0.19892077147960663, -0.20250877737998962, -0.24510464072227478, -0.4411899447441101, -0.38804516196250916, -0.5362265706062317, -0.23434914648532867, -0.44326862692832947, -0.33788222074508667, -0.18114183843135834, -0.2672705054283142, -0.189790740609169, -0.4509998559951782, -0.16536875069141388, 0.009754233993589878, 0.16777223348617554, -0.07781002670526505, 0.058419786393642426, 0.20155096054077148, -0.18570640683174133, -0.43753278255462646, -0.2518112361431122, -0.16257813572883606, -0.3562873303890228, -0.13054271042346954, -0.14050839841365814, -0.371017724275589, -0.2062043994665146, 0.2336057871580124, -0.4768983721733093, -0.22368527948856354, -0.14830997586250305, -0.011389842256903648, 0.09791230410337448, -0.17605555057525635, -0.1902078241109848, -0.1472046822309494, -0.027051614597439766, 0.10303649306297302, -0.5770161747932434, -0.15408681333065033, -0.4431508481502533, -0.48283955454826355, -0.5000044703483582, -0.25520962476730347, -0.13462981581687927, -0.33972203731536865, 0.3048155903816223, 0.03709754720330238, 0.28150278329849243, -0.38911208510398865, -0.20737114548683167, -0.04367673397064209, -0.23552754521369934, -0.4610932171344757, -0.39905881881713867, -0.1472495049238205, 0.16326415538787842, -0.11140657961368561, -0.46295955777168274, -0.22159656882286072, -0.3170836269855499, -0.503109335899353, -0.19055283069610596, -0.17949163913726807, -0.2807689607143402, -0.04768501967191696, 0.04228907451033592, 0.13775861263275146, -0.03273829072713852, -0.5202500820159912, 0.07774388790130615, -0.5912444591522217, -0.2054784595966339, -0.3674083650112152, 0.00171380874235183, 0.030053436756134033, -0.2702700197696686, -0.164946049451828, -0.46929365396499634, -0.542597234249115, 0.28289157152175903, -0.18669545650482178, -0.21436327695846558, -0.4474404752254486, -0.14099380373954773, -0.15447479486465454, 0.491749107837677, -0.33804163336753845, -0.012914462946355343, -0.3134401738643646, -0.34899553656578064, -0.032319575548172, -0.01724396087229252, -0.02939901128411293, -0.5356587171554565, -0.21713627874851227, 0.02030661329627037, -0.41031506657600403, 0.024228524416685104, -0.18141084909439087, -0.07128777354955673, -0.36323606967926025, 0.0632198229432106, -0.1848098635673523, -0.5053853988647461, 0.23717249929904938, -0.6022297143936157, -0.019226055592298508, -0.3057509958744049]}, {"type": "linear", "activation": "relu", "W": [[-0.2618672549724579, 0.030065661296248436, -0.14376167953014374, 0.0542745366692543, -0.16341309249401093, -0.053880564868450165, -0.05787234008312225, -0.12924467027187347, -0.2578902840614319, -0.31450846791267395, -0.1272270828485489, -0.6443377137184143, -0.11333741992712021, -0.1594320684671402, 0.3778679668903351, 0.011364583857357502, -0.47279876470565796, -0.006928273010998964, 0.22389397025108337, -0.07342784106731415, -0.06527965515851974, 0.028971098363399506, -0.02074461802840233, 0.09085911512374878, 0.30658087134361267, -0.33900174498558044, 0.02799149975180626, -0.03119076043367386, -0.42371684312820435, -0.0759473368525505, -0.1973986178636551, -0.4940851330757141, -0.4013964533805847, -0.7222517132759094, -0.08382433652877808, -0.07381754368543625, 0.00441547017544508, 0.46978050470352173, -0.23620808124542236, 0.08753175288438797, 0.01697036437690258, -0.24478639662265778, -0.02764436975121498, -0.29020246863365173, -0.6492722034454346, -0.019190119579434395, -0.39092743396759033, -0.03461017832159996, 0.5680132508277893, -0.24683406949043274, -0.0957588255405426, -0.3816785216331482, -0.0018606255762279034, 0.4490184187889099, 0.15313434600830078, 0.044105153530836105, -0.1465151309967041, -0.10715814679861069, 0.2874189615249634, 0.04676255211234093, 0.12331650406122208, -0.03268244490027428, 0.13658887147903442, -0.08787710219621658, -0.20226642489433289, -0.1756957620382309, -0.07881291955709457, 0.05734880641102791, 0.4105120599269867, -0.2037689983844757, -0.12817063927650452, -0.12879244983196259, -0.044655878096818924, -0.29122960567474365, 0.4088483452796936, 0.002830216893926263, 0.6830756664276123, 0.09503263980150223, -0.4506832957267761, 0.28334319591522217, 0.03375224024057388, -0.23220793902873993, -0.01204639207571745, -0.20503060519695282, -0.23846326768398285, 0.2247418761253357, -0.27213406562805176, -0.15145176649093628, 0.13401800394058228, -0.07915177196264267, 0.019135113805532455, -0.193965882062912, -0.37713009119033813, -0.13956160843372345, -0.5696289539337158, -0.19909700751304626, -0.5820828676223755, -0.17234757542610168, 0.012795261107385159, -0.07359171658754349, -0.22190198302268982, -0.518802285194397, -0.5015379190444946, -0.7141683101654053, -0.05392908677458763, -0.5866507291793823, -0.25577831268310547, -0.41055238246917725, -0.026634439826011658, 0.2407776564359665, 0.12809452414512634, -0.0007535932236351073, 0.06945861130952835, -0.06736889481544495, -0.7494914531707764, -0.4398787319660187, -0.131950244307518, -0.13308757543563843, 0.08053269237279892, -0.0005957435932941735, -0.02980976179242134, 0.09139369428157806, -0.13380101323127747, -0.03234807774424553, 0.3388954699039459, 0.25135868787765503, -0.18786416947841644, -0.3712558448314667], [-0.05775915086269379, -0.1472569853067398, 0.038992367684841156, 0.1685054749250412, 0.0682653933763504, -0.4122135639190674, 0.02421691082417965, -0.41691040992736816, -0.7607601881027222, -0.6517464518547058, 0.08131514489650726, -0.01247084978967905, -0.5631729960441589, -0.1612682342529297, 0.24517366290092468, -0.26526254415512085, -0.0409124419093132, -0.2507130205631256, -0.4777269959449768, 0.010033647529780865, 0.0640212818980217, 0.13283614814281464, -0.1802259385585785, -0.06564837694168091, 0.21582970023155212, -0.2772143483161926, -0.39111045002937317, -0.35771995782852173, -0.027969779446721077, -0.7109247446060181, 0.04906622692942619, 0.33484211564064026, -0.6680094003677368, -0.38851529359817505, -0.06607045978307724, -0.17256394028663635, -0.21407705545425415, 0.502543568611145, 0.29327592253685, 0.07613583654165268, -0.042400509119033813, 0.10912716388702393, 0.1806519478559494, -0.4914878010749817, -0.35101935267448425, 0.18753455579280853, -0.4688602387905121, 0.23925207555294037, -0.0014979734551161528, -0.4784088432788849, 0.36432698369026184, -0.02748899534344673, -0.08828730881214142, 0.2557639181613922, 0.21718330681324005, -0.22203505039215088, -0.37450405955314636, -0.5099188685417175, -0.48405829071998596, -0.031054101884365082, -0.10753171890974045, -0.44733166694641113, 0.1210591122508049, 0.21696357429027557, -0.25875797867774963, -0.027039416134357452, -0.06299852579832077, -0.24530290067195892, 0.3037578761577606, 0.08142808824777603, -0.10209733992815018, -0.5478284358978271, -0.3563086688518524, -0.17539244890213013, 0.15132324397563934, -0.07908986508846283, -0.5372390747070312, -0.05625678971409798, -0.16504919528961182, 0.10096900910139084, -0.08334822952747345, -0.6039278507232666, -0.028641613200306892, -0.22748875617980957, -0.015775930136442184, 0.08727263659238815, -0.2642861604690552, -0.2583704888820648, -0.2141973227262497, -0.006923477631062269, -0.0004528739082161337, -0.7361341118812561, -0.14403456449508667, -0.11237016320228577, -0.01658596470952034, -0.7699145078659058, -0.18671976029872894, -0.04479610174894333, -0.3111588656902313, -0.3228171169757843, -0.4931900203227997, 0.2009885013103485, -0.6231164336204529, -0.22947359085083008, -0.012188623659312725, -0.3198907673358917, -0.07614316791296005, -0.260379433631897, -0.38337305188179016, 0.4769235849380493, -0.3618472218513489, -0.1555645763874054, -0.06159287691116333, -0.040424030274152756, -0.20953162014484406, -0.10720266401767731, -0.34163838624954224, -0.9926551580429077, -0.08585572987794876, -0.006115368567407131, 0.1704864501953125, -0.1621600091457367, -0.15719328820705414, -0.3734937012195587, 0.15167637169361115, 0.28646427392959595, -0.17146334052085876, -0.40965399146080017], [-0.0864342525601387, 0.03276384621858597, -0.013172624632716179, 0.07248397171497345, 0.010962598025798798, 0.05992629751563072, -0.05110751837491989, 0.046100568026304245, -0.003578087082132697, 0.035426028072834015, -0.042984820902347565, -0.08288372308015823, 0.05630025267601013, -0.10194579511880875, -0.03620213270187378, -0.04219530522823334, -0.008359486237168312, 0.04630490764975548, -0.035690609365701675, 0.0729280486702919, -0.047594256699085236, 0.06716341525316238, 0.0395672582089901, -0.0047255647368729115, -0.03106735646724701, 0.026714902371168137, -0.07372604310512543, 0.001156742568127811, -0.08452991396188736, -0.08519256860017776, -0.06422585994005203, 0.03605079650878906, -0.08776012808084488, -0.036530133336782455, 0.040579427033662796, -0.05083181709051132, -0.11086789518594742, 0.024573203176259995, -0.12312845885753632, 0.03236749768257141, -0.08572644740343094, -0.03060041554272175, 0.07547889649868011, -0.010872239246964455, -0.024021437391638756, 0.023580919951200485, -0.011159217916429043, -0.03705974295735359, -0.017333945259451866, -0.025097718462347984, -0.0163736492395401, -0.05667028948664665, -0.04298598691821098, -0.08913586288690567, 0.08090988546609879, -0.12128634750843048, 0.041537825018167496, 0.03892849385738373, 0.07233022153377533, -0.0005748992552980781, -0.06873687356710434, -0.04211457446217537, 0.05154748260974884, -0.008272799663245678, 0.0432007797062397, -0.0411049909889698, -0.02736556902527809, -0.05780155584216118, -0.11591137200593948, -0.07876357436180115, 0.0487285815179348, -0.00015371071640402079, 0.013684132136404514, -0.05730956792831421, -0.08600050956010818, -0.05320423096418381, 0.03400135785341263, 0.05521494522690773, -0.05549627169966698, -0.05685806646943092, -0.08946375548839569, 0.014214003458619118, 0.01888534426689148, 0.08438321202993393, -0.01907450333237648, -0.028395796194672585, -0.00746341934427619, 0.041759222745895386, 0.01914145238697529, 0.0007514181779697537, -0.03592034801840782, -0.03652416542172432, 0.009813318960368633, 0.0388038270175457, -0.004454883746802807, -0.033230096101760864, -0.011249170638620853, 0.045177996158599854, -0.04166397452354431, -0.08663780987262726, -0.10551197081804276, 0.03983234241604805, -0.05591077357530594, -0.09427754580974579, 0.044858455657958984, -0.08752698451280594, -0.07814591377973557, -0.0016846938524395227, -0.08486991375684738, 0.00042573214159347117, -0.041404422372579575, -0.03926902636885643, -0.026271583512425423, -0.019725944846868515, 0.007189847994595766, 0.03446662798523903, -0.0330386720597744, 0.02721555531024933, -0.09075821936130524, -0.0644109770655632, 0.07070816308259964, -0.008475348353385925, -0.024848928675055504, 0.06966845691204071, 0.02902941033244133, -0.09682250022888184, -0.04512378200888634, 0.07626437395811081], [-0.30525749921798706, -0.10965485870838165, -0.1946304440498352, 0.08514849096536636, 0.008149591274559498, -0.12215042114257812, -0.07768815755844116, -0.2119913250207901, -0.05960296094417572, 0.060109931975603104, -0.31559717655181885, -0.17458420991897583, -0.28241515159606934, -0.11516895145177841, -0.13018670678138733, -0.3287781774997711, -0.012674801051616669, 0.10705111920833588, -0.32048848271369934, -0.04429688677191734, -0.19780214130878448, -0.18827423453330994, 0.13408398628234863, -0.27766770124435425, -0.01660705916583538, -0.12673158943653107, -0.22163085639476776, -0.1745677888393402, -0.07065333425998688, -0.5299456119537354, -0.2412109225988388, 0.07288448512554169, -0.13778038322925568, 0.09431397169828415, -0.38210535049438477, -0.058576397597789764, -0.12421312183141708, -0.11051680892705917, -0.2665674388408661, -0.08757514506578445, -0.030878834426403046, -0.06694968789815903, -0.32365211844444275, 0.09151487797498703, 0.1617729812860489, -0.5529618263244629, -0.18783122301101685, -0.18779256939888, 0.34671321511268616, -0.1117362454533577, -0.25501376390457153, -1.092759132385254, -0.08922561258077621, 0.0593598373234272, -0.11167614907026291, -0.2317989617586136, 0.01257564127445221, -0.01774567738175392, 0.16632553935050964, -0.13430474698543549, -0.147667795419693, -0.5145984292030334, -0.12149215489625931, -0.38297510147094727, 0.049238815903663635, -0.16238342225551605, -0.015022959560155869, 0.1094217374920845, -0.34821832180023193, -0.16228635609149933, 0.046389490365982056, -0.09403705596923828, -0.11388418078422546, -0.43079203367233276, -0.2637777328491211, -0.19011951982975006, 0.13737867772579193, 0.03235635906457901, -0.839495837688446, -0.24795515835285187, 0.04255284368991852, -0.08016736805438995, -0.010408102534711361, 0.03511364012956619, -0.2753865718841553, -1.1134710311889648, -0.13507242500782013, -0.013490491546690464, -0.03431776538491249, -0.05229413881897926, -0.19680199027061462, -0.09632504731416702, 0.15426203608512878, -0.1321604996919632, -0.031534597277641296, 0.11037977784872055, 0.018357567489147186, 0.08970558643341064, 0.007964632473886013, -0.19607877731323242, -0.3374454081058502, -0.14168816804885864, 0.02592848800122738, -0.05723220854997635, -0.028759628534317017, -0.09924092143774033, 0.18399696052074432, -0.010877205990254879, -0.18481133878231049, -0.05324428528547287, -0.12667705118656158, -0.02704608626663685, 0.07981325685977936, -0.06620831042528152, -0.06708613783121109, 0.1084165945649147, -0.01448024157434702, 0.10858607292175293, -0.039045218378305435, -0.13384322822093964, -0.002672876464203, -0.13511599600315094, 0.029326826333999634, -0.06592272967100143, -0.06361927092075348, -0.18554961681365967, -0.1677974909543991, 0.022907333448529243], [-0.46195387840270996, 0.02212142013013363, 0.2282169759273529, 0.10441694408655167, 0.024986237287521362, 0.25053468346595764, -0.007730146404355764, 0.07650859653949738, -0.11378627270460129, 0.26498162746429443, 0.01185291912406683, -0.14522618055343628, -0.1751527488231659, 0.0040992386639118195, -0.38161182403564453, -0.22960804402828217, 0.023011887446045876, 0.13297219574451447, 0.1806766837835312, -0.07390967011451721, 0.11466392874717712, -0.17669150233268738, 0.1558285802602768, -0.9225921034812927, -0.04312684014439583, 0.19277869164943695, -0.08908577263355255, 0.31590402126312256, 0.15643881261348724, -0.21057359874248505, 0.18573547899723053, 0.09944231808185577, -0.09035319089889526, 0.40062955021858215, 0.06124007701873779, 0.015661776065826416, -0.23693761229515076, 0.07145325839519501, 0.23572029173374176, 0.14649486541748047, 0.06179305166006088, 0.24761344492435455, -0.13076721131801605, -0.08843953162431717, 0.23231010138988495, -0.027243351563811302, -0.26921308040618896, 0.3606553375720978, -0.15684671700000763, 0.10210395604372025, -0.19585564732551575, 0.08510418981313705, -0.10653173178434372, 0.10105358064174652, 0.07636874914169312, -0.14603284001350403, -0.04087667912244797, -0.21151968836784363, 0.2728829085826874, 0.15659530460834503, 0.17463071644306183, -0.21605505049228668, -0.31511715054512024, -0.005293524358421564, 0.15660089254379272, 0.2989136576652527, 2.2337828795571113e-06, 0.78240966796875, 0.2782582640647888, 0.09044674783945084, -0.08854363858699799, -0.47618237137794495, -0.6875442266464233, -0.7784016728401184, 0.3874247074127197, -0.20562025904655457, 0.029536185786128044, -0.20208251476287842, 0.13039423525333405, -0.1363278329372406, 0.07892799377441406, -0.6137306690216064, -0.003852528054267168, -0.12820884585380554, -0.7782734036445618, 0.2919324040412903, -0.11314446479082108, -0.2706282138824463, -0.05438489839434624, 0.004192910622805357, -0.06740448623895645, 0.21167734265327454, 0.3391954004764557, 0.0031054632272571325, 0.10667993873357773, -0.09910563379526138, 0.09656146913766861, 0.07601436227560043, -0.18984167277812958, 0.036188047379255295, 0.008889516815543175, 0.22401176393032074, 0.19002631306648254, 0.21643444895744324, -0.2107425034046173, -0.6133610010147095, 0.13967938721179962, 0.049384526908397675, -0.4201332628726959, 0.010941720567643642, -0.3904534578323364, -0.1975070685148239, 0.43768224120140076, -0.3111712634563446, 0.13690052926540375, 0.2885080873966217, 0.16418083012104034, -0.3002113401889801, 0.17862632870674133, 0.0987197756767273, 0.29561370611190796, -0.07587293535470963, -0.007978761568665504, -0.374578595161438, -0.3122901916503906, 0.25776243209838867, 0.13339878618717194, 0.27350765466690063], [-0.023381922394037247, -0.059423282742500305, 0.060137733817100525, -0.01924692653119564, -0.09835600852966309, -0.10118848830461502, 0.03568898141384125, -0.089267797768116, 0.025504006072878838, 0.010484966449439526, -0.033711355179548264, 0.056844767183065414, -0.005487804301083088, 0.03581920638680458, -0.04709971323609352, -0.04562188684940338, 0.00836808793246746, -0.015165900811553001, -0.03837693855166435, -0.06928417086601257, -0.09793967008590698, 0.03722089156508446, -0.028767595067620277, -0.030700238421559334, -0.0783005803823471, 0.01251266524195671, 0.004926892928779125, -0.03302183374762535, -0.018945757299661636, -0.025775905698537827, 0.013086879625916481, -0.02645793743431568, -0.07670701295137405, 0.05354335159063339, 0.036893222481012344, 0.011628546752035618, -0.06381288915872574, 0.052566006779670715, 0.05976364016532898, -0.022779347375035286, -0.0859958678483963, 0.08652390539646149, -0.038050923496484756, -0.02676008641719818, 0.060166142880916595, -0.05408090725541115, -0.07985077798366547, 0.033866673707962036, 0.04669833928346634, 0.04314524307847023, -0.06145555153489113, -0.0031726567540317774, -0.019741971045732498, -0.006947442889213562, -0.012759796343743801, -0.032967131584882736, -0.07171111553907394, -0.02395704761147499, -0.04761824756860733, -0.022992819547653198, 0.030888613313436508, -0.04022250697016716, -0.06342840194702148, -0.031322039663791656, -0.08077605813741684, 0.005326574668288231, 0.07402027398347855, -0.029853202402591705, 0.06004084646701813, 0.04237906634807587, 0.008521871641278267, -0.08786936849355698, -0.04827258735895157, 0.06301851570606232, -0.06581317633390427, -0.04160085320472717, 0.05070330202579498, -0.0018258752534165978, 0.05764421075582504, -0.013395890593528748, -0.07105076313018799, -0.057723816484212875, 0.08045381307601929, -0.0032573824282735586, 0.030249109491705894, -0.08536223322153091, 0.03489052876830101, 0.017530318349599838, -0.06219713017344475, -0.003275958588346839, -0.0986352264881134, -0.08542350679636002, -0.0753672644495964, -0.0326620489358902, -0.012377285398542881, -0.02416945807635784, -0.06658193469047546, -0.086591437458992, 0.07212221622467041, -0.05701832473278046, -0.06166674941778183, 0.05553628131747246, 0.08196251094341278, 0.012002488598227501, 0.07549628615379333, -0.07953567802906036, 0.0862184390425682, -0.07975762337446213, 0.0185806043446064, -0.04548250883817673, 0.041941359639167786, -0.018767159432172775, -0.0222722589969635, 0.011490242555737495, -0.014994914643466473, -0.0670776441693306, -0.05262872576713562, -0.055428456515073776, -0.05403279513120651, -0.03781703859567642, -0.04383241757750511, 0.028136929497122765, -0.06254608184099197, -0.08600933849811554, 0.013132315129041672, -0.029083527624607086, 0.019225656986236572, -0.05398368462920189], [-0.276549369096756, -0.3020399808883667, -0.1403270959854126, -0.07099754363298416, -0.050961919128894806, 0.07899131625890732, -0.021759578958153725, -0.0446920245885849, -0.4197213649749756, -0.0020349740516394377, 0.4426637887954712, -0.2225029319524765, 0.05897282436490059, -0.01244028564542532, -0.06718532741069794, -0.015935903415083885, 0.007996970787644386, -0.04176619276404381, -0.07175583392381668, -0.05836533382534981, -0.1777258813381195, 0.27590423822402954, -0.2502055764198303, -0.24200905859470367, -0.4263620376586914, -0.12802693247795105, 0.0789036899805069, -0.05738680064678192, 0.040335144847631454, -0.16431348025798798, 0.19855093955993652, -0.029862763360142708, -0.3529622256755829, 0.07204173505306244, -0.03179918974637985, -0.5644594430923462, 0.2558644115924835, -0.34748318791389465, -0.5181199312210083, 0.1333315521478653, -0.057648152112960815, -0.16969089210033417, 0.2656790614128113, -0.47010737657546997, -0.36921295523643494, -0.025486767292022705, -0.21514824032783508, 0.11081013828516006, -0.26995009183883667, 0.4304969310760498, 0.272580623626709, -0.42629149556159973, 0.03542151302099228, 0.2468065619468689, -0.654804527759552, -0.1169428899884224, 0.4063112139701843, -0.08167474716901779, 0.3496131896972656, 0.19280442595481873, -0.006365830544382334, 0.08463838696479797, -0.6002383232116699, -0.04618021845817566, 0.5475689768791199, -0.33162280917167664, -0.026111848652362823, -0.5115545392036438, -0.3105018138885498, -0.5421674251556396, -0.20154239237308502, 0.3945310711860657, 0.008178184740245342, -0.13962824642658234, -0.5699535012245178, 0.042584724724292755, 0.34350448846817017, -0.18945661187171936, 0.20819222927093506, 0.019144032150506973, 0.12928831577301025, -0.1635429412126541, 0.040775228291749954, 0.14932787418365479, -0.41714128851890564, -0.39011913537979126, -0.2903830409049988, -0.23317529261112213, 0.31535857915878296, -0.2679925560951233, -0.056349340826272964, -0.08599663525819778, -0.2599214017391205, -0.28741732239723206, 0.05322208255529404, -0.13861742615699768, -0.1353520005941391, -0.1054556742310524, 0.024548888206481934, -0.15661238133907318, 0.10887482017278671, 0.02222726307809353, -0.22063447535037994, -0.1795319765806198, 0.05769624561071396, -0.759509265422821, -0.31095263361930847, -0.3201015293598175, -0.15936408936977386, -0.720625638961792, -0.3234689235687256, -0.4439300298690796, -0.31434813141822815, -0.01578124426305294, -0.291217178106308, -0.1984991580247879, 0.19458702206611633, 0.091388039290905, -0.08733516186475754, -0.5391902327537537, -0.17321091890335083, -0.43398186564445496, 0.008468442596495152, -0.18481780588626862, -0.3153896629810333, -0.005726576317101717, -0.26720255613327026, -0.030508074909448624], [0.053168054670095444, -0.1352643221616745, -0.1206507757306099, -0.011827473528683186, -0.22244040668010712, -0.19652710855007172, -0.04844788461923599, -0.1323925405740738, -0.1641359031200409, -0.03005608730018139, 0.03294460102915764, -0.1831209361553192, -0.12774236500263214, -0.06612549722194672, 0.01728096976876259, -0.07062176614999771, -0.15432435274124146, -0.028262309730052948, -0.30084317922592163, -0.025301648303866386, 0.24552425742149353, 0.32053303718566895, -0.022836802527308464, -0.010246873833239079, -0.07866334170103073, -0.09737834334373474, -0.13277439773082733, -0.2802960276603699, -0.004895550198853016, -0.1763153225183487, -0.09591197967529297, -0.026590809226036072, -0.007754500024020672, 0.015277300029993057, -0.10027549415826797, 0.1410956084728241, -0.30467489361763, -0.13487903773784637, -0.00855289027094841, -0.17597603797912598, -0.05373461917042732, 0.008473191410303116, -0.006472183391451836, 0.3318857252597809, -0.18803058564662933, 0.06009684130549431, -0.21050041913986206, -0.1847803294658661, -0.029597630724310875, -0.06939391791820526, 0.08680705726146698, 0.449752539396286, -0.10895196348428726, -0.17651614546775818, -0.07960361987352371, -0.36944127082824707, -0.2807161211967468, -0.09497930109500885, -0.115526482462883, -0.1241258978843689, -0.05472568795084953, -0.06825822591781616, -0.24147146940231323, -0.19674943387508392, -0.2130488157272339, -0.07204264402389526, -0.03271721675992012, 0.06511475890874863, 0.09813804179430008, 0.2123805731534958, -0.16715487837791443, -0.024801548570394516, 0.014191696420311928, -0.05758507922291756, -0.11258743703365326, -0.10558319836854935, 0.062025830149650574, -0.02148072049021721, -0.07330835610628128, -0.10166691988706589, 0.0052465396001935005, -0.6294809579849243, -0.010899008251726627, -0.2592102289199829, -0.204880490899086, 0.1705215573310852, -0.26452475786209106, -0.11461419612169266, 0.00030051061185076833, -0.1657588928937912, -0.031006570905447006, -0.12863855063915253, 0.5848101377487183, -0.08739639818668365, -0.13757148385047913, -0.0797077864408493, 0.033098578453063965, 0.20508019626140594, -0.014041212387382984, -0.1219945102930069, -0.08461658656597137, -0.22308868169784546, 0.2588852345943451, -0.012478156015276909, -0.07039692997932434, -0.2513138949871063, 0.20992104709148407, -0.10680802911520004, -0.3394557535648346, 0.045208610594272614, -0.22371798753738403, -0.031042493879795074, -0.16626067459583282, -0.05487607419490814, -0.08509314060211182, -0.20885181427001953, -0.1604030430316925, -0.22851361334323883, 0.013686326332390308, 0.08248871564865112, 0.15251600742340088, -0.2970607578754425, -0.01823774166405201, 0.08516257256269455, -0.3387799561023712, -0.009111661463975906, -0.14541275799274445, -0.08139992505311966], [-0.06638793647289276, -0.05308800935745239, -0.04951832443475723, 0.02624846063554287, -0.10916702449321747, -0.0058882152661681175, -0.0397157184779644, -0.04421759396791458, -0.07952864468097687, 0.04780581220984459, -0.017624082043766975, -0.13800710439682007, 0.05803101882338524, -0.05345689132809639, 0.06374483555555344, -0.038881562650203705, -0.015696823596954346, -0.07426873594522476, -0.04739655181765556, -0.08345004171133041, 0.03552874177694321, -0.039085790514945984, -0.10378309339284897, 0.04901628568768501, 0.015750419348478317, 0.01612706109881401, 0.044392671436071396, 0.038447488099336624, -0.0932827889919281, -0.05261335149407387, -0.03655123710632324, -0.007555750198662281, -0.017684947699308395, -0.0362851545214653, 0.04026610404253006, -0.13578924536705017, -0.024784225970506668, -0.05463757738471031, -0.00966652948409319, -0.047298893332481384, -0.05187198147177696, -0.09247561544179916, 0.04037676006555557, -0.08323106914758682, -0.10839159041643143, -0.027283258736133575, 0.002568410011008382, 0.017275750637054443, 0.020431384444236755, -0.08097036927938461, -0.042272161692380905, -0.07125168293714523, 0.05514535307884216, -0.0703941062092781, -0.03607351705431938, 0.01790960505604744, -0.024447239935398102, -0.10202658921480179, 0.06555001437664032, -0.068496935069561, -0.08691740781068802, -0.10090439021587372, 0.008010703139007092, -0.04728188365697861, -0.04924849048256874, -0.008099506609141827, 0.06955139338970184, 0.07427370548248291, -0.05059901997447014, -0.036952994763851166, -0.07040808349847794, -0.10642103105783463, -0.09447933733463287, -0.025684986263513565, -0.053494811058044434, -0.14322195947170258, -0.06325753033161163, 0.04674772173166275, -0.09224812686443329, 0.04217923805117607, 0.018926875665783882, -0.011725158430635929, -0.09867885708808899, -0.07170114666223526, 0.05040380731225014, 0.08257360011339188, -0.12081794440746307, 0.046678248792886734, -0.07308892160654068, -0.1409025490283966, 0.00020437603234313428, -0.10635633766651154, -0.11496172100305557, -0.0601583756506443, -0.03622451797127724, 0.03444467857480049, -0.11641725897789001, -0.022493289783596992, -0.08317261934280396, 0.020694848150014877, -0.08110714703798294, 0.003899870440363884, -0.06244492903351784, -0.06689232587814331, -0.11174484342336655, 0.016384879127144814, 0.0036448233295232058, -0.036130141466856, 0.049383923411369324, -0.025744978338479996, -0.08397840708494186, 0.01272779330611229, -0.0777340829372406, -0.08313262462615967, -0.1212751641869545, 0.029999731108546257, 0.046613868325948715, 0.027233490720391273, -0.0943112000823021, 0.008141358382999897, 0.07333861291408539, 0.03953876346349716, -0.0020607453770935535, -0.037453338503837585, -0.09861905872821808, -0.05333486944437027, -0.07457543164491653, 0.0006260180380195379], [-0.1975007802248001, 0.051165856420993805, -0.10212980955839157, 0.017686177045106888, -0.003675391199067235, 0.005486537702381611, -0.13762106001377106, 0.036305367946624756, -0.020645206794142723, 0.048380810767412186, -0.1604340672492981, -0.08758287131786346, -0.16293714940547943, 0.028171857818961143, -0.024352818727493286, -0.014914841391146183, 0.06650307774543762, -0.11367753148078918, -0.08576082438230515, -0.01955476775765419, 0.015449108555912971, 0.075696662068367, -0.10290605574846268, -0.019721047952771187, -0.08136744797229767, -0.09805724024772644, -0.10818126052618027, -0.17966577410697937, -0.15042029321193695, -0.1661422699689865, -0.13475310802459717, -0.003751067677512765, -0.1877509504556656, -0.15350015461444855, -0.10036303102970123, -0.11348854005336761, 0.008257202804088593, -0.12982673943042755, -0.05197276175022125, -0.10938765853643417, 0.06371036916971207, -0.1600368469953537, -0.1539638340473175, 0.006820958107709885, 0.13017620146274567, 0.006881888024508953, -0.2441757321357727, -0.11163758486509323, 0.24588577449321747, 0.04293109104037285, -0.150703564286232, -0.17943497002124786, -0.04569298028945923, -0.024858394637703896, 0.009491660632193089, -0.11354391276836395, 0.0880524069070816, 0.015417609363794327, 0.19848217070102692, -0.033450234681367874, -0.022506950423121452, -0.05215681344270706, -0.10244769603013992, -0.05809576436877251, -0.1889364868402481, -0.07077634334564209, 0.0022772152442485094, 0.06929067522287369, -0.0824398323893547, -0.15993136167526245, -0.1125510036945343, 7.953651947900653e-05, 0.05290290340781212, -0.09590954333543777, -0.08717084676027298, -0.14052855968475342, 0.019884416833519936, -0.08765929192304611, 0.07396690547466278, 0.003021859796717763, 0.037313312292099, -0.0993196964263916, -0.04061101749539375, -0.06996668875217438, -0.05835410952568054, 0.08045829087495804, -0.13132865726947784, -0.02878415212035179, -0.1540556252002716, -0.07067567110061646, 0.054589737206697464, 0.028835253790020943, -0.12939471006393433, -0.14460088312625885, -0.098447285592556, -0.016936294734477997, -0.1595035046339035, 0.10772980004549026, -0.06427906453609467, -0.1995343267917633, 0.08913746476173401, -0.12415597587823868, -0.1520317792892456, -0.10195280611515045, -0.07032160460948944, -0.17080411314964294, -0.0038610482588410378, -0.0145484060049057, -0.13624954223632812, 0.03165102377533913, -0.37468934059143066, -0.11866813153028488, -0.12520402669906616, -0.3125801384449005, -0.06096023693680763, 0.27627092599868774, 0.14115305244922638, -0.11904589831829071, -0.015171284787356853, -0.018511971458792686, 0.07140854001045227, -0.11783980578184128, -0.06666071712970734, -0.18943549692630768, -0.15465869009494781, -0.023987125605344772, -0.18735918402671814, 0.026206202805042267], [0.03023737482726574, -0.1062534973025322, -0.1160537376999855, -0.057956818491220474, -0.14699561893939972, -0.08479510247707367, -0.013836265541613102, -0.12358970195055008, -0.10832108557224274, -0.48219501972198486, -0.3560747504234314, -0.1578570455312729, 0.15884380042552948, 0.04969087615609169, -0.24501933157444, 0.14759904146194458, 0.023109901696443558, 0.03716824948787689, 0.08762973546981812, -0.07115001231431961, -0.06754651665687561, -0.41726016998291016, -0.004535255022346973, -0.25793880224227905, -0.27154406905174255, -0.07412799447774887, 0.07601122558116913, -0.08925311267375946, -0.2039596438407898, -0.01641852967441082, -0.11414916068315506, -0.08862344175577164, 0.023355633020401, -0.13180537521839142, 0.17098334431648254, -0.07413353025913239, 0.19625937938690186, -0.20363077521324158, 0.03453730791807175, 0.07842206954956055, 0.028079567477107048, 0.0013784952461719513, 0.23036012053489685, 0.14982418715953827, -0.5823318362236023, 0.09307291358709335, -0.001183973392471671, -0.07678806781768799, -0.5312129855155945, -0.046068090945482254, 0.13308273255825043, 0.16441982984542847, 0.03693138808012009, -0.7701096534729004, -1.02764892578125, -0.2569246292114258, -0.5170984864234924, -0.5631024837493896, -0.42380937933921814, -0.2533775866031647, -0.13701458275318146, -0.27454620599746704, 0.016972126439213753, 0.31946584582328796, -0.10849510133266449, -0.12984073162078857, 0.07964269816875458, 0.19036024808883667, 0.1448596715927124, 0.2652255892753601, -0.06617256999015808, -0.23435187339782715, -0.01061268150806427, 0.05837581306695938, -0.006804997101426125, -0.3615639805793762, -0.16248318552970886, -0.2585187256336212, -0.30398014187812805, 0.17236219346523285, -0.07660366594791412, 0.07094208151102066, -0.09793636947870255, -0.17466796934604645, -0.11036184430122375, 0.30009520053863525, -0.01620437391102314, -0.13793322443962097, -0.5287063121795654, -0.06160907447338104, 0.00029446862754411995, -0.19384460151195526, 0.27552086114883423, -0.03412213549017906, -0.23178572952747345, -0.43051621317863464, -0.4743385314941406, -0.214264914393425, -0.1380186825990677, 0.0531560555100441, -0.032351087778806686, -0.14340457320213318, 0.19169002771377563, -0.30960583686828613, -0.019465744495391846, 0.058388736099004745, -0.27046576142311096, -0.09599430859088898, -0.6656010746955872, 0.1599041372537613, -0.02668728679418564, 0.004923433065414429, 0.28189727663993835, 0.07696729898452759, -0.15961672365665436, 0.18524782359600067, -0.12371988594532013, -0.058216340839862823, -0.0022329085040837526, -0.01530017051845789, -0.487820029258728, -0.045282166451215744, -0.010544540360569954, 0.06254258006811142, 0.09040062874555588, -0.005374204833060503, -0.1832667738199234, -0.35492202639579773], [-0.031121525913476944, -0.0077072312124073505, -0.07054212689399719, 0.0730166807770729, -0.08938863128423691, -0.16121861338615417, -0.022252559661865234, 0.0332401804625988, -0.07503394782543182, -0.10010787844657898, -0.06744061410427094, -0.12124529480934143, -0.28270259499549866, 0.021279454231262207, -0.058918438851833344, -0.19736914336681366, 0.012431052513420582, 0.03693085163831711, -0.014524581842124462, 0.012975729070603848, -0.07104109972715378, -0.08131454885005951, -0.10206108540296555, 0.005292835645377636, 0.025448892265558243, -0.1533527821302414, 0.045913562178611755, 0.005089512560516596, -0.09488049894571304, -0.07719887793064117, -0.105342797935009, -0.125528022646904, -0.04279431328177452, -8.982489089248702e-05, -0.16141335666179657, -0.03189343959093094, -0.1885582059621811, -0.06524892151355743, -0.05237290635704994, 0.050533562898635864, 0.08205410838127136, -0.271517276763916, -0.2153816968202591, 0.034303195774555206, 0.0894152969121933, -0.04934140667319298, -0.07383077591657639, -0.06388609111309052, 0.1335229128599167, 0.1449916660785675, -0.2228407859802246, -0.016733946278691292, 0.01406302209943533, 0.008459379896521568, -0.05949140340089798, -0.09686531871557236, -0.11516124755144119, -0.1525454968214035, 0.1681147664785385, -0.006050909869372845, 0.04336795210838318, -0.11650330573320389, 0.08494889736175537, -0.05123504251241684, 0.06976841390132904, -0.05146000534296036, 0.04684324935078621, 0.14515076577663422, -0.030015045776963234, -0.005418304353952408, -0.05866256356239319, -0.10872088372707367, -0.0004939246573485434, -0.06880883127450943, -0.011679193004965782, -0.09947660565376282, -0.0013051340356469154, -0.053373172879219055, -0.005897903814911842, -0.12177588045597076, -0.01404776144772768, -0.31871429085731506, -0.053752683103084564, -0.2009594738483429, -0.04606333002448082, 0.16042503714561462, -0.06238915026187897, -0.09877446293830872, -0.02697957679629326, -0.09711335599422455, 0.00854011531919241, -0.01337115652859211, -0.09726601839065552, -0.12375681102275848, -0.13939666748046875, -0.028141142800450325, -0.09597944468259811, -0.08103979378938675, -0.011802969500422478, -0.02661861665546894, -0.02020644024014473, -0.15794532001018524, 0.0388287752866745, 0.09120137989521027, 0.05036236718297005, -0.08580979704856873, -0.04768993705511093, -0.01993904821574688, -0.17059798538684845, 0.08825108408927917, -0.17920365929603577, -0.12098873406648636, -0.14750365912914276, -0.04183485731482506, -0.02776174806058407, 0.13006579875946045, -0.0541723258793354, -0.12534742057323456, 0.04185754060745239, -0.024746939539909363, -0.11579590290784836, -0.060983650386333466, 0.0037115898448973894, -0.049795009195804596, -0.34940582513809204, -0.07346211373806, -0.11612314730882645, -0.07415030151605606], [0.16067205369472504, -0.0034583897795528173, -0.24600140750408173, 0.04774783179163933, 0.1419598013162613, 0.1792600452899933, -0.04543271288275719, -0.12389012426137924, 0.06276839971542358, 0.2403089851140976, -0.2580794095993042, -0.35891228914260864, 0.057477280497550964, -0.061445675790309906, 0.017539577558636665, 0.021912313997745514, 0.1301398128271103, -0.11040355265140533, -0.3496553599834442, -0.04146914929151535, -0.2814774215221405, -0.19385844469070435, -0.020779062062501907, -0.0398796908557415, 0.016581153497099876, -0.1948939710855484, 0.25617489218711853, -0.24135251343250275, -0.09648804366588593, -0.2631056606769562, -0.15143077075481415, 0.06951332837343216, -0.219175785779953, -0.4070703387260437, -0.2378065288066864, -0.21882082521915436, 0.0717884823679924, 0.07098522782325745, -0.3119957447052002, -0.04064441844820976, -0.009061782620847225, -0.20376956462860107, -0.38562527298927307, -0.06391453742980957, -0.1463181972503662, -0.07279833406209946, -0.5584313869476318, -0.2802914083003998, 0.12689031660556793, -0.2891589403152466, 0.1438724845647812, 0.44896766543388367, -0.10283080488443375, -0.09717658907175064, 0.05475486442446709, 0.016354957595467567, 0.10731915384531021, -0.08586674183607101, -0.2495160847902298, 0.15028230845928192, -0.05560338497161865, 0.026066329330205917, -0.22605960071086884, -0.15320414304733276, -0.313147634267807, -0.4366692900657654, 0.04595863074064255, -0.227468341588974, -0.18886958062648773, 0.07665368914604187, -0.0912899374961853, -0.1230500265955925, -0.12003739923238754, 0.1413136124610901, -0.38733112812042236, -0.22294984757900238, 0.0010191500186920166, 0.12883806228637695, -0.2808724343776703, 0.20636293292045593, 0.0018697890918701887, -0.1978464275598526, -0.050907839089632034, -0.09792941808700562, -0.27778327465057373, 0.13450369238853455, -0.5204504132270813, -0.1459527462720871, -0.02344992756843567, -0.27471891045570374, -0.21919430792331696, 0.014349441975355148, 0.08580072224140167, -0.19295907020568848, -0.15602613985538483, -0.3231932520866394, -0.058994390070438385, -0.19939590990543365, -0.020011723041534424, -0.23969843983650208, -0.0868801400065422, -0.040301915258169174, 0.09920825809240341, -0.16948507726192474, 0.018089434131979942, -0.3160567581653595, -0.02413988672196865, 0.23659342527389526, -0.008163733407855034, -0.16727371513843536, -0.3946753442287445, 0.16154925525188446, -0.1436062753200531, -0.4479485750198364, -0.4622451066970825, 0.1658669263124466, 0.1480165719985962, -0.21917414665222168, 0.0769403874874115, 0.26312118768692017, -0.34279733896255493, -0.23303869366645813, -0.18827185034751892, -0.37167203426361084, -0.2653407156467438, -0.278116375207901, -0.37433409690856934, 0.01580742374062538], [0.018627185374498367, -0.018588311970233917, -0.1051495149731636, -0.08835358172655106, -0.018792636692523956, -0.00500926049426198, -0.0033845747821033, 0.027469070628285408, -0.01971261203289032, -0.09263137727975845, 0.0076059820130467415, -0.06937427818775177, -0.09266846626996994, 0.040250349789857864, -0.0162859745323658, -0.11783154308795929, 0.054027631878852844, 0.028745528310537338, 0.06773138791322708, -0.03682345896959305, -0.04924636706709862, -0.07217995077371597, -0.07330085337162018, -0.05254291370511055, 0.05304635316133499, -0.05248258635401726, -0.15945351123809814, -0.011805505491793156, -0.02371501363813877, -0.0004273283702787012, -0.0554136224091053, -0.05271034315228462, -0.05637397989630699, -0.01541413925588131, -0.05806081369519234, 0.039053089916706085, 0.01639764942228794, -0.05590851604938507, -0.0399492122232914, 0.026472797617316246, -0.02376399375498295, -0.10660109668970108, 0.2345971018075943, -0.08541512489318848, -0.035303644835948944, 0.048854369670152664, -0.07117507606744766, 0.05093926191329956, -0.06316719204187393, 0.02918480709195137, -0.0005235772114247084, 0.16938452422618866, -0.05529237538576126, -0.13385197520256042, 0.015987563878297806, -0.1275796741247177, -0.15920299291610718, 0.04856644570827484, -0.09119724482297897, -0.009278152137994766, 0.06119100749492645, -0.13493195176124573, -0.03865562751889229, -0.003388516139239073, 0.02207367494702339, -0.10449101775884628, -0.056524645537137985, 0.032152704894542694, 0.017083866521716118, -0.05505670607089996, 0.027128366753458977, -0.10767262428998947, 0.012881460599601269, -0.019365472719073296, -0.10553033649921417, -0.04911309480667114, -0.10404632240533829, -0.038552023470401764, -0.3563006818294525, -0.09966019541025162, 0.035433609038591385, -0.25320684909820557, -0.08499407768249512, -0.09539926797151566, -0.08636122196912766, 0.11680781841278076, 0.009128355421125889, 0.03850673884153366, -0.030347079038619995, -0.11735783517360687, 0.028169116005301476, -0.022442804649472237, 0.03885071724653244, 0.03358485922217369, -0.07215528190135956, -0.09266205877065659, -0.1363603174686432, -0.1063370630145073, -0.11103188246488571, -0.10148941725492477, 0.040110718458890915, -0.08167121559381485, 0.0644865334033966, -0.10626852512359619, 0.023260073736310005, 0.0010175069328397512, -0.1162419244647026, -0.002463138895109296, -0.12135835736989975, 0.030446793884038925, -0.052884116768836975, 0.04360266402363777, -0.03537876158952713, 0.05155733972787857, 0.017518507316708565, 0.1049140989780426, -0.049315109848976135, -0.06371410936117172, -0.05858173593878746, 0.03469817340373993, 0.010883134789764881, -0.16135303676128387, 0.005668289959430695, -0.01630181446671486, -0.07575998455286026, -0.044241178780794144, -0.05381070449948311, -0.05949148163199425], [-0.08694993704557419, -0.005788673646748066, -0.17918430268764496, -0.03428959101438522, 0.011904602870345116, -0.028044482693076134, -0.02841527760028839, -0.12870419025421143, -0.10521125048398972, 0.004618735983967781, 0.1333031952381134, -0.022501317784190178, -0.09806999564170837, -0.043445881456136703, -0.17041157186031342, -0.06873901188373566, -0.017061421647667885, 0.004751875530928373, -0.13930605351924896, 0.002067935187369585, -0.16194206476211548, 0.0660543292760849, -0.045786842703819275, -0.002153233624994755, -0.09785182029008865, -0.1878964602947235, -0.15051192045211792, -0.09669600427150726, -0.21965567767620087, 0.09386281669139862, -0.1036166101694107, -0.043062787503004074, -0.17515265941619873, -0.07983347773551941, -0.16700276732444763, -0.06860359013080597, -0.1800001561641693, -0.23129254579544067, -0.10720418393611908, -0.04853137582540512, 0.04895130917429924, -0.02385612390935421, -0.2398550659418106, -0.016744093969464302, 0.08870971947908401, 0.07975656539201736, -0.17486850917339325, -0.16489318013191223, 0.10335414856672287, 0.043715618550777435, -0.22928215563297272, -0.23841990530490875, 0.026683101430535316, -0.13606473803520203, 0.00824714358896017, -0.03699576482176781, 0.03333078697323799, -0.03539863973855972, 0.2096659243106842, 0.0025689781177788973, -0.04607587680220604, 0.017605457454919815, -0.057980868965387344, -0.18952955305576324, 0.07672358304262161, -0.10167380422353745, -0.04316246137022972, 0.11199145019054413, -0.1802821159362793, 0.028197133913636208, -0.08731290698051453, -0.31273534893989563, -0.010605632327497005, -0.14008140563964844, -0.04173768684267998, -0.06631188839673996, 0.10737354308366776, -0.1006087139248848, -0.04129401594400406, -0.38936835527420044, -0.1401490569114685, -0.031006719917058945, -0.030212203040719032, -0.29289284348487854, -0.04979622736573219, -0.006613261066377163, -0.04035872220993042, -0.07362343370914459, -0.15604771673679352, -0.12022379785776138, -0.0959712490439415, -0.007042847108095884, -0.1745683252811432, -0.05464651808142662, -0.013576116412878036, -0.11759737133979797, -0.0450570173561573, -0.05428190156817436, -0.08977467566728592, -0.05195201560854912, -0.1663593351840973, -0.058087944984436035, -0.01162335742264986, -0.012568083591759205, -0.09722445905208588, -0.1375264823436737, -0.06861189007759094, -0.1589495837688446, -0.042734384536743164, -0.016949694603681564, -0.05749635770916939, 0.02197825163602829, 0.003957482986152172, -0.08612386882305145, 0.02624046616256237, 0.16789335012435913, -0.06655371934175491, 0.04610856994986534, 0.0005607471102848649, -0.0080666933208704, 0.11655857414007187, -0.18883845210075378, -0.15680070221424103, -0.03496886417269707, -0.2674295902252197, -0.12780852615833282, -0.08218131959438324, 0.056702155619859695], [-0.15123416483402252, -0.3070772588253021, 0.37022238969802856, 0.004629128146916628, -0.4118614196777344, -0.2898346781730652, -0.14512738585472107, 0.26494792103767395, 0.35303613543510437, 0.1659069061279297, -0.07123760133981705, -1.12678062915802, 0.003920648247003555, 0.19676095247268677, -0.04223610460758209, 0.37300315499305725, 0.26956191658973694, 0.13362611830234528, -0.16491863131523132, 0.01655026711523533, -0.25957173109054565, -0.10465782880783081, 0.3016139268875122, -0.3296957015991211, -0.25238513946533203, -0.20915809273719788, 0.257511168718338, -0.26380062103271484, -0.2933184504508972, 0.10121195018291473, 0.3490241467952728, -0.1502068042755127, 0.21494856476783752, -0.6379644870758057, 0.08001770079135895, 0.07819139957427979, 0.044488370418548584, -0.224336639046669, 0.3679535686969757, 0.06095845624804497, 0.011151939630508423, 0.2767290771007538, -0.2918744683265686, 0.2548471689224243, 0.145422101020813, -0.36989834904670715, 0.39252233505249023, -0.020673271268606186, 0.4409661889076233, -0.013235427439212799, 0.1481834203004837, -0.16672685742378235, -0.413354754447937, 0.26025691628456116, -0.014235747046768665, 0.16814486682415009, 0.23413974046707153, -0.3007124662399292, 0.054129425436258316, 0.1476423144340515, 0.21648330986499786, 0.4929686188697815, 0.0035261097364127636, 0.06815392524003983, -0.07159681618213654, -0.9729672074317932, -0.03473075106739998, 0.012596121989190578, 0.1835440695285797, 0.11424774676561356, -0.08307391405105591, 0.09884244948625565, 0.11033014953136444, 0.4789993166923523, 0.1671627163887024, -0.8214578032493591, 0.21845324337482452, 0.024109970778226852, -0.22368785738945007, 0.18560047447681427, -0.044212087988853455, -0.22837288677692413, -0.29778239130973816, -0.3366243839263916, -1.5715370178222656, -0.27476003766059875, -1.9332290887832642, 0.11753656715154648, 0.17569933831691742, -1.1277408599853516, 0.0037431479431688786, -0.8911447525024414, -0.34472453594207764, 0.0029186406172811985, -0.08715827018022537, -0.6486222743988037, 0.14515705406665802, 0.23788300156593323, 0.17822463810443878, 0.40405339002609253, 0.04546369984745979, -0.6593152284622192, 0.034881651401519775, 0.07126267999410629, -0.11356993764638901, -0.03825845569372177, 0.18741393089294434, -0.054499946534633636, -0.10586564242839813, -0.36205029487609863, -0.01542773935943842, -0.44220536947250366, 0.08746077120304108, -0.059410154819488525, 0.06989563256502151, 0.09177597612142563, 0.16809043288230896, 0.17720462381839752, 0.16497349739074707, 0.25633928179740906, -0.09115133434534073, 0.4431668817996979, -0.30177900195121765, 0.023485705256462097, -0.048954859375953674, 0.39402714371681213, -0.11484435200691223, 0.31105923652648926], [0.057382263243198395, 0.03276587650179863, -0.17749197781085968, 0.02595934271812439, -0.08562593162059784, -0.10220786929130554, 0.006337825674563646, 0.02735510654747486, -0.06284474581480026, 0.026136694476008415, -0.271615594625473, -0.07863976806402206, 0.17734789848327637, -0.027544166892766953, -0.09319353848695755, -0.04600413888692856, -0.06503018736839294, -0.006005375180393457, 0.1226821020245552, -0.07736622542142868, -0.12115877866744995, -0.1351148784160614, -0.19286637008190155, -0.04962446540594101, -0.08514714241027832, -0.07592549175024033, -0.09593649953603745, -0.07972051203250885, -0.11461900919675827, -0.1386304348707199, 0.004865463823080063, -0.10661737620830536, 0.012236245907843113, -0.04584510624408722, 0.04771262779831886, -0.06588896363973618, 0.11015646904706955, -0.10038763284683228, -0.12165351212024689, 0.016152726486325264, 0.019137388095259666, -0.0120987668633461, 0.06362409889698029, 0.006175613962113857, -0.05862218514084816, -0.1283232867717743, -0.09175892919301987, 0.039275962859392166, -0.28095823526382446, -0.24267664551734924, 0.015744974836707115, 0.19300884008407593, 0.09192925691604614, -0.2164173722267151, -0.11422120779752731, -0.10832075029611588, -0.033214982599020004, -0.12985660135746002, -0.031017763540148735, -0.019790563732385635, -0.020432008430361748, -0.1787138730287552, 0.011781840585172176, -0.003418761771172285, 0.017493676394224167, -0.09373213350772858, -0.027444247156381607, -0.17389652132987976, 0.020427027717232704, -0.033955685794353485, -0.03129321336746216, -0.032866667956113815, -0.12697641551494598, -0.06181729584932327, -0.11577540636062622, -0.01634756661951542, 0.08886481076478958, -0.1882467269897461, -0.47256550192832947, 0.1362563967704773, -0.06641394644975662, 0.0038291991222649813, -0.011579164303839207, -0.07334079593420029, -0.0019585725385695696, -0.04452934116125107, -0.09548581391572952, -0.12261386215686798, -0.007344469893723726, -0.030940402299165726, -0.06353349983692169, -0.1241888552904129, 0.039077628403902054, 0.004813607782125473, -0.025567354634404182, 0.0007681137649342418, -0.13347481191158295, -0.17086029052734375, -0.005495904479175806, -0.16420362889766693, 0.0053009409457445145, 0.06428636610507965, 0.037311822175979614, -0.08651485294103622, 0.032614048570394516, -0.03892003744840622, -0.11658164858818054, 0.07852932810783386, -0.05460198596119881, 0.09818150103092194, 0.039437368512153625, -0.046551384031772614, 0.1939174234867096, -0.03989951312541962, -0.21433980762958527, -0.10754569619894028, 0.07723134011030197, -0.006858644541352987, -0.1133006364107132, -0.13128690421581268, -0.1513209193944931, -0.05756098031997681, -0.04723704606294632, -0.08907487988471985, 0.002076544566079974, -0.040098682045936584, 0.0313340462744236, -0.08223830163478851], [0.07083149254322052, 0.047318167984485626, -0.038185782730579376, 0.051171764731407166, -0.014878342859447002, -0.01938815228641033, -0.06712695956230164, -0.17800426483154297, -0.42616477608680725, 0.20777186751365662, 0.025776399299502373, 0.08246759325265884, 0.10535886138677597, -0.01861550472676754, 0.17563581466674805, -0.2599278688430786, -0.3478996455669403, 0.08112800121307373, -0.15115754306316376, 0.027501987293362617, -0.14865438640117645, -0.3385666012763977, 0.021558769047260284, -0.39826181530952454, -0.18031984567642212, 0.002564233960583806, -0.17298738658428192, -0.05486118793487549, -0.09079901874065399, 0.04797367751598358, 0.028527872636914253, -0.20902517437934875, 0.001318498863838613, -0.20188374817371368, -0.06902596354484558, -0.26058563590049744, 0.09852927178144455, -0.0892554447054863, -0.14832325279712677, -0.07993967086076736, -0.031584709882736206, 0.14593757688999176, 0.062307827174663544, -0.24739013612270355, 0.2168234884738922, -0.2089788168668747, -0.015197335742413998, -0.08297304809093475, -0.33162134885787964, -0.059720177203416824, 0.12409190833568573, 0.045695710927248, 0.007083964068442583, 0.07099618017673492, -0.17346499860286713, -0.1205763965845108, -0.16477933526039124, -0.1316756010055542, -0.22045913338661194, 0.14700175821781158, 0.0840827152132988, -0.13775089383125305, -0.38636505603790283, -0.09631995111703873, -0.05327240005135536, -0.2041969895362854, 0.05097609758377075, -0.2598012387752533, -0.11165351420640945, -0.32466599345207214, -0.14865317940711975, 0.14258769154548645, 0.07952125370502472, -0.1986079216003418, -0.4101121127605438, -0.08630917221307755, 0.08693663030862808, -0.03522063419222832, 0.06580802798271179, -0.08423499763011932, 0.2116115689277649, -0.35328057408332825, 0.014504528604447842, -0.3724936842918396, -0.33576735854148865, -0.013600536622107029, 0.04639129340648651, -0.13569775223731995, -0.11215851455926895, -0.10795991122722626, -0.24749736487865448, 0.04694307595491409, 0.09447655081748962, 0.0806906446814537, 0.022463999688625336, 0.14220039546489716, 0.020608555525541306, 0.21323789656162262, -0.08598127216100693, -0.0731608048081398, -0.010769751854240894, -0.22414855659008026, -0.07950524985790253, 0.16030043363571167, -0.0658249706029892, -0.24241843819618225, -0.061882443726062775, 0.022468354552984238, -0.07232952117919922, -0.192625492811203, -0.0359102301299572, -0.3982327878475189, -0.05668769031763077, -0.0934552475810051, -0.11475594341754913, -0.22303004562854767, 0.1398538500070572, -0.3166489005088806, -0.13237755000591278, -0.03929270803928375, 0.08795930445194244, -0.08891668915748596, -0.09959665685892105, -0.24078863859176636, 0.027850862592458725, -0.15889085829257965, -0.4544292390346527, -0.08528964221477509], [-0.07958202809095383, 0.055186185985803604, -0.026135778054594994, 0.07034453004598618, 0.009734513238072395, -0.10367940366268158, -0.10749705135822296, -0.22132837772369385, 0.019886938855051994, -0.08754843473434448, -0.0535578578710556, -0.3704545199871063, -0.23386622965335846, -0.04634840786457062, -0.17425894737243652, -0.09133822470903397, 0.006679164711385965, -0.08180694282054901, -0.22317911684513092, 0.020264267921447754, -0.03149515390396118, 0.08423098176717758, -0.14806623756885529, -0.07810108363628387, -0.03563057631254196, 0.057180486619472504, -0.017985934391617775, -0.05312930420041084, -0.07104606181383133, -0.045878149569034576, 0.06815579533576965, -0.00289117987267673, -0.09062030166387558, -0.12424912303686142, -0.21920862793922424, -0.02072615548968315, 0.14271913468837738, 0.02703900821506977, 0.07845833152532578, -0.02465575747191906, 0.01610562764108181, -0.022728996351361275, -0.0007717942353338003, -0.079285629093647, -0.11974889039993286, -0.052298691123723984, -0.2430761754512787, 0.0307542085647583, 0.01122641284018755, 0.16881196200847626, -0.24405208230018616, -0.09450868517160416, -0.03898065164685249, -0.03462537005543709, -0.021590283140540123, -0.1250644475221634, -0.09519025683403015, -0.06958163529634476, -0.08838053047657013, -0.11595041304826736, 0.044758204370737076, 0.035691965371370316, -0.04569369927048683, -0.16273638606071472, 0.13676853477954865, 0.06847231835126877, -0.05117800086736679, -0.13590021431446075, 0.014015878550708294, -0.1745535284280777, -0.07400469481945038, -0.22770172357559204, 0.0423906184732914, -0.010703020729124546, -0.08982481807470322, 0.05823061987757683, -0.023694796487689018, -0.06731387227773666, -0.010865488089621067, -0.06254629045724869, -0.10676608234643936, -0.06059277802705765, -0.047550562769174576, -0.17464427649974823, -0.12924663722515106, 0.1456637978553772, -0.01626819372177124, -0.027471644803881645, 0.2872968018054962, -0.0999528020620346, 0.25194114446640015, -0.09195323288440704, -0.07775065302848816, -0.06893343478441238, -0.00397704029455781, -0.16248719394207, -0.04512418434023857, -0.051531706005334854, -0.11326248943805695, -0.006475603673607111, -0.005632003303617239, -0.10084572434425354, 0.03955460712313652, -0.09345073997974396, -0.0855841115117073, -0.1431627720594406, -0.12530556321144104, -0.09170983731746674, -0.12603482604026794, -0.11185809224843979, -0.03171023726463318, -0.07466141879558563, 0.0599624365568161, 0.04064824432134628, -0.37047892808914185, -0.11349373310804367, -0.060674410313367844, -0.05555173382163048, -0.024856818839907646, 0.0419173538684845, -0.0665227398276329, 0.0837298259139061, -0.12930306792259216, -0.045769691467285156, -0.2911544442176819, -0.13088582456111908, -0.026287753134965897, -0.1387779712677002], [0.011777320876717567, 0.030806371942162514, -0.2310754656791687, -0.0780976191163063, -0.01992241106927395, -0.4720485210418701, -0.01724274456501007, -0.2243018001317978, -0.2297115921974182, -0.43299081921577454, -0.2650146782398224, -0.13708439469337463, -0.01017915178090334, 0.026452263817191124, -0.050919558852910995, -0.12607045471668243, -0.026218799874186516, 0.07398251444101334, -0.16317793726921082, -0.06508952379226685, -0.07379467040300369, -0.15293766558170319, -0.12475237250328064, 0.37641990184783936, -0.28280991315841675, -0.10779906064271927, -0.11225909739732742, 0.01808255724608898, 0.028894081711769104, -0.13983654975891113, -0.239617720246315, -0.14169847965240479, 0.0027729347348213196, -0.08977607637643814, 0.00937356986105442, -0.1306418776512146, 0.07431209832429886, 0.07085251063108444, -0.3135658800601959, -0.04811806604266167, 0.07730216532945633, -0.23157061636447906, 0.0730067789554596, -0.009492919780313969, -0.16787566244602203, -0.1646440625190735, -0.11981251090765, -1.1284499168395996, -0.3333119750022888, -0.5279874801635742, -0.020005902275443077, -0.03687022253870964, -0.02627975307404995, -0.14077042043209076, -0.08131715655326843, -0.0822906345129013, -0.1964176744222641, 0.09974563866853714, -0.14289413392543793, -0.23682598769664764, -0.04652402922511101, -0.07880956679582596, -0.0482490211725235, 0.14069323241710663, -0.2738339304924011, -0.12153343856334686, -0.024481428787112236, -0.6008411049842834, 0.023244693875312805, -0.22616204619407654, -0.07861226797103882, -0.0484548956155777, -0.16531763970851898, 0.04473172128200531, -0.31907743215560913, -0.14161421358585358, -0.009886001236736774, 0.06795766949653625, -0.27677470445632935, -0.011799615807831287, -0.04285484179854393, 0.15101279318332672, -0.054802801460027695, 0.1245807632803917, -0.1931605041027069, -0.5703251957893372, -0.18725638091564178, -0.2193184494972229, 0.05718120187520981, -0.20628167688846588, -0.37918025255203247, -0.2306479513645172, -0.0034447042271494865, -0.051666807383298874, -0.14752358198165894, -0.11268831044435501, -0.2084072232246399, 0.062110792845487595, 0.02451399341225624, -0.15191809833049774, -0.1328594982624054, 0.0815657451748848, -0.08929557353258133, -0.09723380208015442, 0.018381521105766296, -0.1553003042936325, -0.03083881549537182, -0.06928541511297226, 0.04131471365690231, -0.7660272717475891, -0.19609077274799347, -0.027506167069077492, 0.2641454339027405, -0.05811985209584236, -0.6697367429733276, -0.3668963611125946, -0.08795173466205597, 0.09561856836080551, -0.0400720089673996, -0.430873304605484, -0.3168586492538452, -0.20324298739433289, 0.014265879988670349, -0.029596718028187752, 0.012284854426980019, 0.06269242614507675, -0.23755909502506256, -0.145967498421669], [-0.04498779773712158, -0.1184874027967453, -0.0929170697927475, -0.06854180246591568, -0.16786396503448486, -0.010358594357967377, -0.063175730407238, -0.08229079842567444, -0.0209703017026186, -0.11997593939304352, -0.09189107269048691, -0.015966173261404037, -0.03933042287826538, 0.01699742116034031, 0.006926300469785929, -0.018600599840283394, -0.016159240156412125, 0.05890494957566261, -0.16813690960407257, -0.04578615352511406, 0.04808250814676285, -0.17236632108688354, -0.09804504364728928, 0.02955845184624195, -0.0014462792314589024, -0.2219664454460144, -0.05466795340180397, -0.06894384324550629, -0.1530943512916565, 0.04419194161891937, -0.09852279722690582, 0.039895977824926376, -0.11801101267337799, -0.14118152856826782, 0.0444195382297039, -0.10667971521615982, 0.07791867107152939, 0.07387412339448929, -0.04648873582482338, -0.048450347036123276, -0.01058607641607523, 0.10706821829080582, 0.09460696578025818, -0.005605568643659353, -0.02296326495707035, -0.005818245466798544, -0.15787926316261292, -0.10967599600553513, -0.3672521710395813, -0.009983270429074764, 0.03946719318628311, 0.19886180758476257, -0.012275682762265205, -0.10049720108509064, -0.19397534430027008, -0.05919777229428291, -0.12467703968286514, -0.11549457907676697, -0.3214261829853058, 0.019471095874905586, -0.003089250298216939, -0.08727353066205978, 0.12164653092622757, -0.011620761826634407, 0.04528526961803436, -0.13244464993476868, 0.07691731303930283, 0.08771098405122757, -0.05218971148133278, -0.019429989159107208, -0.024706698954105377, -0.0937652438879013, 0.05954506993293762, -0.017029542475938797, -0.002410684712231159, -0.114443838596344, -0.2606969475746155, 0.0608217790722847, 0.18305489420890808, 0.0027345013804733753, 0.051817990839481354, -0.27578920125961304, 0.0660758838057518, -0.19753578305244446, 0.008776349015533924, 0.2089097946882248, -0.13821794092655182, -0.07313653081655502, -0.06363895535469055, -0.07921238988637924, -0.020979562774300575, 0.0291493758559227, -0.007821133360266685, -0.011377647519111633, -0.09833359718322754, -0.005253820680081844, -0.15549474954605103, -0.07242918759584427, -0.0796649307012558, -0.06367767602205276, 0.018118644133210182, -0.03728632256388664, 0.01095952931791544, -0.0830104798078537, -0.028458289802074432, -0.10630068182945251, -0.1808159202337265, -0.04470479115843773, 0.0004543296236079186, 0.14948420226573944, -0.011419238522648811, -0.03649626299738884, -0.3670463562011719, -0.02454962581396103, 0.010771048255264759, 0.04009808972477913, 0.03153366968035698, -0.15893913805484772, 0.05133547633886337, -0.023977257311344147, 0.00520987156778574, 0.014292203821241856, -0.08366846293210983, -0.07660140842199326, 0.02066068910062313, -0.040598783642053604, -0.169693723320961, -0.22039607167243958], [-0.06751063466072083, -0.0033578963484615088, -0.08214429020881653, 0.024940116330981255, -0.08586674928665161, 0.048260822892189026, -0.0728597417473793, -0.10263469070196152, -0.037424296140670776, 0.06122032552957535, -0.09960624575614929, -0.004187323153018951, -0.058895863592624664, -0.020933296531438828, -0.04599558189511299, -0.08811360597610474, -0.08646918088197708, -0.030015507712960243, -0.13341328501701355, -0.042472947388887405, 0.02915291301906109, -0.06277214735746384, 0.012830906547605991, -0.022025521844625473, -0.013364104554057121, 0.035216622054576874, 0.006294511258602142, -0.11604561656713486, -0.10507584363222122, -0.09398430585861206, -0.01872234418988228, -0.07302640378475189, -0.00904887355864048, -0.09752190113067627, -0.07349467277526855, -0.06532735377550125, -0.06018209084868431, -0.10720385611057281, -0.04478016868233681, -0.014957102946937084, 0.04166824743151665, 0.032443415373563766, -0.0541667565703392, -0.008760577067732811, -0.09082036465406418, 0.018377825617790222, -0.11928509175777435, 0.029132544994354248, 0.04430586099624634, -0.022288398817181587, -0.12569326162338257, -0.032138802111148834, -0.11680664867162704, -0.13962289690971375, 0.0027908715419471264, -0.04357670620083809, -0.03435857221484184, -0.010908827185630798, -0.11923876404762268, 0.003924229647964239, 0.007860972546041012, -0.022255616262555122, 0.05652621015906334, -0.09095676988363266, -0.001019660267047584, 0.014567009173333645, 0.00016754426178522408, 0.02715599164366722, -0.07748951762914658, 0.09409095346927643, -0.019849833101034164, 0.03336707130074501, -0.0016625260468572378, -0.08046147227287292, -0.03751913085579872, -0.1114932969212532, -0.03393671289086342, -0.10030276328325272, 0.08319132775068283, -0.05173298716545105, -0.10924047231674194, 0.028618155047297478, -0.07146487385034561, -0.05123491212725639, -0.09682352840900421, -0.05849037691950798, -0.02684677205979824, -0.04491972550749779, -0.035485222935676575, -0.07389281690120697, -0.007701854221522808, 0.035895589739084244, -0.06784714758396149, -0.055454663932323456, -0.06816989928483963, -0.07568805664777756, 0.0876040905714035, -0.033278610557317734, -0.05237141624093056, -0.025047289207577705, 0.011863095685839653, -0.013216685503721237, -0.0483839213848114, -0.03157474845647812, -0.10914600640535355, -0.12398150563240051, -0.019689522683620453, -0.10519342124462128, 0.018034402281045914, 0.08249743282794952, 0.020085180178284645, -0.03269607573747635, 0.027702128514647484, -0.06335500627756119, -0.029938746243715286, 0.05112788826227188, 0.029574938118457794, 0.052823975682258606, -0.1215386614203453, 0.006009220611304045, -0.04577621817588806, -0.06288313120603561, -0.0002778200141619891, -0.09382366389036179, 0.03892913833260536, -0.06268731504678726, -0.12788061797618866, -0.041870225220918655], [-0.0933268666267395, 0.02591116726398468, -0.5560835003852844, 0.07769625633955002, 0.10185223817825317, 0.8088468313217163, -0.036262866109609604, -1.1601665019989014, -0.19646981358528137, 0.07076151669025421, 0.5453950762748718, -0.4443003535270691, -0.34883710741996765, -0.3455251157283783, -0.7831109166145325, -0.7003025412559509, -0.23348979651927948, -0.5954190492630005, -0.6522831916809082, 0.08165810257196426, 0.04013064131140709, 0.20448239147663116, -0.17934487760066986, -0.387980580329895, 0.09389171749353409, 0.19208645820617676, -1.0550616979599, -0.21732471883296967, -0.12183143198490143, 0.16929669678211212, -0.1391311138868332, -0.2264808714389801, -0.8417636156082153, -0.3295012414455414, 0.261964350938797, -0.015780819579958916, -0.19137278199195862, -0.47425100207328796, -0.43594661355018616, -0.12996502220630646, -0.04352788254618645, -1.0938541889190674, -0.2661689221858978, -0.11095863580703735, -0.07393833994865417, -0.9439470171928406, -0.18475311994552612, 0.3060150146484375, 0.07362876087427139, -0.4301636219024658, 0.3808179199695587, 0.4460757374763489, -0.07737558335065842, -0.33880794048309326, 0.16596132516860962, 0.26430898904800415, -0.6916336417198181, -0.4829694926738739, -0.8146900534629822, 0.5765383243560791, 1.1231169700622559, -0.6026855111122131, -0.03972340002655983, -0.03558865189552307, -0.42520377039909363, 0.04114118963479996, 0.04251605272293091, -0.7916441559791565, -0.36191004514694214, -0.16695408523082733, -0.1734321117401123, -0.052415236830711365, 0.07364673167467117, -0.2658596634864807, -0.17139314115047455, -0.03883565962314606, -1.2088649272918701, -0.08454068005084991, 0.2075408399105072, -0.8179644346237183, 0.025647351518273354, 0.3757004141807556, 0.014760322868824005, -0.11750691384077072, 0.08947619050741196, -0.4148753583431244, 0.07293592393398285, -0.13773797452449799, 0.013045727275311947, -0.28749310970306396, 0.1458810716867447, -0.48589175939559937, -0.12470243126153946, -0.23409605026245117, -0.025419102981686592, 0.15739120543003082, -0.15361282229423523, -0.3985709249973297, 0.07242044061422348, -0.09597815573215485, -0.8430507183074951, -0.4332679212093353, -0.07043756544589996, -0.5726890563964844, -0.4583975374698639, 0.06950245052576065, -0.1977996826171875, -0.22245045006275177, 0.10706517100334167, -0.23614582419395447, -1.1732921600341797, 0.06301531940698624, -0.24236509203910828, 0.14009612798690796, -0.5443834066390991, 0.13023613393306732, -0.23321382701396942, 0.025689829140901566, -0.10182797163724899, -0.16658145189285278, -0.06796596944332123, -0.03832727298140526, -0.5322529673576355, -0.2759154140949249, -0.8935450911521912, -0.26413777470588684, -0.047928981482982635, 0.21474593877792358], [0.1253499835729599, 0.005430898629128933, -0.13961602747440338, 0.11169437319040298, -0.11798428744077682, -0.28228625655174255, -0.05577104538679123, -0.18401768803596497, 0.09358250349760056, -0.32850712537765503, 0.018639937043190002, -0.04842108115553856, -0.18045574426651, -0.22062227129936218, -0.09516074508428574, -0.10184025764465332, 0.01737753115594387, 0.10965259373188019, 0.1945851743221283, 0.050422001630067825, -0.17699633538722992, 0.1407908797264099, 0.19467125833034515, -0.6043393015861511, -0.24119362235069275, -0.38137874007225037, 0.011376447975635529, -0.10795223712921143, -0.3352004289627075, 0.003936782944947481, -0.1385420262813568, 0.1151285320520401, 0.1646898090839386, -0.029905730858445168, -0.03798331692814827, -0.06915033608675003, -0.15676358342170715, -0.004843410570174456, -0.07565619051456451, 0.0909859910607338, -0.012297396548092365, -0.26289257407188416, 0.013452122919261456, -0.3686334192752838, -0.03284423425793648, 0.18736420571804047, -0.3905611038208008, -0.0038258542772382498, -0.564299464225769, -0.11280355602502823, 0.22991862893104553, 0.31640785932540894, -0.08492517471313477, -0.01893477886915207, -0.29384666681289673, -0.5210340619087219, -0.08819224685430527, -0.1715264916419983, 0.14351722598075867, -0.1373002529144287, -0.15990082919597626, -0.030426299199461937, 0.061553843319416046, -0.08515143394470215, 0.020530380308628082, 0.04926767200231552, 0.04951414838433266, -0.21488048136234283, 0.052141495048999786, -0.5039228200912476, -0.20451828837394714, 0.1299811154603958, -0.5255921483039856, -0.24023409187793732, 0.0273726973682642, -0.21506279706954956, 0.18967708945274353, 0.061034176498651505, -0.1641828417778015, -0.18310785293579102, -0.004035613965243101, -0.14460352063179016, -0.059342943131923676, 0.07422073930501938, -0.008848736993968487, 0.4173314571380615, -0.16897697746753693, -0.05128954350948334, -0.12245405465364456, -0.10051260888576508, 0.06322459131479263, -0.3475419580936432, -0.09860372543334961, -0.1156778559088707, -0.11828064918518066, -0.15454469621181488, -0.44675561785697937, -0.018610503524541855, 0.16685765981674194, -0.19214676320552826, -0.07055285573005676, -0.20084531605243683, -0.1724836826324463, -0.38474681973457336, -0.08147712796926498, -0.39702916145324707, -0.3401314914226532, -0.24186161160469055, -0.1452445089817047, 0.02537534385919571, -0.4541173279285431, -0.1206640750169754, 0.028885789215564728, -0.002279846230521798, 0.18238934874534607, -0.3095061182975769, -0.1338653266429901, 0.017701731994748116, 0.044295381754636765, -0.4449021518230438, -0.32288479804992676, -0.281698614358902, 0.05687907338142395, -0.033805761486291885, -0.04741128534078598, 0.02849874645471573, -0.3923514783382416, -0.1925124228000641], [-0.3480567932128906, 0.32618337869644165, 0.3871816396713257, 0.039656225591897964, -0.001602706965059042, 0.7308411002159119, -0.3885877728462219, -0.6199648976325989, -1.4070570468902588, 