{"obs_dim": 11, "n_actions": 3, "grid": 12, "layers": [{"type": "linear", "activation": "relu", "W": [[-0.4125756323337555, 0.11294572800397873, -0.12130530178546906, -0.1501660794019699, -0.24208368360996246, -0.3915332555770874, -0.03317888453602791, 0.07647237181663513, -0.2325008511543274, -0.3651740849018097, -0.019704226404428482], [0.10473330318927765, -0.5189328789710999, 0.1154889166355133, -0.013774928636848927, -0.1942790001630783, -0.0688687190413475, -0.08468247205018997, -0.23859871923923492, -0.21283048391342163, -0.05417415127158165, -0.26414188742637634], [0.24394889175891876, 0.36990389227867126, -0.3073796033859253, 0.11236254870891571, 0.0279685165733099, 0.0772201418876648, 0.055750325322151184, -0.012072430923581123, -0.26654815673828125, -0.3595193922519684, -0.19651931524276733], [-0.12542390823364258, 0.051172398030757904, 0.03304433077573776, -0.12993182241916656, -0.008359316736459732, -0.11634112894535065, -0.1517549604177475, -0.18635983765125275, -0.1193632036447525, -0.22089944779872894, -0.015131080523133278], [0.11734628677368164, -0.6317512392997742, 0.06904130429029465, 0.02737589180469513, 0.07146859914064407, -0.06327762454748154, -0.05584697052836418, -0.2481861114501953, -0.07814659923315048, -0.02093960903584957, 0.08350564539432526], [0.42357006669044495, -0.6170748472213745, 0.14491629600524902, -0.23362505435943604, -0.1651560366153717, -0.0438808836042881, -0.5593810677528381, -0.5265412926673889, 0.08115746080875397, 0.1273864060640335, 0.1675586700439453], [-0.28296759724617004, -0.055941157042980194, -0.006127725355327129, -0.09971047937870026, -0.31492042541503906, -0.15566828846931458, -0.21509087085723877, 0.014352984726428986, -0.05699979141354561, -0.2131168097257614, -0.09190299361944199], [-0.45714905858039856, -0.048026714473962784, -0.01508300006389618, 0.3609011471271515, 0.22864224016666412, -0.1052306517958641, -0.08818522095680237, 0.2562040090560913, -0.038288384675979614, -0.07618983834981918, -0.6129969358444214], [-0.43550848960876465, 0.23161505162715912, -0.41579651832580566, 0.1765499711036682, 0.04559796303510666, -0.20626123249530792, 0.17326819896697998, -0.08576089143753052, 0.09154167026281357, -0.08619242161512375, -0.3290271759033203], [0.3638745844364166, -0.026665901765227318, 0.12269477546215057, -0.3950393795967102, 0.14027148485183716, 0.13889126479625702, -0.15314288437366486, -0.052341047674417496, -0.0869341567158699, -0.5827997326850891, -0.034261927008628845], [0.3634740114212036, 0.09394273906946182, 0.3799028992652893, -0.15809625387191772, -0.06108976528048515, 0.03898288682103157, -0.42478740215301514, -0.3768637478351593, -0.1181805431842804, 0.10696207731962204, -0.2284523844718933], [-0.019245628267526627, -0.7924535274505615, 0.2145104557275772, 0.13366198539733887, -0.2841375768184662, 0.09450532495975494, 0.09008705615997314, 0.15497124195098877, 0.13172326982021332, 0.05517204478383064, -0.41802412271499634], [-0.024739203974604607, 0.20404556393623352, -0.38478729128837585, 0.2481125444173813, 0.19667291641235352, -0.5930526256561279, -0.5653039813041687, -0.4520566165447235, -0.40427717566490173, 0.3811694383621216, -0.39095285534858704], [-0.04893193021416664, 0.2663831412792206, -0.16869564354419708, -0.13068532943725586, -0.11361326277256012, -0.11825825273990631, -0.2867158055305481, -0.04237120971083641, -0.04389939084649086, -0.015163449570536613, -0.13572494685649872], [0.34567558765411377, 0.17522555589675903, 0.04009722173213959, 0.032753847539424896, -0.3082217574119568, 0.11474905163049698, -0.3557785153388977, -0.003771818010136485, -0.7753505110740662, 0.0788666307926178, 0.3150651454925537], [-0.12372034788131714, 0.415445476770401, 0.04358770325779915, -0.0019316269317641854, -0.2572377622127533, 0.051443323493003845, 0.2502395212650299, -0.05424291267991066, 0.30497512221336365, -0.06996048241853714, 0.25663650035858154], [-0.08811024576425552, 0.07831321656703949, -0.10400135070085526, 0.03181248903274536, -0.09087499231100082, 0.23901763558387756, 0.09063705056905746, 0.07022617012262344, -0.11275946348905563, -0.31744828820228577, -0.38658133149147034], [0.20123742520809174, 0.14371396601200104, -0.46167537569999695, -0.2674734592437744, -0.22329236567020416, -0.334207683801651, -0.10871482640504837, -0.00845301803201437, 0.09254973381757736, 0.08472137153148651, -0.26435089111328125], [0.04943058639764786, 0.04800662398338318, -0.6225565075874329, 0.2399740070104599, -0.37040019035339355, -0.38755470514297485, 0.22981445491313934, 0.05902258679270744, 0.00342261022888124, -0.6493935585021973, -0.07374934107065201], [-0.015371686778962612, -0.2517012655735016, -0.10967381298542023, -0.1119050458073616, -0.16680912673473358, 0.06185203790664673, -0.1244579404592514, -0.20204918086528778, -0.08406370133161545, 0.06921042501926422, 0.0981459692120552], [0.27935314178466797, -0.5527475476264954, 0.1680687814950943, 0.0351376049220562, -0.3153180181980133, -0.06661151349544525, -0.402255654335022, 0.025046436116099358, -0.10183045268058777, -0.4167192876338959, -0.4319961965084076], [-0.3499118983745575, -0.16439050436019897, 0.2275533825159073, -0.16386528313159943, -0.33859384059906006, 0.03060038387775421, -0.46147552132606506, 0.14373108744621277, -0.22826330363750458, 0.035330597311258316, -0.36465853452682495], [0.07725251466035843, 0.13209202885627747, 0.01991204358637333, 0.214033842086792, -0.2628712058067322, -0.04341338574886322, 0.17565688490867615, -0.39621469378471375, -0.06263014674186707, -0.08989538997411728, -0.1458037942647934], [0.367728054523468, -0.4379272758960724, -0.4389742910861969, 0.053932663053274155, -0.32145828008651733, -0.3450706899166107, -0.3786788880825043, -0.385795921087265, 0.02469310536980629, 0.3260178565979004, -0.17783336341381073], [-0.10824035853147507, 0.27420809864997864, 0.042926862835884094, 0.2472311407327652, -0.38532590866088867, -0.37168794870376587, -0.3964992165565491, -0.6586333513259888, -0.03655678778886795, -0.4523472785949707, 0.12897689640522003], [0.43535616993904114, -0.19495238363742828, -0.22199775278568268, -0.19461825489997864, 0.1796640306711197, 0.010698268190026283, 0.07532289624214172, 0.1701819747686386, 0.053086042404174805, 0.19984689354896545, 0.1953655481338501], [0.006349646486341953, 0.2911096215248108, -0.06335820257663727, -0.20016777515411377, -0.02458922564983368, -0.3447968065738678, -0.18529830873012543, 0.0593753308057785, -0.1280565708875656, -0.052976831793785095, -0.237110897898674], [0.2154199779033661, -0.06909754872322083, -0.6614202260971069, -0.10547725111246109, -0.29972386360168457, -0.02070934884250164, -0.09608998894691467, 0.06929973512887955, 0.19751586019992828, -0.0273358803242445, -0.07305963337421417], [-0.02746524289250374, -0.6364890933036804, 0.2952347695827484, 0.09077119827270508, -0.38467589020729065, -0.29805803298950195, 0.0724097266793251, -0.5049809813499451, -0.010450547561049461, -0.3469069302082062, 0.09993833303451538], [-0.1920526921749115, 0.3133038282394409, 0.09792202711105347, -0.22208455204963684, 0.09640883654356003, -0.0717175081372261, -0.3077845275402069, -0.24507060647010803, -0.23082321882247925, 0.2696487307548523, -0.19295652210712433], [0.4434785544872284, 0.20601609349250793, 0.24439823627471924, -0.04113330692052841, 0.03291744738817215, -0.12557002902030945, -0.12325677275657654, 0.04630054906010628, -0.11432375013828278, -0.007617711555212736, 0.010502149350941181], [-0.17074333131313324, 0.3589339554309845, -0.5378552675247192, 0.13274918496608734, -0.31846973299980164, -0.35520869493484497, -0.16855023801326752, -0.24759019911289215, 0.060799457132816315, -0.4828627109527588, 0.06527857482433319], [-0.29258662462234497, 0.2634965777397156, -0.12508706748485565, -0.4977191686630249, 0.32607877254486084, -0.13415946066379547, 0.20427711308002472, 0.14639340341091156, 0.307687371969223, -0.5930725336074829, -0.3125874996185303], [-0.08456086367368698, -0.82865971326828, 0.12073265016078949, 0.10966717451810837, -0.35939112305641174, -0.323562890291214, 0.3457360565662384, -0.5664615035057068, -0.00339702726341784, 0.14222575724124908, -0.6211229562759399], [-0.06620518118143082, 0.10356346517801285, -0.3272087574005127, -0.2427295744419098, 0.38973188400268555, 0.41677403450012207, -0.11348501592874527, -0.48848089575767517, 0.12313639372587204, -0.10392481833696365, -0.6904438734054565], [-0.37803781032562256, -0.05128278583288193, -0.0032227749470621347, -0.030594341456890106, -0.022297650575637817, -0.0834796130657196, -0.17046403884887695, -0.040654875338077545, -0.12204158306121826, -0.25044482946395874, -0.12795904278755188], [-0.4674144685268402, 0.19855843484401703, -0.01703816093504429, 0.45822420716285706, -0.2697594463825226, -0.08421224355697632, 0.37498199939727783, 0.07497347146272659, -0.8185639977455139, -0.20785023272037506, -0.9625105261802673], [0.4091693162918091, -0.04697243496775627, 0.15067052841186523, 0.0960850790143013, -0.2988721430301666, -0.09552949666976929, -0.2956802248954773, -0.49631959199905396, -0.17649906873703003, -0.09731443971395493, 0.07609710842370987], [0.33182889223098755, 0.002776903798803687, 0.056251801550388336, 0.3010561168193817, 0.12702257931232452, -0.28652074933052063, -0.26311108469963074, 0.37461912631988525, -0.228759765625, -0.09117668867111206, -0.19909130036830902], [0.2315235137939453, 0.03089509904384613, -0.23673593997955322, -0.0034615136682987213, -0.1905122548341751, -0.2780444025993347, -0.08101300150156021, -0.012731400318443775, -0.011463782750070095, -0.03343505412340164, -0.026926148682832718], [-0.094817616045475, -0.28946685791015625, -0.17298071086406708, 0.008646220900118351, -0.09177472442388535, -0.27851590514183044, -0.263578325510025, -0.031749919056892395, 0.140048548579216, -0.2172560691833496, -0.08936381340026855], [0.1526218056678772, 0.02516244910657406, -0.3571360409259796, -0.16552342474460602, -0.3407193422317505, 0.22805778682231903, -0.21556885540485382, -0.28633934259414673, -0.07735434919595718, 0.1706504076719284, -0.15000556409358978], [-0.12267200648784637, 0.03946305811405182, 0.06401047855615616, -0.39072489738464355, 0.36958977580070496, 0.36755016446113586, -0.37583234906196594, -0.27605655789375305, 0.35421183705329895, -0.7912101149559021, -0.7028127312660217], [-0.3829582929611206, 0.14529621601104736, 0.09860636293888092, -0.0754450187087059, -0.28819540143013, -0.40386778116226196, -0.14941757917404175, -0.37797433137893677, -0.4707816243171692, -0.4040246903896332, -0.11539451777935028], [0.21166154742240906, -0.03437396138906479, 0.11398909240961075, -0.40906572341918945, -0.27732792496681213, 0.1484430730342865, -0.008159819059073925, 0.22374410927295685, -0.21225771307945251, -0.4459279477596283, -0.0441264770925045], [0.16770292818546295, -0.2648110091686249, 0.14332933723926544, -0.21885153651237488, 0.012129695154726505, 0.389790803194046, -0.29856473207473755, -0.6311929821968079, -0.11530286073684692, -0.05103130638599396, -0.5863143801689148], [-0.5251635909080505, -0.005350898951292038, -0.458821564912796, 0.04204515367746353, 0.24252739548683167, 0.32286399602890015, 0.06578011065721512, 0.21557407081127167, 0.21106010675430298, 0.048949673771858215, 0.2538338899612427], [0.43192610144615173, 0.06107668578624725, 0.026152100414037704, -0.03965448588132858, -0.3609797954559326, -0.06646677851676941, -0.12435819208621979, 0.1925681233406067, 0.2038184255361557, 0.16344574093818665, 0.23665623366832733], [0.11914155632257462, -0.013935414142906666, 0.17273670434951782, 0.13892188668251038, 0.41708558797836304, -0.43483707308769226, -0.35741153359413147, -0.5758000612258911, -0.7652714252471924, -0.5844387412071228, 0.2932884097099304], [0.3836524188518524, 0.20912082493305206, -0.05280764773488045, -0.5604289770126343, -0.011183991096913815, -0.7391021251678467, 0.027669813483953476, -0.07350141555070877, -0.7093903422355652, 0.23517806828022003, -0.2677780091762543], [0.19557221233844757, 0.14427056908607483, 0.007264434359967709, 0.16345304250717163, -0.5817647576332092, -0.5293673276901245, 0.2220025658607483, 0.11133059114217758, -0.5220010280609131, -0.5029573440551758, -0.1388716995716095], [-0.09819883853197098, 0.02437082678079605, -0.08275674283504486, -0.24345025420188904, -0.2609829008579254, -0.2760600745677948, 0.35465484857559204, -0.6478592753410339, -0.6084575653076172, -0.5478578805923462, 0.08671773225069046], [0.17518971860408783, -0.25333720445632935, -0.12483294308185577, 0.06705541908740997, 0.021251710131764412, -0.0675724670290947, -0.12890753149986267, -0.23320221900939941, -0.27704760432243347, -0.06776751577854156, -0.14760106801986694], [0.2216271162033081, 0.07774443924427032, 0.5100002288818359, -0.07648574560880661, -0.33125969767570496, -0.2657430171966553, 0.02672022394835949, -0.21517202258110046, 0.10795308649539948, 0.006794072687625885, -0.38081246614456177], [-0.3064858615398407, -0.06676711142063141, 0.4347907602787018, 0.11460951715707779, -0.028258752077817917, -0.1859641671180725, -0.11791442334651947, -0.16851398348808289, 0.021524490788578987, -0.35667482018470764, -0.0019194951746612787], [-0.12448034435510635, -0.25357505679130554, 0.313313752412796, 0.26187387108802795, 0.32579049468040466, -0.23145784437656403, 0.03535152226686478, -0.683901846408844, -0.13743898272514343, 0.1602802574634552, -0.09916166216135025], [0.03495202213525772, -0.04508954659104347, 0.2934619188308716, -0.020521026104688644, -0.5175608396530151, 0.3456527888774872, 0.06988541036844254, -0.14959317445755005, -0.7428421974182129, 0.003381500719115138, -0.2825382649898529], [-0.6234496831893921, -0.025234738364815712, 0.2794857621192932, 0.11732767522335052, -0.2937987148761749, -0.17039649188518524, -0.21365833282470703, 0.15279224514961243, 0.10239791125059128, -0.23489448428153992, 0.06416454166173935], [0.1034638062119484, -0.46538135409355164, -0.05415189638733864, 0.4557536244392395, 0.10412861406803131, -0.3330919146537781, -0.3417508900165558, -0.4595344066619873, 0.3203827738761902, -0.7929074764251709, -0.1816398650407791], [0.42687442898750305, 0.08484382927417755, 0.05119478330016136, -0.2917286455631256, 0.01709901914000511, -0.2435973584651947, -0.6924706101417542, -0.3841721713542938, 0.29641908407211304, -0.07631611824035645, 0.1801263689994812], [0.3463487923145294, -0.1348767876625061, 0.0257951021194458, -0.5234783291816711, -0.5209024548530579, -0.001940521295182407, -0.30642130970954895, -0.3138941526412964, 0.13083550333976746, -0.4221135973930359, 0.18076342344284058], [-0.1723526418209076, 0.5050123929977417, 0.40275081992149353, -0.17816199362277985, -0.1631886512041092, -0.18652939796447754, -0.27610281109809875, 0.11015580594539642, 0.03250041976571083, 0.05306818336248398, 0.08186935633420944], [-0.5081167221069336, 0.2033752053976059, -0.4578169882297516, -0.27878525853157043, 0.15772689878940582, 0.10659094899892807, -0.27442580461502075, -0.1128077581524849, -0.23785245418548584, -0.12347863614559174, -0.318745881319046], [0.2832810878753662, 0.12502044439315796, 0.1921851485967636, -0.6232911348342896, -0.29100146889686584, -0.2739333510398865, -0.08496206253767014, -0.4022091329097748, 0.048365361988544464, -0.49532046914100647, -0.13952018320560455], [0.38868504762649536, 0.10409266501665115, -0.023891380056738853, -0.1987294703722, -0.3104957640171051, -0.5896399617195129, 0.06016186252236366, 0.1237688884139061, -0.49564221501350403, 0.16710986196994781, -0.4985164999961853], [-0.04334859549999237, -0.5216330289840698, 0.11978384107351303, 0.2482435405254364, 0.34250321984291077, 0.3333742916584015, 0.31996533274650574, 0.08937129378318787, 0.02203221060335636, -0.33383384346961975, -0.23787923157215118], [-0.06987647712230682, -0.13236211240291595, -0.1505056917667389, 0.08323263376951218, 0.09877738356590271, -0.27259230613708496, -0.2780092656612396, -0.2282816469669342, -0.2958071231842041, -0.28926441073417664, -0.21966299414634705], [0.15221217274665833, -0.06198455020785332, -0.17804621160030365, 0.1651296317577362, -0.5558078289031982, 0.4856555759906769, -0.3682369589805603, 0.05284402519464493, 0.08518772572278976, -0.711186945438385, -1.06267249584198], [0.41667264699935913, 0.21572116017341614, 0.2745594084262848, -0.01744581013917923, -0.28739869594573975, -0.27201712131500244, -0.033447448164224625, -0.2094561755657196, 0.03272239491343498, -0.33568906784057617, -0.09803442656993866], [0.12673361599445343, 0.35267964005470276, 0.08175299316644669, -0.3884259760379791, 0.07944019138813019, 0.023740384727716446, -0.319548100233078, -0.01576189324259758, -0.44710126519203186, -0.5376285314559937, -0.5983496308326721], [-0.4954788088798523, -0.07108426094055176, 0.09820308536291122, -0.09036309272050858, -0.25667569041252136, -0.13076744973659515, -0.24736087024211884, -0.03031628392636776, -0.2667132019996643, -0.18319781124591827, 0.0019023375352844596], [0.10156558454036713, 0.25346553325653076, 0.22327269613742828, -0.5155231356620789, 0.03669365495443344, -0.36621907353401184, 0.2603774666786194, 0.08938337862491608, 0.21842271089553833, -0.3908538818359375, -0.47150397300720215], [-0.09929110109806061, 0.08083245158195496, -0.4095844626426697, -0.013759584166109562, -0.06595851480960846, -0.22117823362350464, 0.16804170608520508, -0.19437505304813385, 0.01786760985851288, 0.18334870040416718, 0.02973620593547821], [-0.27779343724250793, 0.3065660893917084, -0.43760737776756287, -0.02464589662849903, 0.2777276933193207, -0.03543642535805702, -0.11102546751499176, -0.004323335364460945, -0.38720664381980896, -0.07619915902614594, -0.0014852783642709255], [0.21344196796417236, 0.210832878947258, -0.14800068736076355, 0.3238113522529602, -0.5078244209289551, 0.022238539531826973, -0.35076460242271423, 0.012798408977687359, 0.021201079711318016, -0.7123734354972839, -0.22453004121780396], [-0.5504297018051147, -0.6463772654533386, 0.4245406687259674, -0.11883272230625153, 0.09357001632452011, -0.039037927985191345, -0.03704594448208809, 0.11411081999540329, -0.0038875031750649214, 0.009048674255609512, 0.04876226186752319], [0.052323151379823685, 0.004816942848265171, 0.17551666498184204, 0.10978911072015762, 0.3730020821094513, -0.5954927206039429, -0.5790728330612183, -0.5613113045692444, 0.34640175104141235, -0.721429169178009, -0.39664533734321594], [-0.2999717593193054, -0.025976378470659256, 0.24879945814609528, 0.05941831320524216, 0.06601714342832565, 0.12732727825641632, -0.2648165822029114, -0.37210384011268616, -0.016122108325362206, 0.07698952406644821, -0.13339455425739288], [0.056828536093235016, 0.09277616441249847, -0.09884756058454514, -0.10939577966928482, -0.00721883587539196, 0.6091250777244568, -0.20216161012649536, -0.6823775172233582, -0.6877003312110901, 0.10920463502407074, -0.5835192799568176], [0.059447016566991806, 0.39854270219802856, -0.13397715985774994, 0.24226920306682587, 0.1757740080356598, 0.06340722739696503, 0.249406635761261, -0.3331935405731201, -0.3157743513584137, -0.3976183831691742, -0.12288461625576019], [0.19415423274040222, 0.12063775211572647, 0.0968068391084671, 0.031194349750876427, -0.03367854654788971, 0.02858353778719902, -0.10195199400186539, -0.10861015319824219, -0.3385735750198364, 0.04097501561045647, -0.044403076171875], [0.24221400916576385, -0.5877841114997864, 0.31769439578056335, -0.6020594239234924, 0.009114782325923443, -0.2800588309764862, 0.21469423174858093, -0.3383629322052002, 0.060852959752082825, -0.8476414680480957, -0.4059637486934662], [-0.05349702388048172, -0.35671645402908325, 0.20536693930625916, -0.1305409073829651, -0.05721896141767502, -0.04774068295955658, -0.13144905865192413, 0.007512789685279131, -0.03369249403476715, 0.01221483200788498, -0.03807518631219864], [0.22813498973846436, -0.5382657647132874, -0.5288039445877075, -0.32807183265686035, 0.34517693519592285, -0.3701770305633545, -0.18677125871181488, 0.19228748977184296, -0.12588021159172058, -0.6730012893676758, -0.6679633855819702], [-0.243523970246315, -0.858300507068634, 0.31563082337379456, 0.2097102701663971, 0.27427971363067627, 0.18684323132038116, 0.06421831995248795, -0.24946755170822144, -0.08736535161733627, 0.2196347415447235, 0.29696282744407654], [0.135141521692276, -0.09791753441095352, 0.06768014281988144, -0.5195630788803101, 0.32172462344169617, -0.5412533283233643, -0.6149168610572815, -0.34685319662094116, -0.9460331797599792, 0.2483002096414566, -0.6291687488555908], [0.021678123623132706, -0.5519130825996399, -0.42360207438468933, 0.2966262102127075, 0.2788076102733612, 0.29959800839424133, 0.1461150050163269, -0.13732488453388214, -0.14333133399486542, 0.004613778553903103, 0.03457890823483467], [-0.16527190804481506, 0.04494541510939598, -0.2098824381828308, -0.15280269086360931, -0.18766264617443085, -0.1484619379043579, -0.006257728673517704, -0.1738220751285553, -0.1592998504638672, -0.01280369982123375, -0.2222200632095337], [0.06991254538297653, 0.10884689539670944, 0.4039875268936157, -0.33032500743865967, -0.14789006114006042, -0.2844579517841339, -0.13989582657814026, 0.18971894681453705, 0.08583035320043564, 0.18483512103557587, 0.09905841946601868], [7.554541662102565e-05, -0.5293259024620056, 0.002836705883964896, 0.13113074004650116, 0.18890543282032013, 0.25840938091278076, 0.19263063371181488, -0.20843183994293213, -0.31960681080818176, -0.23861850798130035, -0.2054208666086197], [0.339125394821167, -0.36233654618263245, -0.11235376447439194, -0.1912534385919571, -0.3126939833164215, -0.21823906898498535, 0.0860443115234375, 0.3032545745372772, -0.08548034727573395, 0.09350378066301346, 0.030373699963092804], [-0.016003185883164406, -0.013533041812479496, -0.2135394960641861, 0.2827475965023041, -0.012285117991268635, 0.053745757788419724, -0.2802145183086395, 0.021249286830425262, -0.19664821028709412, -0.3529219329357147, -0.331928014755249], [-0.3132381737232208, 0.30990052223205566, 0.1627635657787323, -0.3651769161224365, 0.029576966539025307, -0.36621084809303284, -0.3649371266365051, 0.01053808443248272, -0.3947620093822479, -0.48304855823516846, -0.5000596642494202], [-0.04759915918111801, -0.021463731303811073, -0.6586120128631592, -0.4424382448196411, -0.4867496192455292, -0.20765754580497742, -0.22353781759738922, -0.07603690773248672, 0.09569085389375687, 0.10834603756666183, 0.006452231667935848], [0.2593916356563568, -0.4371216297149658, 0.2124616503715515, -0.3694226145744324, -0.0186759140342474, 0.12945769727230072, 0.22063395380973816, -0.08222551643848419, -0.39980247616767883, 0.01794920116662979, 0.14494973421096802], [0.39796191453933716, -0.5675268173217773, 0.04963596165180206, 0.0814923346042633, -0.32769879698753357, 0.04827197641134262, -0.1626562476158142, -0.144301638007164, -0.49554240703582764, 0.11420012265443802, -0.24990138411521912], [-0.11797694116830826, 0.14151963591575623, 0.2518322765827179, -0.16707342863082886, 0.07965297251939774, 0.0074439579620957375, -0.42083996534347534, 0.24027051031589508, -0.12461037933826447, -0.6471961140632629, -0.007885091938078403], [0.06951391696929932, 0.14301623404026031, 0.1796809434890747, 0.07239893823862076, -0.101185642182827, -0.2689756751060486, -0.07393693923950195, 0.004646882880479097, -0.04012778401374817, -0.06639588624238968, -0.3569311499595642], [-0.26961061358451843, 0.09785822033882141, 0.2360418289899826, 0.04128088057041168, 0.02300088107585907, 0.0698690265417099, 0.04794112220406532, -0.04163477197289467, -0.16276544332504272, 0.09449823200702667, 0.13766741752624512], [0.13505372405052185, 0.23109841346740723, -0.9414401054382324, 0.24878579378128052, 0.22136922180652618, 0.08828171342611313, 0.20160841941833496, -0.0015401761047542095, 0.0570266917347908, -0.045185159891843796, -0.04645916819572449], [-0.23028255999088287, 0.19410096108913422, 0.05911845713853836, -0.4107469320297241, -0.22322925925254822, -0.15126684308052063, -0.06914818286895752, -0.5574793815612793, -0.2832435071468353, -0.06542379409074783, -0.5163867473602295], [0.3258456289768219, -0.7460450530052185, 0.39092910289764404, 0.1629869043827057, 0.15194596350193024, -0.17021147906780243, -0.6345698237419128, -0.10696940869092941, -0.0018519852310419083, -0.6956663131713867, 0.035428501665592194], [0.038276731967926025, 0.40335431694984436, 0.192257359623909, -0.35887861251831055, 0.21160602569580078, -0.42711442708969116, -0.42372751235961914, 0.06117761880159378, -0.5797778964042664, -0.32011857628822327, -0.0612545982003212], [0.09174304455518723, -0.4776841700077057, 0.14557483792304993, 0.168169304728508, -0.546208918094635, -0.40775632858276367, -0.09922081977128983, -0.4498811662197113, 0.16278569400310516, 0.11038260906934738, -0.22747668623924255], [-0.3131355345249176, -0.1433858871459961, 0.022925272583961487, -0.04581961780786514, -0.13392770290374756, 0.10943472385406494, 0.08661436289548874, -0.011940961703658104, -0.21469593048095703, 0.017172912135720253, -0.005515089724212885], [-0.5280237197875977, -0.1771801859140396, -0.4037761390209198, 0.04984583705663681, 0.26715660095214844, 0.14724405109882355, 0.04988174885511398, -0.2237118035554886, -0.07213994860649109, 0.1901848167181015, 0.28083619475364685], [-0.3668648302555084, 0.11568296700716019, 0.08895258605480194, -0.18434356153011322, -0.2134050577878952, 0.1634410172700882, -0.014329124242067337, -0.04498099908232689, -0.3936948776245117, -0.6270914673805237, -0.09946322441101074], [-0.9880735874176025, 0.06840521842241287, 0.14879807829856873, -0.21008028090000153, -0.3757331073284149, 0.4539112150669098, 0.3617945611476898, 0.110279381275177, -0.3621402680873871, -0.6480189561843872, 0.17164629697799683], [-0.6553746461868286, -0.03587294742465019, 0.4825321435928345, 0.042901042848825455, -0.04911896958947182, 0.16742315888404846, -0.2575279474258423, -0.32958337664604187, -0.11831728368997574, 0.20773103833198547, 0.2316722720861435], [0.34832707047462463, 0.08956357091665268, -0.20461505651474, -0.052417222410440445, 0.1315334439277649, -0.11229190975427628, 0.38476210832595825, -0.5269302725791931, 0.0845756009221077, -0.5005784034729004, 0.04999160394072533], [-0.0765698254108429, 0.3564363121986389, -0.28920242190361023, 0.008526383899152279, -0.6497187614440918, -0.07175211608409882, 0.1525084376335144, -0.11679323017597198, -0.33233532309532166, -0.6044818162918091, 0.1614619791507721], [0.00011408236605348065, -0.5222354531288147, -0.11123211681842804, -0.4698612093925476, -0.0974353700876236, -0.1857936978340149, -0.17189925909042358, -0.4098898470401764, -0.23267364501953125, 0.044777024537324905, 0.1036844477057457], [-0.7881075143814087, 0.11657644063234329, -0.09539078921079636, -0.49536561965942383, -0.051445599645376205, 0.41669538617134094, -0.4936315715312958, -0.9262410998344421, -0.474288672208786, -0.2642284333705902, 0.3593674600124359], [-0.18790926039218903, 0.11223237961530685, 0.11459663510322571, 0.0024392064660787582, 0.15615610778331757, 0.2547230124473572, -0.036916621029376984, -0.2257390171289444, -0.23393583297729492, 0.026966897770762444, 0.050550974905490875], [0.1328456848859787, 0.007982886396348476, 0.32616251707077026, -0.4845243990421295, -0.5897440910339355, 0.09352757036685944, 0.23045092821121216, -0.5230298638343811, 0.19487647712230682, 0.0013929829001426697, -0.5160383582115173], [0.19774597883224487, -0.07543429732322693, -0.17706309258937836, -0.6184588074684143, 0.2763807773590088, -0.6022915244102478, 0.36120492219924927, -0.9923270344734192, -0.758514404296875, 0.3771822154521942, 0.33192265033721924], [0.20119863748550415, 0.20300234854221344, 0.0782584398984909, -0.5225093960762024, -0.4048505425453186, -0.1426587998867035, -0.12891064584255219, -0.17166361212730408, -0.03907407820224762, -0.28588077425956726, 0.05139109492301941], [0.0646735206246376, -0.3420863449573517, 0.14854709804058075, -0.2730570435523987, -0.2977546453475952, 0.10234063118696213, 0.36580878496170044, 0.15671294927597046, -0.664323627948761, -0.23699037730693817, -0.7781222462654114], [-0.13293439149856567, 0.11310534179210663, 0.07041901350021362, -0.018103312700986862, -0.15728841722011566, -0.020894484594464302, -0.08616622537374496, 0.007015878334641457, -0.08387661725282669, -0.1823895275592804, -0.2386517971754074], [0.15385697782039642, 0.1430148035287857, 0.0958750918507576, -0.3776075541973114, 0.18973082304000854, -0.2743723690509796, -0.30093637108802795, -0.09780177474021912, -0.4547181725502014, -0.27154508233070374, 0.10797049850225449], [0.33454036712646484, 0.32230016589164734, 0.3205639719963074, 0.017547495663166046, 0.16907711327075958, 0.27375662326812744, -0.3628861606121063, -0.2027646005153656, -0.5069910883903503, -0.1982242912054062, -0.6612399220466614], [-0.3147299289703369, 0.3185228705406189, -0.45955878496170044, -0.15095661580562592, -0.11705824732780457, -0.06839246302843094, -0.04354950413107872, -0.24986666440963745, -0.0808001384139061, 0.06524231284856796, 0.0078204944729805], [-0.3176211416721344, -0.3397103250026703, 0.1407507210969925, -0.033774346113204956, -0.23396053910255432, 0.05864200368523598, -0.21490880846977234, -0.24749933183193207, -0.32227611541748047, -0.016989605501294136, -0.06739123165607452], [-0.27737224102020264, 0.165685772895813, -0.19269895553588867, 0.038154494017362595, -0.22727814316749573, -0.4635365605354309, -0.22033026814460754, 0.07252267003059387, 0.23291532695293427, -0.1420787274837494, 0.12263491749763489], [-0.06484422087669373, 0.03428872302174568, 0.16921673715114594, 0.345683753490448, -0.1542743295431137, 0.17930954694747925, -0.6181887984275818, -0.7928646802902222, -0.7983155250549316, 0.15185394883155823, -0.051918208599090576], [0.3205247223377228, 0.2975342273712158, -0.1095527708530426, 0.07374546676874161, -0.014248116873204708, 0.03998588025569916, -0.28954100608825684, 0.00892037246376276, 0.26279526948928833, 0.12350476533174515, -0.1585749238729477], [-0.1805446445941925, -0.4842332601547241, -0.10988716781139374, 0.03348622843623161, -0.02790779620409012, -0.27376261353492737, -0.2684662640094757, -0.43244481086730957, -0.13364270329475403, -0.23227299749851227, 0.08339112251996994], [0.1892479509115219, 0.11987704038619995, 0.43423739075660706, -0.0877390056848526, 0.13154858350753784, 0.19526797533035278, 0.09270328283309937, -0.023438895121216774, -0.2647794783115387, -0.43014681339263916, -0.21225526928901672]], "b": [-0.16170448064804077, -0.17530614137649536, 0.14766943454742432, -0.06646636873483658, -0.35332462191581726, -0.2988508939743042, 0.07168801873922348, 0.21171772480010986, -0.09798984229564667, -0.3688340187072754, -0.4489828050136566, 0.027909880504012108, -0.09582345187664032, -0.14483428001403809, -0.5386714339256287, -0.3665716350078583, -0.3926713466644287, -0.4147757887840271, 0.18093770742416382, -0.20250877737998962, -0.11772558838129044, -0.4411899447441101, -0.38804516196250916, -0.4988022446632385, -0.28827786445617676, -0.4122716784477234, -0.33788222074508667, -0.14948011934757233, -0.13264815509319305, -0.15246516466140747, -0.4209701716899872, -0.16195926070213318, 0.02275577001273632, 0.1616857647895813, -0.058326661586761475, 0.058419786393642426, 0.18985746800899506, -0.2031160145998001, -0.39412403106689453, -0.2518112361431122, -0.16257813572883606, -0.30311912298202515, -0.11071542650461197, -0.14050839841365814, -0.36860212683677673, -0.15953882038593292, 0.21737323701381683, -0.4663872718811035, -0.19890166819095612, -0.06446189433336258, -0.00045153259998187423, 0.0982537493109703, -0.17605555057525635, -0.12439233809709549, -0.12984944880008698, -0.024570606648921967, 0.15480399131774902, -0.5153277516365051, -0.12969577312469482, -0.4127614498138428, -0.4208666980266571, -0.4562283754348755, -0.25520962476730347, -0.12155774235725403, -0.25480905175209045, 0.2812865376472473, 0.03709754720330238, 0.27362239360809326, -0.4066430926322937, -0.16910070180892944, -0.04367673397064209, -0.19716617465019226, -0.4610932171344757, -0.3683481216430664, -0.11179517209529877, 0.19744789600372314, -0.12367348372936249, -0.46295955777168274, -0.22455333173274994, -0.27385416626930237, -0.503109335899353, -0.16406773030757904, -0.17949163913726807, -0.30569082498550415, -0.05531545728445053, 0.05832542106509209, 0.15875723958015442, -0.03273829072713852, -0.4566744863986969, 0.19123107194900513, -0.48975545167922974, -0.12343548983335495, -0.3674083650112152, 0.00171380874235183, 0.08481057733297348, -0.23305881023406982, -0.12468064576387405, -0.46929365396499634, -0.542597234249115, 0.26568129658699036, -0.18669545650482178, -0.21061395108699799, -0.41407692432403564, -0.11237482726573944, -0.15447479486465454, 0.45583170652389526, -0.33804163336753845, -0.007022025063633919, -0.28253456950187683, -0.2900901436805725, 0.04197587072849274, -0.01724396087229252, -0.03882155939936638, -0.5356587171554565, -0.1262456178665161, 0.01776621863245964, -0.41031506657600403, 0.00457645021378994, -0.18141084909439087, -0.08254417032003403, -0.3076365888118744, 0.11933388561010361, -0.1848098635673523, -0.4881105422973633, 0.2033771574497223, -0.5471131801605225, 0.03856894373893738, -0.261718213558197]}, {"type": "linear", "activation": "relu", "W": [[-0.2618672549724579, 0.030065661296248436, -0.059245750308036804, 0.0542745366692543, -0.16341309249401093, 0.03692637383937836, -0.05787234008312225, -0.338573694229126, -0.2279956191778183, -0.2573491036891937, -0.08180667459964752, -0.30593791604042053, -0.0953226387500763, -0.1594320684671402, 0.17689542472362518, 0.021077146753668785, -0.47279876470565796, -0.006928273010998964, 0.14789718389511108, -0.07342784106731415, -0.04269593954086304, 0.028971098363399506, -0.02074461802840233, 0.10538902133703232, 0.2524309456348419, -0.12608452141284943, 0.02799149975180626, 0.04932091757655144, -0.4417520761489868, -0.15614022314548492, -0.0031320019625127316, -0.5124266147613525, -0.2379092276096344, -0.29115185141563416, 0.07508881390094757, -0.07381754368543625, 0.07039676606655121, 0.29305553436279297, 0.10111374408006668, 0.08753175288438797, 0.01697036437690258, -0.2646908164024353, 0.07786902785301208, -0.29020246863365173, -0.5983461737632751, -0.019190115854144096, -0.3397138714790344, 0.027798905968666077, 0.3466814458370209, -0.19774630665779114, -0.08703453093767166, -0.3816785216331482, -0.0018606255762279034, 0.24485863745212555, 0.06327518075704575, -0.02258872427046299, -0.19018769264221191, -0.05235055088996887, 0.2871653437614441, 0.1642654836177826, 0.0953950583934784, 0.0078448336571455, 0.13658887147903442, 0.15259213745594025, -0.1302310675382614, -0.2838636040687561, -0.07881291955709457, 0.031658317893743515, 0.44441190361976624, -0.29145923256874084, -0.12817063927650452, -0.026783961802721024, -0.044655878096818924, -0.29122960567474365, 0.2998606562614441, 0.091661736369133, 0.6201782822608948, 0.09503263980150223, -0.4506832957267761, 0.16962522268295288, 0.03375224024057388, -0.18925176560878754, -0.01204639207571745, -0.20503060519695282, -0.0712098479270935, 0.19191724061965942, -0.06384920328855515, -0.15145176649093628, 0.008650511503219604, -0.12529368698596954, 0.019135113805532455, -0.12956967949867249, -0.37713009119033813, -0.13956160843372345, -0.25115129351615906, -0.17574378848075867, -0.3324405550956726, -0.17234757542610168, 0.012795261107385159, -0.06935595721006393, -0.22190198302268982, -0.2970423102378845, -0.29395321011543274, -0.5150212645530701, -0.05392908677458763, -0.47856056690216064, -0.25577831268310547, -0.3585564196109772, 0.038251399993896484, 0.3552412986755371, -0.04843664541840553, -0.0007535932236351073, 0.1511864960193634, -0.06736889481544495, -0.45248547196388245, -0.1995100975036621, -0.131950244307518, -0.13308757543563843, 0.08053269237279892, 0.058233458548784256, -0.10256301611661911, 0.14662785828113556, -0.13380101323127747, -0.03234807774424553, 0.16891683638095856, 0.23161639273166656, -0.18786416947841644, -0.32726988196372986], [-0.05775915086269379, -0.1472569853067398, 0.17686371505260468, 0.1685054749250412, 0.0682653933763504, -0.23726384341716766, 0.02421691082417965, -0.43985697627067566, -0.7607601881027222, -0.5519625544548035, -0.11878149211406708, -0.0526566356420517, -0.3977922797203064, -0.1612682342529297, 0.33569851517677307, -0.30054670572280884, -0.0409124419093132, -0.2507130205631256, -0.4009626805782318, 0.010033647529780865, 0.055429939180612564, 0.13283614814281464, -0.1802259385585785, -0.06564837694168091, 0.31253039836883545, -0.19743773341178894, -0.39111045002937317, -0.2749682068824768, 0.025467796251177788, -0.5816968083381653, 0.06401856988668442, 0.19291828572750092, -0.657667875289917, -0.38851529359817505, -0.176240935921669, -0.17256394028663635, -0.22071334719657898, 0.5378865003585815, 0.3323412835597992, 0.07613583654165268, -0.042400509119033813, 0.10912716388702393, 0.21446697413921356, -0.4914878010749817, -0.12818795442581177, 0.17154672741889954, -0.4158698320388794, 0.26414671540260315, -0.001689409022219479, -0.6729686856269836, 0.41357389092445374, 0.041877828538417816, -0.08828730881214142, 0.13374045491218567, 0.13045182824134827, -0.15737135708332062, -0.40682902932167053, -0.5099188685417175, -0.4622620940208435, 0.05029468983411789, 0.082518570125103, -0.375095933675766, 0.1210591122508049, 0.10925846546888351, -0.3671913743019104, -0.0164504274725914, -0.06299852579832077, -0.2982759475708008, 0.2862025499343872, 0.11813309788703918, -0.10209733992815018, -0.5956103205680847, -0.3563086688518524, -0.17539244890213013, 0.15819120407104492, -0.04090399295091629, -0.4496201276779175, -0.05625678971409798, -0.10486626625061035, 0.11885757744312286, -0.08334822952747345, -0.6871770620346069, -0.028641613200306892, -0.22748875617980957, -0.0384678989648819, 0.15474890172481537, -0.47874146699905396, -0.2583704888820648, 0.02475656382739544, -0.006907172966748476, -0.0004528739082161337, -0.7671365141868591, -0.14403456449508667, -0.11237016320228577, 0.004774586297571659, -0.8641171455383301, 0.05430684983730316, -0.04479610174894333, -0.3111588656902313, -0.23352834582328796, -0.4931900203227997, 0.27297815680503845, -0.40714412927627563, -0.2552070617675781, -0.012188623659312725, -0.3791271150112152, -0.07614316791296005, -0.260379433631897, -0.38337305188179016, 0.3648245632648468, -0.24342316389083862, -0.1555645763874054, -0.08089681714773178, -0.040424030274152756, -0.34852689504623413, -0.09879560768604279, -0.34163838624954224, -1.129897117614746, -0.08585572987794876, 0.09148678183555603, 0.16294804215431213, -0.21654480695724487, -0.15719328820705414, -0.3734937012195587, 0.1921352744102478, -0.004782187752425671, -0.17146334052085876, -0.3675670027732849], [-0.0864342525601387, 0.03276384621858597, -0.013172624632716179, 0.07248397171497345, 0.010962598025798798, 0.05992629751563072, -0.05110751837491989, 0.046100568026304245, -0.003578087082132697, 0.035426028072834015, -0.042984820902347565, -0.08288372308015823, 0.05630025267601013, -0.10194579511880875, -0.03620213270187378, -0.04219530522823334, -0.008359486237168312, 0.04630490764975548, -0.035690609365701675, 0.0729280486702919, -0.047594256699085236, 0.06716341525316238, 0.0395672582089901, -0.0047255647368729115, -0.03106735646724701, 0.026714902371168137, -0.07372604310512543, 0.001156742568127811, -0.08452991396188736, -0.08519256860017776, -0.06422585994005203, 0.03605079650878906, -0.08776012808084488, -0.036530133336782455, 0.040579427033662796, -0.05083181709051132, -0.11086789518594742, 0.024573203176259995, -0.12312845885753632, 0.03236749768257141, -0.08572644740343094, -0.03060041554272175, 0.07547889649868011, -0.010872239246964455, -0.024021437391638756, 0.023580919951200485, -0.011159217916429043, -0.03705974295735359, -0.017333945259451866, -0.025097718462347984, -0.0163736492395401, -0.05667028948664665, -0.04298598691821098, -0.08913586288690567, 0.08090988546609879, -0.12128634750843048, 0.041537825018167496, 0.03892849385738373, 0.07233022153377533, -0.0005748992552980781, -0.06873687356710434, -0.04211457446217537, 0.05154748260974884, -0.008272799663245678, 0.0432007797062397, -0.0411049909889698, -0.02736556902527809, -0.05780155584216118, -0.11591137200593948, -0.07876357436180115, 0.0487285815179348, -0.00015371071640402079, 0.013684132136404514, -0.05730956792831421, -0.08600050956010818, -0.05320423096418381, 0.03400135785341263, 0.05521494522690773, -0.05549627169966698, -0.05685806646943092, -0.08946375548839569, 0.014214003458619118, 0.01888534426689148, 0.08438321202993393, -0.01907450333237648, -0.028395796194672585, -0.00746341934427619, 0.041759222745895386, 0.01914145238697529, 0.0007514181779697537, -0.03592034801840782, -0.03652416542172432, 0.009813318960368633, 0.0388038270175457, -0.004454883746802807, -0.033230096101760864, -0.011249170638620853, 0.045177996158599854, -0.04166397452354431, -0.08663780987262726, -0.10551197081804276, 0.03983234241604805, -0.05591077357530594, -0.09427754580974579, 0.044858455657958984, -0.08752698451280594, -0.07814591377973557, -0.0016846938524395227, -0.08486991375684738, 0.00042573214159347117, -0.041404422372579575, -0.03926902636885643, -0.026271583512425423, -0.019725944846868515, 0.007189847994595766, 0.03446662798523903, -0.0330386720597744, 0.02721555531024933, -0.09075821936130524, -0.0644109770655632, 0.07070816308259964, -0.008475348353385925, -0.024848928675055504, 0.06966845691204071, 0.02902941033244133, -0.09682250022888184, -0.04512378200888634, 0.07626437395811081], [-0.30525749921798706, -0.10965485870838165, -0.15282340347766876, 0.08514849096536636, 0.008149591274559498, -0.020886775106191635, -0.07768815755844116, -0.14237770438194275, -0.058978673070669174, 0.05166034772992134, -0.25148749351501465, -0.10974390059709549, -0.28241515159606934, -0.11516895145177841, -0.09534499049186707, -0.30940762162208557, -0.012674801051616669, 0.10705111920833588, -0.3004441261291504, -0.04429688677191734, -0.2189338654279709, -0.18827423453330994, 0.13408398628234863, -0.27787721157073975, 0.006062869448214769, -0.06878997385501862, -0.22163085639476776, -0.09750588983297348, 0.0168768297880888, -0.5348317623138428, -0.12486831843852997, 0.07372546941041946, -0.11528337746858597, 0.12374430894851685, -0.38210535049438477, -0.058576397597789764, -0.12698569893836975, -0.043536219745874405, -0.2750970125198364, -0.08757514506578445, -0.030878834426403046, -0.06694968789815903, -0.32365211844444275, 0.09151487797498703, 0.15010954439640045, -0.5491424798965454, -0.15096624195575714, -0.09702270478010178, 0.42465388774871826, -0.14577354490756989, -0.2184389978647232, -1.092759132385254, -0.08922561258077621, 0.1673663705587387, -0.029003720730543137, -0.13770340383052826, 0.021703483536839485, -0.0038334489800035954, 0.24489158391952515, -0.041762907058000565, -0.147667795419693, -0.4713939428329468, -0.12149215489625931, -0.36479705572128296, -0.004685134626924992, -0.07246211171150208, -0.015022959560155869, 0.1609085351228714, -0.2596970796585083, -0.16842521727085114, 0.046389490365982056, -0.05376804247498512, -0.11388418078422546, -0.4110563099384308, -0.2056341916322708, -0.15339244902133942, 0.23327398300170898, 0.03235635906457901, -0.839495837688446, -0.2628805935382843, 0.04255284368991852, -0.07559370994567871, -0.010408102534711361, 0.03511364012956619, -0.22043061256408691, -1.1134710311889648, -0.09109979122877121, -0.013490491546690464, -0.021132996305823326, -0.07989292591810226, -0.1823161244392395, -0.09632504731416702, 0.15426203608512878, -0.1321604996919632, 0.005903428420424461, 0.10938382148742676, -0.00043296287185512483, 0.08970558643341064, 0.007964632473886013, -0.15222327411174774, -0.3374454081058502, -0.027400434017181396, 0.033755432814359665, 0.050814028829336166, -0.028759628534317017, -0.07187498360872269, 0.18399696052074432, -0.010877205990254879, -0.15861055254936218, 0.010547052137553692, -0.12667705118656158, -0.02704608626663685, 0.09621143341064453, -0.06620831042528152, 0.001077917288057506, 0.1404527872800827, -0.01448024157434702, 0.09077239781618118, -0.039045218378305435, -0.06559890508651733, -0.04895716533064842, -0.13608495891094208, 0.029326826333999634, -0.06592272967100143, -0.024668635800480843, -0.1480109989643097, -0.1677974909543991, 0.039227813482284546], [-0.46195387840270996, 0.02212142013013363, 0.257327675819397, 0.10441694408655167, 0.024986237287521362, 0.113324373960495, -0.007730146404355764, 0.03886653482913971, -0.04155297949910164, 0.3265538811683655, -0.0089379558339715, -0.03809189051389694, -0.2114637792110443, 0.0040992386639118195, -0.3377079963684082, -0.25005465745925903, 0.023011887446045876, 0.13297219574451447, 0.12402558326721191, -0.07390967011451721, 0.23132769763469696, -0.17669150233268738, 0.1558285802602768, -0.8605758547782898, -0.24440860748291016, 0.18433652818202972, -0.08908577263355255, 0.2888284921646118, 0.14108619093894958, -0.20777302980422974, 0.21294626593589783, 0.1557539701461792, 0.08449195325374603, 0.33379247784614563, 0.019210178405046463, 0.015661776065826416, -0.22026807069778442, 0.11819373816251755, 0.2710072100162506, 0.14649486541748047, 0.06179305166006088, 0.29175418615341187, -0.15709011256694794, -0.08843953162431717, 0.16037379205226898, 0.019243638962507248, -0.2045152485370636, 0.2551589012145996, -0.14615574479103088, 0.12128856033086777, -0.22262518107891083, 0.13337230682373047, -0.10653173178434372, 0.06828469783067703, 0.04579998925328255, -0.28332406282424927, -0.09284103661775589, -0.17185409367084503, 0.32296299934387207, 0.21147491037845612, 0.22061456739902496, -0.17319266498088837, -0.31511715054512024, 0.21441218256950378, 0.15363401174545288, 0.3365166485309601, 2.2337828795571113e-06, 0.7370526790618896, 0.10400430113077164, 0.17482176423072815, -0.08854363858699799, -0.2463081032037735, -0.6875442266464233, -0.8057645559310913, 0.31774505972862244, -0.16058720648288727, -0.11321357637643814, -0.20208251476287842, -0.0765317901968956, -0.13044865429401398, 0.07892799377441406, -0.5586817860603333, -0.003852528054267168, 0.022360052913427353, -0.8778665661811829, 0.3485248386859894, -0.0582706555724144, -0.2706282138824463, 0.11804735660552979, -0.045379891991615295, 0.12586146593093872, 0.1722245216369629, 0.3391954004764557, 0.0031054632272571325, 0.1078900471329689, -0.016387993469834328, 0.1302851140499115, 0.07601436227560043, -0.18984167277812958, 0.01830596849322319, 0.008889516815543175, 0.3200298547744751, 0.37867721915245056, 0.17072555422782898, -0.2107425034046173, -0.4815347194671631, 0.13967938721179962, 0.06133545935153961, -0.4976658225059509, 0.0882752388715744, -0.4593658745288849, -0.1975070685148239, 0.28683075308799744, -0.3111712634563446, 0.32627546787261963, 0.24644850194454193, 0.16418083012104034, -0.30709511041641235, 0.17862632870674133, 0.1187596246600151, 0.2209898829460144, -0.25313419103622437, -0.007978761568665504, -0.374578595161438, -0.2839474678039551, 0.19243159890174866, 0.13338196277618408, 0.2466517835855484], [-0.023381922394037247, -0.059423282742500305, 0.060137733817100525, -0.01924692653119564, -0.09835600852966309, -0.10118848830461502, 0.03568898141384125, -0.089267797768116, 0.025504006072878838, 0.010484966449439526, -0.033711355179548264, 0.056844767183065414, -0.005487804301083088, 0.03581920638680458, -0.04709971323609352, -0.04562188684940338, 0.00836808793246746, -0.015165900811553001, -0.03837693855166435, -0.06928417086601257, -0.09793967008590698, 0.03722089156508446, -0.028767595067620277, -0.030700238421559334, -0.0783005803823471, 0.01251266524195671, 0.004926892928779125, -0.03302183374762535, -0.018945757299661636, -0.025775905698537827, 0.013086879625916481, -0.02645793743431568, -0.07670701295137405, 0.05354335159063339, 0.036893222481012344, 0.011628546752035618, -0.06381288915872574, 0.052566006779670715, 0.05976364016532898, -0.022779347375035286, -0.0859958678483963, 0.08652390539646149, -0.038050923496484756, -0.02676008641719818, 0.060166142880916595, -0.05408090725541115, -0.07985077798366547, 0.033866673707962036, 0.04669833928346634, 0.04314524307847023, -0.06145555153489113, -0.0031726567540317774, -0.019741971045732498, -0.006947442889213562, -0.012759796343743801, -0.032967131584882736, -0.07171111553907394, -0.02395704761147499, -0.04761824756860733, -0.022992819547653198, 0.030888613313436508, -0.04022250697016716, -0.06342840194702148, -0.031322039663791656, -0.08077605813741684, 0.005326574668288231, 0.07402027398347855, -0.029853202402591705, 0.06004084646701813, 0.04237906634807587, 0.008521871641278267, -0.08786936849355698, -0.04827258735895157, 0.06301851570606232, -0.06581317633390427, -0.04160085320472717, 0.05070330202579498, -0.0018258752534165978, 0.05764421075582504, -0.013395890593528748, -0.07105076313018799, -0.057723816484212875, 0.08045381307601929, -0.0032573824282735586, 0.030249109491705894, -0.08536223322153091, 0.03489052876830101, 0.017530318349599838, -0.06219713017344475, -0.003275958588346839, -0.0986352264881134, -0.08542350679636002, -0.0753672644495964, -0.0326620489358902, -0.012377285398542881, -0.02416945807635784, -0.06658193469047546, -0.086591437458992, 0.07212221622467041, -0.05701832473278046, -0.06166674941778183, 0.05553628131747246, 0.08196251094341278, 0.012002488598227501, 0.07549628615379333, -0.07953567802906036, 0.0862184390425682, -0.07975762337446213, 0.0185806043446064, -0.04548250883817673, 0.041941359639167786, -0.018767159432172775, -0.0222722589969635, 0.011490242555737495, -0.014994914643466473, -0.0670776441693306, -0.05262872576713562, -0.055428456515073776, -0.05403279513120651, -0.03781703859567642, -0.04383241757750511, 0.028136929497122765, -0.06254608184099197, -0.08600933849811554, 0.013132315129041672, -0.029083527624607086, 0.019225656986236572, -0.05398368462920189], [-0.276549369096756, -0.3020399808883667, -0.04968356713652611, -0.07099754363298416, -0.050961919128894806, -0.005435929633677006, -0.021759578958153725, -0.10043118894100189, -0.4197213649749756, 0.02109542302787304, 0.39046141505241394, -0.41501709818840027, 0.07107175886631012, -0.01244028564542532, 0.08055362850427628, 0.026430515572428703, 0.007996970787644386, -0.04176619276404381, -0.03903617337346077, -0.05836533382534981, -0.1777258813381195, 0.27590423822402954, -0.2502055764198303, -0.24200905859470367, -0.42712804675102234, -0.11258146911859512, 0.0789036899805069, -0.07810888439416885, 0.040335144847631454, -0.16818267107009888, 0.1485617607831955, -0.029862763360142708, -0.2881389558315277, -0.46712860465049744, -0.29622548818588257, -0.5644594430923462, 0.2334735095500946, -0.41563379764556885, -0.4752562940120697, 0.1333315521478653, -0.057648152112960815, -0.16969089210033417, 0.08653563261032104, -0.47010737657546997, -0.04167306050658226, -0.02427266351878643, -0.3356301486492157, 0.1504528671503067, -0.20153367519378662, 0.38911399245262146, 0.4559652507305145, -0.42629149556159973, 0.03542151302099228, 0.14121800661087036, -0.42211559414863586, -0.09115058183670044, 0.30548515915870667, -0.08167474716901779, 0.3733862638473511, 0.20911355316638947, -0.054579056799411774, 0.04404889792203903, -0.6002383232116699, -0.10761775076389313, 0.4682600796222687, -0.2434612214565277, -0.026111848652362823, -0.4512183666229248, -0.26077800989151, -0.7745566964149475, -0.20154239237308502, 0.4568234384059906, 0.008178184740245342, -0.13962824642658234, -0.6810003519058228, -0.1975257843732834, 0.24763038754463196, -0.18945661187171936, 0.1447736769914627, 0.0329442098736763, 0.12928831577301025, -0.10490868240594864, 0.040775228291749954, 0.10613088309764862, -0.3646635115146637, -0.32354557514190674, -0.1827344298362732, -0.23317529261112213, 0.20978958904743195, -0.15664617717266083, -0.013302311301231384, -0.08599663525819778, -0.2599214017391205, -0.28741732239723206, 0.006224792916327715, -0.20046569406986237, -0.12979644536972046, -0.1054556742310524, 0.024548888206481934, -0.10822197794914246, 0.10887482017278671, -0.014680209569633007, -0.2031533271074295, -0.27755916118621826, 0.05769624561071396, -0.6090331077575684, -0.31095263361930847, -0.17648373544216156, -0.11698734760284424, -0.42802977561950684, -0.19250209629535675, -0.4439300298690796, -0.31434813141822815, -0.01578124426305294, -0.2752993106842041, -0.15605458617210388, 0.19458702206611633, -0.0012140667531639338, -0.08733516186475754, -0.23726786673069, -0.2497260570526123, -0.4545634686946869, 0.008468442596495152, -0.18481780588626862, -0.35904690623283386, -0.032810911536216736, -0.26720255613327026, 0.13340552151203156], [0.053168054670095444, -0.1352643221616745, -0.1206507757306099, -0.011827473528683186, -0.22244040668010712, -0.19652710855007172, -0.04844788461923599, -0.1323925405740738, -0.1641359031200409, -0.03005608730018139, 0.03294460102915764, -0.1831209361553192, -0.12774236500263214, -0.06612549722194672, 0.01728096976876259, -0.07062176614999771, -0.15432435274124146, -0.028262309730052948, -0.30084317922592163, -0.025301648303866386, 0.24552425742149353, 0.32053303718566895, -0.022836802527308464, -0.010246873833239079, -0.07866334170103073, -0.09737834334373474, -0.13277439773082733, -0.2802960276603699, -0.004895550198853016, -0.1763153225183487, -0.09591197967529297, -0.026590809226036072, -0.007754500024020672, 0.015277300029993057, -0.10027549415826797, 0.1410956084728241, -0.30467489361763, -0.13487903773784637, -0.00855289027094841, -0.17597603797912598, -0.05373461917042732, 0.008473191410303116, -0.006472183391451836, 0.3318857252597809, -0.18803058564662933, 0.06009684130549431, -0.21050041913986206, -0.1847803294658661, -0.029597630724310875, -0.06939391791820526, 0.08680705726146698, 0.449752539396286, -0.10895196348428726, -0.17651614546775818, -0.07960361987352371, -0.36944127082824707, -0.2807161211967468, -0.09497930109500885, -0.115526482462883, -0.1241258978843689, -0.05472568795084953, -0.06825822591781616, -0.24147146940231323, -0.19674943387508392, -0.2130488157272339, -0.07204264402389526, -0.03271721675992012, 0.06511475890874863, 0.09813804179430008, 0.2123805731534958, -0.16715487837791443, -0.024801548570394516, 0.014191696420311928, -0.05758507922291756, -0.11258743703365326, -0.10558319836854935, 0.062025830149650574, -0.02148072049021721, -0.07330835610628128, -0.10166691988706589, 0.0052465396001935005, -0.6294809579849243, -0.010899008251726627, -0.2592102289199829, -0.204880490899086, 0.1705215573310852, -0.26452475786209106, -0.11461419612169266, 0.00030051061185076833, -0.1657588928937912, -0.031006570905447006, -0.12863855063915253, 0.5848101377487183, -0.08739639818668365, -0.13757148385047913, -0.0797077864408493, 0.033098578453063965, 0.20508019626140594, -0.014041212387382984, -0.1219945102930069, -0.08461658656597137, -0.22308868169784546, 0.2588852345943451, -0.012478156015276909, -0.07039692997932434, -0.2513138949871063, 0.20992104709148407, -0.10680802911520004, -0.3394557535648346, 0.045208610594272614, -0.22371798753738403, -0.031042493879795074, -0.16626067459583282, -0.05487607419490814, -0.08509314060211182, -0.20885181427001953, -0.1604030430316925, -0.22851361334323883, 0.013686326332390308, 0.08248871564865112, 0.15251600742340088, -0.2970607578754425, -0.01823774166405201, 0.08516257256269455, -0.3387799561023712, -0.009111661463975906, -0.14541275799274445, -0.08139992505311966], [-0.06638793647289276, -0.05308800935745239, -0.04951832443475723, 0.02624846063554287, -0.10916702449321747, -0.0058882152661681175, -0.0397157184779644, -0.04421759396791458, -0.07952864468097687, 0.04780581220984459, -0.017624082043766975, -0.13800710439682007, 0.05803101882338524, -0.05345689132809639, 0.06374483555555344, -0.038881562650203705, -0.015696823596954346, -0.07426873594522476, -0.04739655181765556, -0.08345004171133041, 0.03552874177694321, -0.039085790514945984, -0.10378309339284897, 0.04901628568768501, 0.015750419348478317, 0.01612706109881401, 0.044392671436071396, 0.038447488099336624, -0.0932827889919281, -0.05261335149407387, -0.03655123710632324, -0.007555750198662281, -0.017684947699308395, -0.0362851545214653, 0.04026610404253006, -0.13578924536705017, -0.024784225970506668, -0.05463757738471031, -0.00966652948409319, -0.047298893332481384, -0.05187198147177696, -0.09247561544179916, 0.04037676006555557, -0.08323106914758682, -0.10839159041643143, -0.027283258736133575, 0.002568410011008382, 0.017275750637054443, 0.020431384444236755, -0.08097036927938461, -0.042272161692380905, -0.07125168293714523, 0.05514535307884216, -0.0703941062092781, -0.03607351705431938, 0.01790960505604744, -0.024447239935398102, -0.10202658921480179, 0.06555001437664032, -0.068496935069561, -0.08691740781068802, -0.10090439021587372, 0.008010703139007092, -0.04728188365697861, -0.04924849048256874, -0.008099506609141827, 0.06955139338970184, 0.07427370548248291, -0.05059901997447014, -0.036952994763851166, -0.07040808349847794, -0.10642103105783463, -0.09447933733463287, -0.025684986263513565, -0.053494811058044434, -0.14322195947170258, -0.06325753033161163, 0.04674772173166275, -0.09224812686443329, 0.04217923805117607, 0.018926875665783882, -0.011725158430635929, -0.09867885708808899, -0.07170114666223526, 0.05040380731225014, 0.08257360011339188, -0.12081794440746307, 0.046678248792886734, -0.07308892160654068, -0.1409025490283966, 0.00020437603234313428, -0.10635633766651154, -0.11496172100305557, -0.0601583756506443, -0.03622451797127724, 0.03444467857480049, -0.11641725897789001, -0.022493289783596992, -0.08317261934280396, 0.020694848150014877, -0.08110714703798294, 0.003899870440363884, -0.06244492903351784, -0.06689232587814331, -0.11174484342336655, 0.016384879127144814, 0.0036448233295232058, -0.036130141466856, 0.049383923411369324, -0.025744978338479996, -0.08397840708494186, 0.01272779330611229, -0.0777340829372406, -0.08313262462615967, -0.1212751641869545, 0.029999731108546257, 0.046613868325948715, 0.027233490720391273, -0.0943112000823021, 0.008141358382999897, 0.07333861291408539, 0.03953876346349716, -0.0020607453770935535, -0.037453338503837585, -0.09861905872821808, -0.05333486944437027, -0.07457543164491653, 0.0006260180380195379], [-0.1975007802248001, 0.051165856420993805, -0.10212980955839157, 0.017686177045106888, -0.003675391199067235, 0.005486537702381611, -0.13762106001377106, 0.036305367946624756, -0.020645206794142723, 0.048380810767412186, -0.1604340672492981, -0.08758287131786346, -0.16293714940547943, 0.028171857818961143, -0.024352818727493286, -0.014914841391146183, 0.06650307774543762, -0.11367753148078918, -0.08576082438230515, -0.01955476775765419, 0.015449108555912971, 0.075696662068367, -0.10290605574846268, -0.019721047952771187, -0.08136744797229767, -0.09805724024772644, -0.10818126052618027, -0.17966577410697937, -0.15042029321193695, -0.1661422699689865, -0.13475310802459717, -0.003751067677512765, -0.1877509504556656, -0.15350015461444855, -0.10036303102970123, -0.11348854005336761, 0.008257202804088593, -0.12982673943042755, -0.05197276175022125, -0.10938765853643417, 0.06371036916971207, -0.1600368469953537, -0.1539638340473175, 0.006820958107709885, 0.13017620146274567, 0.006881888024508953, -0.2441757321357727, -0.11163758486509323, 0.24588577449321747, 0.04293109104037285, -0.150703564286232, -0.17943497002124786, -0.04569298028945923, -0.024858394637703896, 0.009491660632193089, -0.11354391276836395, 0.0880524069070816, 0.015417609363794327, 0.19848217070102692, -0.033450234681367874, -0.022506950423121452, -0.05215681344270706, -0.10244769603013992, -0.05809576436877251, -0.1889364868402481, -0.07077634334564209, 0.0022772152442485094, 0.06929067522287369, -0.0824398323893547, -0.15993136167526245, -0.1125510036945343, 7.953651947900653e-05, 0.05290290340781212, -0.09590954333543777, -0.08717084676027298, -0.14052855968475342, 0.019884416833519936, -0.08765929192304611, 0.07396690547466278, 0.003021859796717763, 0.037313312292099, -0.0993196964263916, -0.04061101749539375, -0.06996668875217438, -0.05835410952568054, 0.08045829087495804, -0.13132865726947784, -0.02878415212035179, -0.1540556252002716, -0.07067567110061646, 0.054589737206697464, 0.028835253790020943, -0.12939471006393433, -0.14460088312625885, -0.098447285592556, -0.016936294734477997, -0.1595035046339035, 0.10772980004549026, -0.06427906453609467, -0.1995343267917633, 0.08913746476173401, -0.12415597587823868, -0.1520317792892456, -0.10195280611515045, -0.07032160460948944, -0.17080411314964294, -0.0038610482588410378, -0.0145484060049057, -0.13624954223632812, 0.03165102377533913, -0.37468934059143066, -0.11866813153028488, -0.12520402669906616, -0.3125801384449005, -0.06096023693680763, 0.27627092599868774, 0.14115305244922638, -0.11904589831829071, -0.015171284787356853, -0.018511971458792686, 0.07140854001045227, -0.11783980578184128, -0.06666071712970734, -0.18943549692630768, -0.15465869009494781, -0.023987125605344772, -0.18735918402671814, 0.026206202805042267], [0.03023737482726574, -0.1062534973025322, -0.04724615812301636, -0.057956818491220474, -0.14699561893939972, -0.08673501759767532, -0.013836265541613102, -0.06040537729859352, -0.13377436995506287, -0.3632969558238983, -0.45756620168685913, -0.05513094738125801, 0.16166755557060242, 0.04969087615609169, -0.26524272561073303, 0.11843689531087875, 0.023109901696443558, 0.03716824948787689, 0.10876062512397766, -0.07115001231431961, -0.03291560336947441, -0.41726016998291016, -0.004535255022346973, -0.21463896334171295, -0.11315983533859253, -0.07714594155550003, 0.07601122558116913, -0.01984524168074131, -0.2595888674259186, -0.025267072021961212, -0.19415223598480225, -0.12933646142482758, 0.08953826874494553, -0.04915795475244522, 0.20352691411972046, -0.07413353025913239, 0.278816819190979, -0.06966155022382736, -0.04208492487668991, 0.07842206954956055, 0.028079567477107048, 0.07124930620193481, 0.2824932336807251, 0.14982418715953827, -0.34671515226364136, 0.01705845631659031, 0.0670202448964119, -0.06919632852077484, -0.46648699045181274, -0.04668574407696724, 0.19314180314540863, 0.18065209686756134, 0.03693138808012009, -0.6126233339309692, -0.8678455948829651, -0.1868276447057724, -0.42454954981803894, -0.49141591787338257, -0.3081325888633728, -0.13957299292087555, -0.06924066692590714, -0.13729409873485565, 0.016972126439213753, 0.1478840559720993, -0.07854408770799637, -0.04083671420812607, 0.07964269816875458, 0.20090888440608978, 0.08756795525550842, 0.025449460372328758, -0.06617256999015808, -0.0639919862151146, -0.01061268150806427, 0.15579035878181458, 0.02772492915391922, -0.27930280566215515, -0.10540557652711868, -0.2585187256336212, -0.2412676215171814, 0.17102937400341034, -0.07660366594791412, 0.0805029645562172, -0.09793636947870255, -0.07694235444068909, -0.07235822826623917, 0.2850165069103241, 0.046530503779649734, -0.13793322443962097, -0.5178793668746948, -0.06684436649084091, -0.09609079360961914, -0.18142928183078766, 0.27552086114883423, -0.03412213549017906, -0.16978074610233307, -0.2576458752155304, -0.5278708338737488, -0.214264914393425, -0.1380186825990677, 0.12090674042701721, -0.032351087778806686, -0.12159610539674759, 0.07209524512290955, -0.224589541554451, -0.019465744495391846, 0.10821991413831711, -0.27046576142311096, -0.07747343927621841, -0.49711883068084717, 0.11746463179588318, -0.004347209352999926, 0.004923433065414429, 0.28403735160827637, 0.07696729898452759, -0.08956418931484222, 0.20041775703430176, -0.12371988594532013, 0.03929191082715988, -0.0022329085040837526, -0.0030127225909382105, -0.6699123382568359, 0.015986334532499313, -0.010544540360569954, 0.07814748585224152, 0.08586940914392471, 0.021505415439605713, -0.18400192260742188, -0.3174569010734558], [-0.031121525913476944, -0.0077072312124073505, -0.07054212689399719, 0.0730166807770729, -0.08938863128423691, -0.16121861338615417, -0.022252559661865234, 0.0332401804625988, -0.07503394782543182, -0.10010787844657898, -0.06744061410427094, -0.12124529480934143, -0.28270259499549866, 0.021279454231262207, -0.058918438851833344, -0.19736914336681366, 0.012431052513420582, 0.03693085163831711, -0.014524581842124462, 0.012975729070603848, -0.07104109972715378, -0.08131454885005951, -0.10206108540296555, 0.005292835645377636, 0.025448892265558243, -0.1533527821302414, 0.045913562178611755, 0.005089512560516596, -0.09488049894571304, -0.07719887793064117, -0.105342797935009, -0.125528022646904, -0.04279431328177452, -8.982489089248702e-05, -0.16141335666179657, -0.03189343959093094, -0.1885582059621811, -0.06524892151355743, -0.05237290635704994, 0.050533562898635864, 0.08205410838127136, -0.271517276763916, -0.2153816968202591, 0.034303195774555206, 0.0894152969121933, -0.04934140667319298, -0.07383077591657639, -0.06388609111309052, 0.1335229128599167, 0.1449916660785675, -0.2228407859802246, -0.016733946278691292, 0.01406302209943533, 0.008459379896521568, -0.05949140340089798, -0.09686531871557236, -0.11516124755144119, -0.1525454968214035, 0.1681147664785385, -0.006050909869372845, 0.04336795210838318, -0.11650330573320389, 0.08494889736175537, -0.05123504251241684, 0.06976841390132904, -0.05146000534296036, 0.04684324935078621, 0.14515076577663422, -0.030015045776963234, -0.005418304353952408, -0.05866256356239319, -0.10872088372707367, -0.0004939246573485434, -0.06880883127450943, -0.011679193004965782, -0.09947660565376282, -0.0013051340356469154, -0.053373172879219055, -0.005897903814911842, -0.12177588045597076, -0.01404776144772768, -0.31871429085731506, -0.053752683103084564, -0.2009594738483429, -0.04606333002448082, 0.16042503714561462, -0.06238915026187897, -0.09877446293830872, -0.02697957679629326, -0.09711335599422455, 0.00854011531919241, -0.01337115652859211, -0.09726601839065552, -0.12375681102275848, -0.13939666748046875, -0.028141142800450325, -0.09597944468259811, -0.08103979378938675, -0.011802969500422478, -0.02661861665546894, -0.02020644024014473, -0.15794532001018524, 0.0388287752866745, 0.09120137989521027, 0.05036236718297005, -0.08580979704856873, -0.04768993705511093, -0.01993904821574688, -0.17059798538684845, 0.08825108408927917, -0.17920365929603577, -0.12098873406648636, -0.14750365912914276, -0.04183485731482506, -0.02776174806058407, 0.13006579875946045, -0.0541723258793354, -0.12534742057323456, 0.04185754060745239, -0.024746939539909363, -0.11579590290784836, -0.060983650386333466, 0.0037115898448973894, -0.049795009195804596, -0.34940582513809204, -0.07346211373806, -0.11612314730882645, -0.07415030151605606], [0.16067205369472504, -0.0034583897795528173, -0.22814488410949707, 0.04774783179163933, 0.1419598013162613, 0.1792600452899933, -0.04543271288275719, -0.12389012426137924, 0.06276839971542358, 0.21318811178207397, -0.2580794095993042, -0.35891228914260864, 0.057477280497550964, -0.061445675790309906, 0.01726670190691948, 0.11342187225818634, 0.1301398128271103, -0.11040355265140533, -0.3496553599834442, -0.04146914929151535, -0.2814774215221405, -0.19385844469070435, -0.020779062062501907, -0.0398796908557415, 0.016581153497099876, -0.2208801507949829, 0.25617489218711853, -0.24135251343250275, -0.09648804366588593, -0.2631056606769562, -0.18237502872943878, 0.06951332837343216, -0.12371465563774109, -0.4070703387260437, -0.2378065288066864, -0.21882082521915436, 0.0717884823679924, 0.07098522782325745, -0.3119957447052002, -0.04064441844820976, -0.009061782620847225, -0.20376956462860107, -0.38562527298927307, -0.06391453742980957, -0.1463181972503662, -0.07279833406209946, -0.45945802330970764, -0.2802914083003998, 0.09632714092731476, -0.31896284222602844, 0.23704171180725098, 0.5420551896095276, -0.10283080488443375, -0.07485464215278625, 0.17962269484996796, -0.007525021210312843, 0.17392119765281677, -0.08586674183607101, -0.2495160847902298, 0.1195949986577034, -0.05560338497161865, 0.12044156342744827, -0.22605960071086884, -0.018356183543801308, -0.313147634267807, -0.4343036115169525, 0.04595863074064255, -0.227468341588974, -0.12102165073156357, 0.07665368914604187, -0.0912899374961853, -0.11736758798360825, -0.12003739923238754, 0.1413136124610901, -0.38733112812042236, -0.2321334183216095, -0.030711963772773743, 0.12883806228637695, -0.2808724343776703, 0.25867319107055664, 0.0018697890918701887, -0.1978464275598526, -0.050907839089632034, -0.09792941808700562, -0.27778327465057373, 0.13450369238853455, -0.5204504132270813, -0.1459527462720871, -0.04959927499294281, -0.27471891045570374, -0.21919430792331696, 0.014349441975355148, 0.08580072224140167, -0.19295907020568848, -0.07559993863105774, -0.3231932520866394, -0.08827663958072662, -0.19939590990543365, -0.020011723041534424, -0.23969843983650208, -0.0868801400065422, -0.040301915258169174, 0.06681147962808609, -0.16948507726192474, 0.018089434131979942, -0.2194475382566452, -0.02413988672196865, 0.33005809783935547, 0.10605625808238983, -0.08293436467647552, -0.306814044713974, 0.16154925525188446, -0.1436062753200531, -0.4479485750198364, -0.4622451066970825, 0.24973677098751068, 0.1480165719985962, -0.21917414665222168, 0.0769403874874115, 0.21778003871440887, -0.3888832926750183, -0.23303869366645813, -0.18827185034751892, -0.37167203426361084, -0.2981698513031006, -0.278116375207901, -0.37433409690856934, 0.09794488549232483], [0.018627185374498367, -0.018588311970233917, -0.08755603432655334, -0.08835358172655106, -0.018792636692523956, 0.012965794652700424, -0.0033845747821033, 0.027469070628285408, -0.01971261203289032, -0.0839264765381813, 0.0076059820130467415, -0.05019238963723183, -0.09266846626996994, 0.040250349789857864, -0.0162859745323658, -0.11783154308795929, 0.054027631878852844, 0.028745528310537338, 0.06773138791322708, -0.03682345896959305, -0.04924636706709862, -0.07217995077371597, -0.07330085337162018, -0.05254291370511055, 0.05304635316133499, -0.04064420983195305, -0.15945351123809814, 0.009410521015524864, -0.02371501363813877, -0.0004273283702787012, -0.0554136224091053, -0.05271034315228462, -0.05637397989630699, -0.01541413925588131, -0.033811964094638824, 0.039053089916706085, 0.01639764942228794, -0.05590851604938507, -0.0399492122232914, 0.026472797617316246, -0.02376399375498295, -0.10562662780284882, 0.2592236399650574, -0.08541512489318848, -0.035303644835948944, 0.07070892304182053, -0.05141624063253403, 0.06622199714183807, -0.06316719204187393, 0.02918480709195137, -0.0005235772114247084, 0.16938452422618866, -0.05529237538576126, -0.13385197520256042, 0.015987563878297806, -0.1275796741247177, -0.15920299291610718, 0.04856644570827484, -0.09119724482297897, -0.0026560830883681774, 0.06896195560693741, -0.13493195176124573, -0.03865562751889229, -0.003388516139239073, 0.02207367494702339, -0.07893106341362, -0.056524645537137985, 0.059905100613832474, 0.017083866521716118, -0.05505670607089996, 0.027128366753458977, -0.10767262428998947, 0.012881460599601269, -0.019365472719073296, -0.09969016164541245, -0.04911309480667114, -0.10404632240533829, -0.038552023470401764, -0.3563006818294525, -0.09966019541025162, 0.035433609038591385, -0.25320684909820557, -0.08499407768249512, -0.09539926797151566, -0.08636122196912766, 0.11680781841278076, 0.031493980437517166, 0.03850673884153366, -0.030347079038619995, -0.10435636341571808, 0.028169116005301476, -0.022442804649472237, 0.03885071724653244, 0.03358485922217369, -0.06110526993870735, -0.09266205877065659, -0.1363603174686432, -0.1063370630145073, -0.11103188246488571, -0.07617419213056564, 0.040110718458890915, -0.08167121559381485, 0.0644865334033966, -0.10626852512359619, 0.023260073736310005, 0.007061885669827461, -0.1162419244647026, -0.002463138895109296, -0.12135835736989975, 0.040670961141586304, -0.052884116768836975, 0.04360266402363777, -0.03537876158952713, 0.05155733972787857, 0.0382278673350811, 0.1049140989780426, -0.049315109848976135, -0.06371410936117172, -0.05858173593878746, 0.03469817340373993, 0.010883134789764881, -0.16135303676128387, 0.005668289959430695, -0.01630181446671486, -0.07575998455286026, -0.02794342115521431, -0.05381070449948311, -0.05949148163199425], [-0.08694993704557419, -0.005788673646748066, -0.19163823127746582, -0.03428959101438522, 0.011904602870345116, -0.028044482693076134, -0.02841527760028839, -0.09717170149087906, -0.10521125048398972, 0.004618735983967781, 0.14137934148311615, -0.022501317784190178, -0.08568514883518219, -0.043445881456136703, -0.17041157186031342, -0.06873901188373566, -0.017061421647667885, 0.004751875530928373, -0.13930605351924896, 0.002067935187369585, -0.16194206476211548, 0.0660543292760849, -0.045786842703819275, -0.002153233624994755, -0.09785182029008865, -0.19085021317005157, -0.15051192045211792, -0.09669600427150726, -0.21965567767620087, 0.10264725983142853, -0.09696041792631149, -0.043062787503004074, -0.17515265941619873, -0.07983347773551941, -0.13804541528224945, -0.06860359013080597, -0.1800001561641693, -0.23129254579544067, -0.11574012041091919, -0.04853137582540512, 0.04895130917429924, -0.02385612390935421, -0.2398550659418106, -0.016744093969464302, 0.08870971947908401, 0.07975656539201736, -0.1443910002708435, -0.16489318013191223, 0.10335414856672287, 0.05001784488558769, -0.22928215563297272, -0.23841990530490875, 0.026683101430535316, -0.12522868812084198, 0.00824714358896017, -0.026920562610030174, 0.03333078697323799, -0.03539863973855972, 0.2096659243106842, -0.011729083023965359, -0.04607587680220604, 0.03167326748371124, -0.057980868965387344, -0.18952955305576324, 0.06536948680877686, -0.10167380422353745, -0.04316246137022972, 0.11199145019054413, -0.1802821159362793, 0.028197133913636208, -0.08731290698051453, -0.31273534893989563, -0.010605632327497005, -0.14008140563964844, -0.04173768684267998, -0.035221755504608154, 0.10737354308366776, -0.1006087139248848, -0.04129401594400406, -0.38936835527420044, -0.1401490569114685, -0.031006719917058945, -0.030212203040719032, -0.29289284348487854, -0.04979622736573219, -0.00044847489334642887, -0.04035872220993042, -0.07362343370914459, -0.1395832598209381, -0.12022379785776138, -0.0959712490439415, -0.007042847108095884, -0.1745683252811432, -0.05464651808142662, -0.02520720846951008, -0.11759737133979797, -0.0450570173561573, -0.05428190156817436, -0.08977467566728592, -0.05195201560854912, -0.1663593351840973, -0.058087944984436035, 0.005654891487210989, -0.012568083591759205, -0.09722445905208588, -0.10598020255565643, -0.06861189007759094, -0.1589495837688446, -0.011197974905371666, -0.016949694603681564, -0.05749635770916939, 0.02197825163602829, 0.003957482986152172, -0.08612386882305145, 0.02624046616256237, 0.17492344975471497, -0.06655371934175491, 0.04610856994986534, 0.0005607471102848649, 0.004950522445142269, 0.1235414668917656, -0.18883845210075378, -0.15680070221424103, -0.03496886417269707, -0.25603780150413513, -0.137384295463562, -0.08218131959438324, 0.0664302185177803], [-0.15123416483402252, -0.3070772588253021, 0.3715864419937134, 0.004629128146916628, -0.4118614196777344, -0.1806849241256714, -0.14512738585472107, 0.3629993200302124, 0.24622845649719238, 0.14780190587043762, -0.09482602030038834, -0.8487074375152588, 0.13742323219776154, 0.19676095247268677, -0.1285703331232071, 0.4814625680446625, 0.26956191658973694, 0.13362611830234528, -0.1447579562664032, 0.01655026711523533, -0.25957173109054565, -0.10465782880783081, 0.3016139268875122, -0.33310800790786743, -0.28720277547836304, -0.09946122765541077, 0.257511168718338, -0.25609952211380005, -0.2922912538051605, 0.3637624979019165, 0.3712116777896881, 0.2298285961151123, 0.18272250890731812, -0.4964138865470886, -0.1360624134540558, 0.07819139957427979, 0.06621268391609192, -0.07898107171058655, 0.1370081603527069, 0.06095845624804497, 0.011151939630508423, 0.23626887798309326, -0.15589691698551178, 0.2548471689224243, 0.047141317278146744, -0.41012293100357056, 0.42187589406967163, -0.008545887656509876, 0.5181018710136414, 0.001124842674471438, 0.15004244446754456, -0.3968178629875183, -0.413354754447937, 0.1629926711320877, 0.1272660493850708, -0.12503260374069214, 0.3757166862487793, -0.2133081555366516, 0.12120576202869415, -0.038593392819166183, 0.2776682674884796, 0.6497883200645447, 0.0035261097364127636, 0.09455705434083939, 0.14850486814975739, -0.7691349387168884, -0.03473075106739998, -0.010496505536139011, 0.247624009847641, 0.06253266334533691, -0.08307391405105591, 0.05758262425661087, 0.11033014953136444, 0.3482169210910797, 0.212822824716568, -0.3862876892089844, 0.2649266719818115, 0.024109970778226852, -0.12904606759548187, 0.18187129497528076, -0.044212087988853455, -0.24256481230258942, -0.29778239130973816, -0.29520031809806824, -1.1634740829467773, -0.39702939987182617, -1.3910499811172485, 0.11753656715154648, 0.23377202451229095, -1.0898215770721436, 0.07130606472492218, -0.8479201793670654, -0.34472453594207764, 0.0029186406172811985, -0.06568500399589539, -0.6486848592758179, 0.08651234954595566, 0.23788300156593323, 0.17822463810443878, 0.31360572576522827, 0.04546369984745979, -0.6595531702041626, 0.026379207149147987, 0.23572953045368195, -0.11356993764638901, -0.0455082431435585, 0.18741393089294434, -0.10955648124217987, 0.06833616644144058, -0.37624722719192505, -0.049563825130462646, -0.44220536947250366, 0.1938217431306839, -0.059410154819488525, -0.05546098202466965, -0.007223015651106834, 0.16809043288230896, 0.10112157464027405, 0.16497349739074707, 0.21884848177433014, -0.08129647374153137, 0.4458177089691162, -0.30177900195121765, 0.048448801040649414, -0.12482517957687378, 0.3146628141403198, -0.11484435200691223, 0.28012359142303467], [0.057382263243198395, 0.03276587650179863, -0.15421681106090546, 0.02595934271812439, -0.08562593162059784, -0.10220786929130554, 0.006337825674563646, 0.0570744052529335, -0.04015262797474861, 0.026136694476008415, -0.271615594625473, -0.07863976806402206, 0.2079637050628662, -0.027544166892766953, -0.09319353848695755, -0.04600413888692856, -0.06503018736839294, -0.006005375180393457, 0.1226821020245552, -0.07736622542142868, -0.12115877866744995, -0.1351148784160614, -0.19286637008190155, -0.04962446540594101, -0.08514714241027832, -0.07592549175024033, -0.09593649953603745, -0.07972051203250885, -0.11461900919675827, -0.12688593566417694, 0.004865463823080063, -0.10661737620830536, 0.012236245907843113, -0.04584510624408722, 0.04771262779831886, -0.06588896363973618, 0.14049401879310608, -0.10038763284683228, -0.12165351212024689, 0.016152726486325264, 0.019137388095259666, -0.0120987668633461, 0.06362409889698029, 0.006175613962113857, -0.05862218514084816, -0.1283232867717743, -0.062159214168787, 0.039275962859392166, -0.28095823526382446, -0.24267664551734924, 0.015744974836707115, 0.19300884008407593, 0.09192925691604614, -0.2164173722267151, -0.11422120779752731, -0.0828118696808815, -0.008529238402843475, -0.12985660135746002, -0.031017763540148735, -0.019790563732385635, -0.020432008430361748, -0.1787138730287552, 0.011781840585172176, -0.003418761771172285, 0.017493676394224167, -0.09373213350772858, -0.027444247156381607, -0.17389652132987976, 0.020427027717232704, -0.033955685794353485, -0.03129321336746216, -0.032866667956113815, -0.12697641551494598, -0.06181729584932327, -0.11577540636062622, -0.01634756661951542, 0.08886481076478958, -0.1882467269897461, -0.47256550192832947, 0.1362563967704773, -0.06641394644975662, 0.0038291991222649813, -0.011579164303839207, -0.07334079593420029, -0.0019585725385695696, -0.04452934116125107, -0.09548581391572952, -0.12261386215686798, -0.007344469893723726, -0.030940402299165726, -0.06353349983692169, -0.1241888552904129, 0.039077628403902054, 0.004813607782125473, -0.025567354634404182, 0.0007681137649342418, -0.13347481191158295, -0.17086029052734375, -0.005495904479175806, -0.1336149275302887, 0.0053009409457445145, 0.06428636610507965, 0.037311822175979614, -0.08651485294103622, 0.032614048570394516, -0.008612966164946556, -0.11658164858818054, 0.07852932810783386, -0.05460198596119881, 0.09818150103092194, 0.039437368512153625, -0.046551384031772614, 0.1939174234867096, -0.03989951312541962, -0.21433980762958527, -0.10754569619894028, 0.07723134011030197, -0.006858644541352987, -0.1133006364107132, -0.13128690421581268, -0.1513209193944931, -0.030909810215234756, -0.04723704606294632, -0.08907487988471985, 0.032716140151023865, -0.03614240884780884, 0.0313340462744236, -0.08223830163478851], [0.07083149254322052, 0.047318167984485626, -0.038185782730579376, 0.051171764731407166, -0.014878342859447002, -0.01938815228641033, -0.06712695956230164, -0.17800426483154297, -0.42616477608680725, 0.20777186751365662, 0.025776399299502373, 0.08246759325265884, 0.10535886138677597, -0.01861550472676754, 0.17563581466674805, -0.2599278688430786, -0.3478996455669403, 0.08112800121307373, -0.15115754306316376, 0.027501987293362617, -0.14865438640117645, -0.3385666012763977, 0.021558769047260284, -0.39826181530952454, -0.18031984567642212, 0.002564233960583806, -0.17298738658428192, -0.05486118793487549, -0.09079901874065399, 0.04797367751598358, 0.028527872636914253, -0.20902517437934875, 0.001318498863838613, -0.20188374817371368, -0.06902596354484558, -0.26058563590049744, 0.09852927178144455, -0.0892554447054863, -0.14832325279712677, -0.07993967086076736, -0.031584709882736206, 0.14593757688999176, 0.062307827174663544, -0.24739013612270355, 0.2168234884738922, -0.2089788168668747, -0.015197335742413998, -0.08297304809093475, -0.33162134885787964, -0.059720177203416824, 0.12409190833568573, 0.045695710927248, 0.007083964068442583, 0.07099618017673492, -0.17346499860286713, -0.1205763965845108, -0.16477933526039124, -0.1316756010055542, -0.22045913338661194, 0.14700175821781158, 0.0840827152132988, -0.13775089383125305, -0.38636505603790283, -0.09631995111703873, -0.05327240005135536, -0.2041969895362854, 0.05097609758377075, -0.2598012387752533, -0.11165351420640945, -0.32466599345207214, -0.14865317940711975, 0.14258769154548645, 0.07952125370502472, -0.1986079216003418, -0.4101121127605438, -0.08630917221307755, 0.08693663030862808, -0.03522063419222832, 0.06580802798271179, -0.08423499763011932, 0.2116115689277649, -0.35328057408332825, 0.014504528604447842, -0.3724936842918396, -0.33576735854148865, -0.013600536622107029, 0.04639129340648651, -0.13569775223731995, -0.11215851455926895, -0.10795991122722626, -0.24749736487865448, 0.04694307595491409, 0.09447655081748962, 0.0806906446814537, 0.022463999688625336, 0.14220039546489716, 0.020608555525541306, 0.21323789656162262, -0.08598127216100693, -0.0731608048081398, -0.010769751854240894, -0.22414855659008026, -0.07950524985790253, 0.16030043363571167, -0.0658249706029892, -0.24241843819618225, -0.061882443726062775, 0.022468354552984238, -0.07232952117919922, -0.192625492811203, -0.0359102301299572, -0.3982327878475189, -0.05668769031763077, -0.0934552475810051, -0.11475594341754913, -0.22303004562854767, 0.1398538500070572, -0.3166489005088806, -0.13237755000591278, -0.03929270803928375, 0.08795930445194244, -0.08891668915748596, -0.09959665685892105, -0.24078863859176636, 0.027850862592458725, -0.15889085829257965, -0.4544292390346527, -0.08528964221477509], [-0.07958202809095383, 0.055186185985803604, 0.018204228952527046, 0.07034453004598618, 0.009734513238072395, 0.027421949431300163, -0.10749705135822296, -0.09577064961194992, -0.051029857248067856, -0.07309235632419586, -0.10876842588186264, -0.06224922463297844, -0.0722871944308281, -0.04634840786457062, -0.0916990339756012, -0.06869421154260635, 0.006679164711385965, -0.08180694282054901, -0.021658791229128838, 0.020264267921447754, -0.03149515390396118, 0.08423098176717758, -0.14806623756885529, -0.0890255868434906, -0.04458978772163391, -0.07805267721414566, -0.017985934391617775, 0.007011009380221367, -0.07104606181383133, 0.002675435971468687, -0.08927485346794128, -0.00289117987267673, -0.0704381912946701, 0.0166399497538805, -0.03620947152376175, -0.02072615548968315, 0.04308858886361122, 0.02101563662290573, -0.0322750061750412, -0.02465575747191906, 0.01610562764108181, -0.022728996351361275, -0.0007717942353338003, -0.079285629093647, -0.028432970866560936, -0.052298691123723984, -0.11074201762676239, 0.02467717044055462, -0.07694338262081146, 0.008224569261074066, -0.10147213190793991, -0.09450868517160416, -0.03898065164685249, -0.0013446611119434237, -0.021590283140540123, -0.057771824300289154, -0.1419801115989685, -0.06958163529634476, -0.048089656978845596, -0.028464512899518013, 0.044758204370737076, -0.055005017668008804, -0.04569369927048683, -0.1338462382555008, -0.013540102168917656, 0.012925321236252785, -0.05117800086736679, -0.09748444706201553, -0.07374075800180435, -0.09551504999399185, -0.07400469481945038, -0.12384776771068573, 0.0423906184732914, 0.03693677857518196, 0.0041443053632974625, -0.07699558138847351, 0.08238302916288376, -0.06731387227773666, -0.010865488089621067, -0.03061719238758087, -0.10676608234643936, 0.004561382811516523, -0.047550562769174576, -0.10210107266902924, -0.11433696746826172, -0.009204532951116562, -0.01891924813389778, -0.027471644803881645, 0.05047857016324997, -0.040995873510837555, 0.010972979478538036, -0.09195323288440704, -0.07775065302848816, -0.06893343478441238, -0.08452815562486649, -0.06713604182004929, -0.09671510010957718, -0.051531706005334854, -0.11326248943805695, 0.04629680514335632, -0.005632003303617239, -0.06793584674596786, 0.042250435799360275, -0.03339628130197525, -0.0855841115117073, -0.011059246025979519, -0.12530556321144104, -0.05998528003692627, -0.13557389378547668, -0.12087208032608032, -0.0035147331655025482, -0.07466141879558563, 0.10722621530294418, 0.04064824432134628, -0.12449546903371811, -0.09169596433639526, -0.060674410313367844, -0.056721583008766174, -0.024856818839907646, -0.024579713121056557, -0.11716122180223465, -0.021533410996198654, -0.12930306792259216, -0.045769691467285156, -0.10499153286218643, -0.07276369631290436, -0.026287753134965897, -0.11552754044532776], [0.011777320876717567, 0.030806371942162514, -0.18366578221321106, -0.0780976191163063, -0.01992241106927395, -0.4720485210418701, -0.01724274456501007, -0.11861182004213333, -0.23013846576213837, -0.43299081921577454, -0.2650146782398224, -0.13708439469337463, 0.06303294748067856, 0.026452263817191124, -0.004670395981520414, -0.1000521183013916, -0.026218799874186516, 0.07398251444101334, -0.16317793726921082, -0.06508952379226685, -0.07379467040300369, -0.15293766558170319, -0.12475237250328064, 0.37641990184783936, -0.28280991315841675, -0.10779906064271927, -0.11225909739732742, 0.01808255724608898, 0.028894081711769104, -0.022223282605409622, -0.19571992754936218, -0.14169847965240479, 0.07755647599697113, -0.08977607637643814, 0.047280434519052505, -0.1306418776512146, 0.17308175563812256, 0.07085251063108444, -0.31001779437065125, -0.04811806604266167, 0.07730216532945633, -0.23157061636447906, 0.14260542392730713, -0.009492919780313969, -0.09206712245941162, -0.1646440625190735, -0.08376210182905197, -1.1647405624389648, -0.3333119750022888, -0.5049729943275452, 0.013414002023637295, -0.03687022253870964, -0.02627975307404995, -0.016010252758860588, -0.05924881249666214, 0.02037971094250679, -0.06048251688480377, 0.09974563866853714, -0.14289413392543793, -0.20087610185146332, -0.04652402922511101, 0.018110068514943123, -0.0482490211725235, 0.190055713057518, -0.26703572273254395, -0.08969338983297348, -0.024481428787112236, -0.6008411049842834, -0.002415729220956564, -0.22616204619407654, -0.07861226797103882, 0.03889234736561775, -0.16531763970851898, 0.04473172128200531, -0.31907743215560913, -0.13705700635910034, 0.05883382260799408, 0.06795766949653625, -0.27677470445632935, 0.03826425224542618, -0.04285484179854393, 0.15101279318332672, -0.054802801460027695, 0.1245807632803917, -0.1931605041027069, -0.5703251957893372, -0.18725638091564178, -0.2193184494972229, 0.08780419826507568, -0.20628167688846588, -0.37918025255203247, -0.2306479513645172, -0.0034447042271494865, -0.051666807383298874, -0.1308726817369461, -0.11268831044435501, -0.13599878549575806, 0.062110792845487595, 0.02451399341225624, -0.13749641180038452, -0.1328594982624054, 0.0815657451748848, -0.08929557353258133, -0.07569139450788498, 0.018381521105766296, -0.08748450130224228, -0.03083881549537182, -0.002585005946457386, 0.11070303618907928, -0.7660272717475891, -0.13404706120491028, -0.027506167069077492, 0.317651629447937, -0.05811985209584236, -0.6739982962608337, -0.3668963611125946, -0.08795173466205597, 0.11516877263784409, -0.0400720089673996, -0.3339281976222992, -0.18180899322032928, -0.1805511713027954, 0.014265879988670349, -0.029596718028187752, 0.14159700274467468, 0.09360180050134659, -0.23755909502506256, -0.05839914456009865], [-0.04498779773712158, -0.1184874027967453, -0.0929170697927475, -0.06854180246591568, -0.16786396503448486, -0.010358594357967377, -0.063175730407238, -0.08229079842567444, -0.0209703017026186, -0.11997593939304352, -0.09189107269048691, -0.015966173261404037, -0.03933042287826538, 0.01699742116034031, 0.006926300469785929, -0.018600599840283394, -0.016159240156412125, 0.05890494957566261, -0.16813690960407257, -0.04578615352511406, 0.04808250814676285, -0.17236632108688354, -0.09804504364728928, 0.02955845184624195, -0.0014462792314589024, -0.2219664454460144, -0.05466795340180397, -0.06894384324550629, -0.1530943512916565, 0.04419194161891937, -0.09852279722690582, 0.039895977824926376, -0.11801101267337799, -0.14118152856826782, 0.0444195382297039, -0.10667971521615982, 0.07791867107152939, 0.07387412339448929, -0.04648873582482338, -0.048450347036123276, -0.01058607641607523, 0.10706821829080582, 0.09460696578025818, -0.005605568643659353, -0.02296326495707035, -0.005818245466798544, -0.15787926316261292, -0.10967599600553513, -0.3672521710395813, -0.009983270429074764, 0.03946719318628311, 0.19886180758476257, -0.012275682762265205, -0.10049720108509064, -0.19397534430027008, -0.05919777229428291, -0.12467703968286514, -0.11549457907676697, -0.3214261829853058, 0.019471095874905586, -0.003089250298216939, -0.08727353066205978, 0.12164653092622757, -0.011620761826634407, 0.04528526961803436, -0.13244464993476868, 0.07691731303930283, 0.08771098405122757, -0.05218971148133278, -0.019429989159107208, -0.024706698954105377, -0.0937652438879013, 0.05954506993293762, -0.017029542475938797, -0.002410684712231159, -0.114443838596344, -0.2606969475746155, 0.0608217790722847, 0.18305489420890808, 0.0027345013804733753, 0.051817990839481354, -0.27578920125961304, 0.0660758838057518, -0.19753578305244446, 0.008776349015533924, 0.2089097946882248, -0.13821794092655182, -0.07313653081655502, -0.06363895535469055, -0.07921238988637924, -0.020979562774300575, 0.0291493758559227, -0.007821133360266685, -0.011377647519111633, -0.09833359718322754, -0.005253820680081844, -0.15549474954605103, -0.07242918759584427, -0.0796649307012558, -0.06367767602205276, 0.018118644133210182, -0.03728632256388664, 0.01095952931791544, -0.0830104798078537, -0.028458289802074432, -0.10630068182945251, -0.1808159202337265, -0.04470479115843773, 0.0004543296236079186, 0.14948420226573944, -0.011419238522648811, -0.03649626299738884, -0.3670463562011719, -0.02454962581396103, 0.010771048255264759, 0.04009808972477913, 0.03153366968035698, -0.15893913805484772, 0.05133547633886337, -0.023977257311344147, 0.00520987156778574, 0.014292203821241856, -0.08366846293210983, -0.07660140842199326, 0.02066068910062313, -0.040598783642053604, -0.169693723320961, -0.22039607167243958], [-0.06751063466072083, -0.0033578963484615088, -0.08214429020881653, 0.024940116330981255, -0.08586674928665161, 0.048260822892189026, -0.0728597417473793, -0.10263469070196152, -0.037424296140670776, 0.06122032552957535, -0.09960624575614929, -0.004187323153018951, -0.058895863592624664, -0.020933296531438828, -0.04599558189511299, -0.08811360597610474, -0.08646918088197708, -0.030015507712960243, -0.13341328501701355, -0.042472947388887405, 0.02915291301906109, -0.06277214735746384, 0.012830906547605991, -0.022025521844625473, -0.013364104554057121, 0.035216622054576874, 0.006294511258602142, -0.11604561656713486, -0.10507584363222122, -0.09398430585861206, -0.01872234418988228, -0.07302640378475189, -0.00904887355864048, -0.09752190113067627, -0.07349467277526855, -0.06532735377550125, -0.06018209084868431, -0.10720385611057281, -0.04478016868233681, -0.014957102946937084, 0.04166824743151665, 0.032443415373563766, -0.0541667565703392, -0.008760577067732811, -0.09082036465406418, 0.018377825617790222, -0.11928509175777435, 0.029132544994354248, 0.04430586099624634, -0.022288398817181587, -0.12569326162338257, -0.032138802111148834, -0.11680664867162704, -0.13962289690971375, 0.0027908715419471264, -0.04357670620083809, -0.03435857221484184, -0.010908827185630798, -0.11923876404762268, 0.003924229647964239, 0.007860972546041012, -0.022255616262555122, 0.05652621015906334, -0.09095676988363266, -0.001019660267047584, 0.014567009173333645, 0.00016754426178522408, 0.02715599164366722, -0.07748951762914658, 0.09409095346927643, -0.019849833101034164, 0.03336707130074501, -0.0016625260468572378, -0.08046147227287292, -0.03751913085579872, -0.1114932969212532, -0.03393671289086342, -0.10030276328325272, 0.08319132775068283, -0.05173298716545105, -0.10924047231674194, 0.028618155047297478, -0.07146487385034561, -0.05123491212725639, -0.09682352840900421, -0.05849037691950798, -0.02684677205979824, -0.04491972550749779, -0.035485222935676575, -0.07389281690120697, -0.007701854221522808, 0.035895589739084244, -0.06784714758396149, -0.055454663932323456, -0.06816989928483963, -0.07568805664777756, 0.0876040905714035, -0.033278610557317734, -0.05237141624093056, -0.025047289207577705, 0.011863095685839653, -0.013216685503721237, -0.0483839213848114, -0.03157474845647812, -0.10914600640535355, -0.12398150563240051, -0.019689522683620453, -0.10519342124462128, 0.018034402281045914, 0.08249743282794952, 0.020085180178284645, -0.03269607573747635, 0.027702128514647484, -0.06335500627756119, -0.029938746243715286, 0.05112788826227188, 0.029574938118457794, 0.052823975682258606, -0.1215386614203453, 0.006009220611304045, -0.04577621817588806, -0.06288313120603561, -0.0002778200141619891, -0.09382366389036179, 0.03892913833260536, -0.06268731504678726, -0.12788061797618866, -0.041870225220918655], [-0.0933268666267395, 0.02591116726398468, -0.37489351630210876, 0.07769625633955002, 0.10185223817825317, 0.6491692662239075, -0.036262866109609604, -0.8335372805595398, -0.19646981358528137, 0.15742425620555878, 0.4372076988220215, -0.23920288681983948, -0.17732186615467072, -0.3455251157283783, -0.7052781581878662, -0.704512894153595, -0.23348979651927948, -0.5954190492630005, -0.5093572735786438, 0.08165810257196426, 0.04013064131140709, 0.20448239147663116, -0.17934487760066986, -0.4333166182041168, 0.09389171749353409, 0.07548604160547256, -1.0550616979599, -0.08718790113925934, -0.17041027545928955, 0.08982805162668228, 0.07941263914108276, -0.2264808714389801, -0.8769412040710449, -0.24346615374088287, 0.2228652536869049, -0.015780819579958916, -0.006988897919654846, -0.3408163785934448, -0.27903127670288086, -0.12996502220630646, -0.04352788254618645, -0.9800711870193481, -0.2661689221858978, -0.11095863580703735, -0.005876454524695873, -0.8024231791496277, -0.15725992619991302, 0.35173994302749634, 0.14821460843086243, -0.38751357793807983, 0.44469791650772095, 0.3204995095729828, -0.07737558335065842, -0.23410050570964813, -0.023211369290947914, 0.20456524193286896, -0.4586236774921417, -0.4829694926738739, -0.6078270673751831, 0.6253364682197571, 1.156089186668396, -0.5987623333930969, -0.03972340002655983, -0.07731325924396515, -0.2780854403972626, 0.027730759233236313, 0.04251605272293091, -0.6221515536308289, -0.43196815252304077, -0.16695408523082733, -0.1734321117401123, 0.05832310765981674, 0.07364673167467117, -0.21135325729846954, -0.24224531650543213, 0.0065155914053320885, -1.079086422920227, -0.08454068005084991, 0.2075408399105072, -0.6677258014678955, 0.025647351518273354, 0.5150645971298218, 0.014760322868824005, -0.11750691384077072, 0.13154639303684235, -0.4570845365524292, 0.00111581408418715, -0.13773797452449799, 0.16400885581970215, -0.11231695115566254, 0.19947214424610138, -0.48589175939559937, -0.12470243126153946, -0.23409605026245117, 0.0971904769539833, 0.14420804381370544, -0.11034556478261948, -0.3985709249973297, 0.07242044061422348, -0.05910814180970192, -0.8430507183074951, -0.2979139983654022, 0.034790895879268646, -0.4308587908744812, -0.4583975374698639, 0.04843699187040329, -0.1977996826171875, -0.4310050308704376, -0.019890140742063522, -0.3833685517311096, -1.1175457239151, 0.06301531940698624, -0.2040797472000122, 0.14009612798690796, -0.3630717396736145, 0.19154766201972961, -0.23321382701396942, 0.20990698039531708, -0.10182797163724899, -0.01581774465739727, -0.11707043647766113, -0.15402770042419434, -0.5322529673576355, -0.2759154140949249, -0.9529845118522644, -0.09666841477155685, -0.030675234273076057, 0.4189258813858032], [0.1253499835729599, 0.005430898629128933, -0.13961602747440338, 0.11169437319040298, -0.11798428744077682, -0.28228625655174255, -0.05577104538679123, -0.18401768803596497, 0.09358250349760056, -0.32850712537765503, 0.018639937043190002, -0.04842108115553856, -0.18045574426651, -0.22062227129936218, -0.09516074508428574, -0.10184025764465332, 0.01737753115594387, 0.10965259373188019, 0.1945851743221283, 0.050422001630067825, -0.17699633538722992, 0.1407908797264099, 0.19467125833034515, -0.6043393015861511, -0.24119362235069275, -0.38137874007225037, 0.011376447975635529, -0.10795223712921143, -0.3352004289627075, 0.003936782944947481, -0.1385420262813568, 0.1151285320520401, 0.1646898090839386, -0.029905730858445168, -0.03798331692814827, -0.06915033608675003, -0.15676358342170715, -0.004843410570174456, -0.07565619051456451, 0.0909859910607338, -0.012297396548092365, -0.26289257407188416, 0.013452122919261456, -0.3686334192752838, -0.03284423425793648, 0.18736420571804047, -0.3905611038208008, -0.0038258542772382498, -0.564299464225769, -0.11280355602502823, 0.22991862893104553, 0.31640785932540894, -0.08492517471313477, -0.01893477886915207, -0.29384666681289673, -0.5210340619087219, -0.08819224685430527, -0.1715264916419983, 0.14351722598075867, -0.1373002529144287, -0.15990082919597626, -0.030426299199461937, 0.061553843319416046, -0.08515143394470215, 0.020530380308628082, 0.04926767200231552, 0.04951414838433266, -0.21488048136234283, 0.052141495048999786, -0.5039228200912476, -0.20451828837394714, 0.1299811154603958, -0.5255921483039856, -0.24023409187793732, 0.0273726973682642, -0.21506279706954956, 0.18967708945274353, 0.061034176498651505, -0.1641828417778015, -0.18310785293579102, -0.004035613965243101, -0.14460352063179016, -0.059342943131923676, 0.07422073930501938, -0.008848736993968487, 0.4173314571380615, -0.16897697746753693, -0.05128954350948334, -0.12245405465364456, -0.10051260888576508, 0.06322459131479263, -0.3475419580936432, -0.09860372543334961, -0.1156778559088707, -0.11828064918518066, -0.15454469621181488, -0.44675561785697937, -0.018610503524541855, 0.16685765981674194, -0.19214676320552826, -0.07055285573005676, -0.20084531605243683, -0.1724836826324463, -0.38474681973457336, -0.08147712796926498, -0.39702916145324707, -0.3401314914226532, -0.24186161160469055, -0.1452445089817047, 0.02537534385919571, -0.4541173279285431, -0.1206640750169754, 0.028885789215564728, -0.002279846230521798, 0.18238934874534607, -0.3095061182975769, -0.1338653266429901, 0.017701731994748116, 0.044295381754636765, -0.4449021518230438, -0.32288479804992676, -0.281698614358902, 0.05687907338142395, -0.033805761486291885, -0.04741128534078598, 0.02849874645471573, -0.3923514783382416, -0.1925124228000641], [-0.3480567932128906, 0.32618337869644165, 0.31283506751060486, 0.039656225591897964, -0.001602706965059042, 0.44522982835769653, 